2388 128
163 0.30351907 0.018624414 -0.1359499 -0.2508202 -0.04540187 -0.35182106 -0.08643104 -0.111380816 0.26018617 -0.27685225 -0.33035472 -0.1481265 -0.25136763 -0.07418721 -0.25323772 -0.2392908 -0.20824051 0.27549008 -0.40028206 0.42097786 0.38683063 0.42957926 0.070765786 -0.36966914 0.27891773 0.057458468 -0.4269468 0.12596369 -0.198067 0.1862904 0.4488002 -0.031786308 0.17365885 0.17505996 -0.2606973 -0.043948088 -0.24311705 0.36433566 0.119819626 0.16101971 -0.092154935 0.19719943 0.007980866 0.17879055 0.20298596 -0.09038001 0.40778062 0.21768917 0.19611539 0.16031753 0.047590777 -0.059548467 0.39149475 -0.3305751 -0.1285567 -0.06900406 0.040194772 0.21898925 0.005892813 0.18400846 -0.09131595 -0.050551303 -0.39522925 -0.5158096 -0.2526843 -0.29145288 -0.06628412 0.12290673 -0.57973796 -0.16159141 -0.16813555 0.1435752 -0.05691466 0.4173683 0.0344643 0.0700337 0.22402902 0.27643272 0.18287808 -0.11105206 0.052751504 0.19757523 -0.08732476 0.22253504 0.34717187 -0.07186595 0.32876223 -0.3143938 -0.54218125 0.05921893 -0.44535843 0.50656474 0.34043866 0.20836745 -0.2850431 -0.3533201 -0.080584124 -0.3111728 0.024756737 0.33601817 -0.10248151 -0.46010524 0.35760796 -0.180623 -0.06106327 -0.19202466 -0.20833968 -0.49985203 -0.13844262 0.1786693 0.020298686 -0.022690644 -0.18481609 0.038803957 -0.36029267 -0.16976729 -0.014467214 0.034259703 0.16363822 -0.18250036 -0.13589747 0.008102537 -0.2660266 -0.0924287 0.32516307 -0.50841963 0.1965086 0.05310375
747 0.00061461865 -0.12673275 -0.24983937 0.022702267 0.10906325 -0.04159634 0.41306946 0.4632139 0.663114 0.25959086 0.18408737 -0.5366284 -0.035240393 -0.58586305 0.4342496 0.17614168 -0.5286546 0.23239401 -0.39612082 0.32687142 -0.1939059 -0.24927884 0.1587039 -0.20773822 -0.0064705987 0.25047532 -0.020459183 0.4090291 -0.07020082 0.10888474 -0.35689935 -0.70000255 0.27287185 0.29280558 0.09162561 0.508819 -0.12342006 -0.01230895 0.48559284 0.4256273 -0.13797773 -0.06982017 0.08802611 0.76289684 -0.11688732 0.02012616 -0.10904794 -0.3054296 0.1057209 -0.04879129 0.018872337 -0.07883072 0.3819697 0.2797865 -0.43101472 -0.14557594 0.036725678 0.14938854 -0.07320262 0.0543591 -0.26855484 -0.032330107 -0.21546356 -0.24870068 -0.1334268 0.0950812 0.12136122 0.28078136 0.06781441 -0.1022199 0.23607962 0.14244857 -0.45551488 0.42172125 0.116629675 -0.09496854 0.22288251 0.040348507 -0.1936119 -0.21217223 0.24802789 -0.41009772 -0.3722152 0.12150096 0.41077137 -0.19604854 0.2247891 0.018848995 0.15681253 0.11231439 0.1137373 0.35130638 0.44708708 -0.07280663 0.15436104 0.26152283 0.1577141 0.040373977 -0.0015231614 0.6512985 -0.008653742 -0.47456768 0.014723625 -0.25042164 -0.3214234 -0.2736822 0.08472226 0.01315342 -0.044704255 0.1320235 0.10727918 0.14226888 0.19232619 0.037757523 -0.03964259 -0.12597834 0.0047060577 0.31951684 0.24762163 -0.07660805 0.09153933 -0.16607338 -0.4813424 -0.008330618 0.15183578 -0.5612814 -0.18480268 0.35672542
565 -0.012466813 -0.2576216 -0.24781045 0.08910372 0.10677225 -0.38918835 0.21156235 0.116195984 0.4868471 0.07364525 -0.19649448 -0.044414513 -0.07511657 -0.4152221 0.13895673 -0.43182498 -0.2240756 0.23007098 -0.028082926 -0.12217024 0.014877129 0.20287862 -0.04642967 0.29956236 0.15974337 -0.025885647 -0.27802032 0.28330693 -0.1318895 0.17156093 0.14510995 -0.24656954 0.3335978 0.254515 -0.5546421 -0.0024882988 -0.08969741 0.22269121 -0.3812349 0.5770275 0.12159592 -0.068906724 0.27734193 0.51908964 0.47911277 -0.06822879 0.2106035 0.09778144 0.0436442 -0.064668745 -0.047157664 0.27468354 0.19003257 0.12183738 -0.06632975 0.25450334 -0.23074852 0.25970358 -0.118914075 -0.1878716 -0.14742327 0.16352625 0.041976888 -0.6360881 0.20712891 -0.27317205 -0.05828243 -0.054575793 0.371963 -0.16648637 -0.38631737 0.1443338 -0.31274605 0.27026552 0.30433437 0.00943515 0.14587921 -0.16382967 0.2672023 -0.0036341813 -0.29568082 0.0003744407 -0.5441672 0.09459764 0.41701233 -0.5136806 0.20459726 0.30640212 0.34170255 -0.27166137 0.18418713 0.43482563 0.25490963 -0.14736536 -0.20349266 0.19649866 0.24274196 -0.4376947 -0.33429307 0.15470333 0.0574452 -0.22290425 0.26612455 -0.19728835 -0.24102257 -0.3750988 -0.001260779 -0.25835115 -0.019238753 0.11832347 0.024880338 -0.16527855 0.19881308 0.16584735 -0.101352885 -0.81409293 -0.31571412 -0.07450115 -0.07702165 -0.7362628 -0.44048807 -0.10261432 -0.032467697 -0.17890199 0.23093036 -0.1473959 0.18114857 0.22511634
427 0.13401188 -0.0654964 -0.28646588 0.43663144 0.5217886 0.06666031 0.13531384 0.08236659 0.13469489 0.0061318595 0.31801116 -0.098902844 0.079539135 -0.29129198 0.1571033 -0.031739023 -0.18212311 0.66985106 -0.30187684 0.21629043 0.044252202 0.0001902747 0.23066133 -0.39053524 -0.12140908 0.3630059 -0.12941065 0.027478687 0.020478958 0.065498464 -0.21021768 -0.36978847 0.21847148 0.281392 -0.4099232 0.38150686 0.08944807 0.0066841245 0.07016692 0.35202673 0.2642866 -0.21467526 0.16405238 0.71047467 -0.10181038 -0.09011977 0.1026265 0.23100686 0.019220026 -0.12012856 -0.36029938 0.1697642 0.6044848 -0.41174245 -0.17332481 -0.27660543 -0.12326799 0.3182338 -0.007972302 0.42914078 -0.09339543 0.040091142 -0.07545847 -0.22666083 -0.2362978 -0.0817237 0.036464226 0.37521932 0.22081397 -0.33498982 -0.14344907 0.04785376 -0.21863501 0.3271587 -0.09923918 0.3442578 0.07722134 0.17901969 0.09799528 -0.17862141 -0.35763112 -0.32050052 -0.0031290962 0.40739146 0.41038898 -0.07933641 0.42737478 0.1102293 -0.32451805 -0.32107082 -0.01286577 0.010195161 0.29876667 -0.30681548 0.55981153 0.1547207 -0.2655386 -0.15338746 -0.12662132 0.2605167 0.16250008 -0.21800137 -0.21240418 -0.0050211092 -0.23174302 -0.2734709 -0.114285044 -0.35962868 0.10360553 -0.3630645 0.23017456 0.4005449 -0.30931026 -0.2108621 -0.100249134 0.13220102 -0.10499502 0.21890308 0.32367328 -0.52109253 0.032202046 0.142981 -0.5452405 -0.02185879 -0.22269462 -0.2811741 -0.063278005 0.52761614
611 -0.089853175 -0.33510074 -0.2279428 -0.058436707 -0.22709017 0.20818804 0.73885936 -0.13089713 0.13155647 -0.4429972 0.0024470103 -0.098820634 0.03603926 -0.46147484 0.39685234 -0.15205792 -0.50914365 -0.19057366 -0.22266765 0.024511298 -0.01946576 -0.3430901 0.30768618 -0.23267657 0.23194383 -0.1166741 0.26722243 0.39262167 0.18701643 0.10078409 -0.1723246 -0.30113792 0.18734251 0.42272162 -0.18904516 0.45854968 0.16681463 -0.32801956 0.12718146 0.3216102 0.2874197 -0.3499875 -0.1330109 0.7915481 0.04024293 -0.0077146487 0.21500956 -0.16042677 0.35030755 -0.41510794 -0.30805752 0.31228364 0.5140227 0.11536168 -0.13744706 0.20875938 0.26576287 -0.032519814 0.15795664 -0.17455414 -0.30863416 0.111538224 -0.33216023 -0.776765 0.029945897 0.08250881 0.0029801242 -0.23677304 0.14808472 -0.15837593 0.21401478 -0.2673518 -0.18905069 0.11229628 -0.28688318 0.09245863 0.24220265 0.22122483 0.23407489 -0.2664372 -0.034690738 -0.37058282 -0.30365783 0.051349517 0.5193141 -0.01428763 0.106236346 -0.0007330386 0.37872937 -0.08522413 0.10081655 -0.4908746 0.43678355 0.041180197 -0.037001383 0.10070031 -0.41602394 -0.23554072 0.23477912 0.37888157 0.04083063 -0.03962149 0.42249048 -0.20715365 -0.5320011 -0.16311161 0.19846424 -0.34806043 -0.29621902 0.059632145 -0.21348934 -0.047403 -0.18378629 0.0409785 0.07910461 -0.012132559 -0.1260104 0.057012934 0.13542064 -0.2941241 -0.12126831 0.08540704 -0.59129184 0.4211059 -0.073052764 0.10698295 -0.007433023 0.18738914
74 -0.018001461 -0.5183366 -0.38602373 -0.15749682 -0.07773815 -0.15309688 0.19383843 0.12878458 0.52225035 -0.8751634 0.5416816 0.05155107 -0.019833062 -0.21751198 0.039128616 -0.1958473 -0.17943673 0.09389367 -0.32884768 -0.087446325 -0.18171771 -0.30786586 0.2545293 -0.005918069 -0.5220729 0.56747663 -0.31864592 0.41091257 0.21537186 0.51727283 0.09460119 0.055783577 -0.006501725 0.104971744 -0.060079586 0.22972229 -0.037699554 -0.42257214 0.19806129 0.22316134 -0.13942555 -0.010468685 0.00036004005 0.75326586 0.14241962 -0.0706017 0.25559577 -0.47855026 -0.12620707 -0.47545698 -0.3754374 0.2502111 0.3574354 -0.011654753 -0.07775485 0.50146973 0.14959098 0.14178756 -0.2663681 0.07384977 -0.122583896 -0.34963 0.0011398869 -0.6483524 -0.18562323 0.23919111 0.04301003 -0.06318921 -0.41281036 -0.4231101 -0.01889109 0.072879866 -0.34259838 -0.35860217 0.40765458 0.5083769 0.33280843 -0.091107994 0.50273573 0.13720085 -0.42330077 -0.52262366 -0.31903562 0.14168967 0.3173222 -0.12468599 0.016975094 0.19128047 -0.30929473 -0.11653488 0.0373504 0.21525651 0.43011323 0.031269424 -0.31313097 0.21063782 0.0715193 -0.16336219 0.21914484 0.10646609 0.33027023 -0.1499135 -0.013441141 0.026722616 -0.23044167 -0.06727749 -0.0011438273 0.19238211 -0.07826604 -0.037949797 -0.422187 -0.022698153 0.20625606 -0.09397806 -0.23847464 -0.46270937 0.17438143 0.16495916 0.13584998 -0.18150212 -0.26721016 0.035880756 -0.26573366 0.31643635 -0.124725565 -0.03203332 -0.1496506 0.27333775
552 -0.15136883 -0.1287714 -0.22439303 -0.14345327 0.29771093 -0.36794207 0.33784592 -0.21854669 0.4652401 -0.004483608 -0.25983727 -0.042058736 -0.24568245 -0.3294153 0.18597591 -0.10239357 -0.09282934 0.63034767 0.13054043 -0.22413772 0.42934296 0.06228119 0.37723044 0.1105782 -0.03331675 -0.1630691 -0.17508866 0.4768578 -0.05597542 -0.18360762 0.12493779 -0.31194595 0.21491742 0.44841784 -0.6383678 0.042967275 -0.047787324 0.49564677 -0.12309508 0.3289543 0.20899288 0.28672552 0.9196137 0.3124442 0.18697898 -0.08411139 0.28532842 -0.10701328 -0.051511567 -0.3846982 -0.033204492 0.5890656 0.66183805 0.119060345 0.0810754 0.437085 -0.31807822 0.26319522 -0.028387683 0.16435161 -0.20207036 -0.008411252 0.08401881 -0.49523142 0.2454442 -0.37031752 -0.18854748 0.049243826 0.15209942 -0.21406163 0.04395436 0.10029698 -0.56559163 0.1809707 0.36540097 -0.13672833 -0.2947371 0.24473724 -0.098401904 0.2640089 -0.26453248 0.026814671 -0.28827786 0.075362995 0.49359602 -0.35386503 0.09655105 0.3404941 0.49446988 0.1729459 0.19607839 0.09344394 0.057641994 -0.014740074 -0.23291546 0.30673045 0.23489228 -0.6067254 0.008268719 -0.066585 -0.053233344 0.35132292 0.3407372 -0.25534788 0.026478287 -0.07512065 -0.21021971 -0.3121578 0.120958224 0.06614285 0.0039708265 0.08632069 0.21228889 0.21141563 0.2813935 -0.62272584 0.20145944 0.07055676 0.1996008 -0.7921536 -0.18255629 -0.19815955 -0.009998718 0.16401741 -0.13000165 -0.27480155 -0.004162703 0.36764866
430 0.40115732 0.06605345 -1.0286162 0.09415004 0.06917201 -0.5275031 0.064078495 -0.053122964 0.123924635 -0.19490051 -0.037183635 0.13048355 -0.47645485 -0.096961975 -0.3015269 0.45114103 0.027505051 -0.07641161 0.2767499 0.37146714 0.3206845 0.14881636 -0.076233566 -0.5673504 -0.19988929 0.23871781 -0.31915158 0.039918255 0.037097074 0.23572491 -0.14838327 0.21870276 0.30417195 0.1328922 -0.3063407 -0.013594374 0.13143723 0.038744185 0.38688123 0.01991458 0.15034245 0.25327662 0.19390905 0.531199 -0.1256482 0.28322092 0.26959243 -0.30329332 0.02114418 -0.13878343 0.031390496 -0.04541554 0.38400128 -0.32291123 0.44412783 0.13132636 -0.024889449 -0.23634115 -0.14973761 -0.45476878 -0.19392943 -0.29959655 -0.21745844 -0.43208408 0.023409382 0.11074241 -0.2968197 0.1624975 -0.2686501 -0.2828804 0.12630644 -0.1616909 -0.21429339 0.21274294 0.031211434 0.2136512 0.24288769 -0.07874716 -0.22867239 -0.36108506 -0.11238771 0.233053 -0.18640785 0.3613002 0.055008966 -0.44012272 -0.04321052 0.06449503 -0.119504005 -0.410787 -0.33556372 0.5186194 0.09533038 0.18236113 -0.31785306 -0.37364104 0.05909195 -0.32130495 -0.010644402 -0.17374367 0.009457793 -0.39094523 0.27380124 -0.16182315 0.2905845 0.026951075 0.90972865 -0.372168 -0.18543352 -0.049861647 0.044904537 0.019166615 0.095234714 -0.1353565 0.14782812 0.28945836 0.22903639 0.091271564 -0.080607414 -0.3988332 0.07436034 -0.23762377 -0.26737714 0.5381034 -0.21133992 -0.12129214 0.3339715 0.15411705
638 0.2817019 -0.23790702 -0.23117156 -0.25721365 0.07967326 0.110124156 0.0732762 0.11577713 0.52504915 -0.06711909 -0.23297979 -0.051093906 0.092222154 -0.3043394 0.12901768 0.12102349 -0.072904155 0.17511635 0.0414307 0.33814576 0.04802728 -0.11324096 0.13171005 -0.26882508 -0.04531986 0.25128198 0.0115950005 0.12883879 -0.15187387 0.35850465 -0.28518987 0.23762357 0.45005783 0.19629177 -0.51300514 0.43499038 0.1679794 -0.1271668 0.0114467535 0.21700756 0.19609296 -0.116367295 0.22174422 0.35739097 -0.35053453 0.04407626 0.056255434 -0.034094945 0.033420265 -0.23694777 0.46319515 -0.37466598 0.7205131 -0.039888475 -0.18347341 -0.12034098 0.07118592 -0.24186848 -0.20260036 0.23604462 -0.12026222 0.31552464 -0.36733946 -0.0993649 0.26534027 -0.47480354 -0.21579479 0.7213577 -0.13409358 -0.3740189 -0.2790709 0.04400277 -0.6069295 0.013227687 0.15833698 -0.31921688 0.45946538 -0.2432291 -0.34331313 -0.22927164 -0.49589244 0.12006275 0.096225075 0.23211862 0.23173149 -0.2846034 0.4309111 0.319748 0.2293974 0.065865636 -0.1372291 0.26565793 0.12427484 -0.4090679 -0.0683038 -0.33833617 0.16684484 -0.2972024 -0.2229313 0.19479929 0.032438405 0.1373003 0.3543962 0.07069876 0.20234355 0.411825 0.70481277 0.029831605 -0.30199772 0.3425592 0.2761776 -0.35273165 0.15849733 -0.36872557 -0.117911525 -0.616661 0.106733665 -0.18382953 0.27065036 -0.112369254 -0.19006234 -0.37512863 -0.06173918 -0.09555672 -0.37054056 -0.23482019 -0.03791654 -0.06501835
745 -0.080394566 0.21860436 -0.24195038 0.1545842 0.014311024 -0.2518647 0.5074761 0.15142933 0.6075869 -0.013597101 0.13950518 0.03702035 -0.091904156 -0.022687692 0.5967636 -0.17282389 -0.1641386 -0.007918701 -0.11872089 0.20017345 0.101926416 -0.34612674 0.5161365 -0.08820884 0.43031678 0.019850304 -0.00977585 0.48972198 0.062440734 0.119405136 0.037129395 -0.4822007 0.20942916 0.35289744 -0.12497509 0.07321607 0.103542715 -0.09881664 0.33907983 0.7188746 0.53063416 -0.20983438 0.044908322 0.72616416 -0.12669462 0.012142894 0.14459163 -0.10398977 0.022676654 -0.42525542 -0.2889198 -0.10199137 0.72557527 -0.1122595 -0.051755928 -0.10280264 0.30036148 0.24106206 -0.021481106 0.24865615 0.12931553 -0.3185696 -0.30401096 -0.28962785 -0.18526548 -0.08097396 0.34956473 0.50866425 -0.088290624 -0.09512919 0.12034117 -0.113199 -0.025166245 0.37486717 0.19330014 0.14945506 0.5885608 0.26345438 0.11574777 -0.16617122 -0.02854202 -0.180676 -0.08274842 0.090503454 0.5049659 -0.45300955 0.5636497 0.02545942 -0.076641455 0.083103776 -0.15450077 0.21766528 0.50792176 -0.0370981 0.10983108 0.040837698 0.13384908 -0.028360657 0.25562984 0.917026 -0.1862407 -0.03000615 0.54646045 0.1527122 -0.13260803 -0.39047286 -0.061328217 -0.055406377 0.27760586 -0.4793569 -0.07858066 0.02169402 0.27333438 0.09893956 0.14174904 0.09159785 -0.12519191 0.376247 -0.15415367 0.13605519 0.0040030875 0.2845985 -0.935415 0.12707119 0.33338678 -0.13559465 -0.026337115 0.42177168
566 -0.024337836 -0.29475984 -0.16930953 -0.08872242 -0.34867027 -0.373589 -0.17241885 0.27988917 0.24150595 0.26554635 0.08568036 -0.23451832 -0.0019836812 -0.44839448 0.28665984 -0.0043056835 -0.20368525 0.509254 0.26557773 0.32740504 0.25551903 0.015152255 -0.022645032 -0.118204035 -0.07332088 0.025170084 -0.053396206 0.5694265 0.03801169 -0.011714036 0.24779013 -0.35804412 0.24620175 0.18885803 -0.31819898 -0.120371826 -0.084344715 0.17477822 -0.097832285 0.84841454 0.36910084 0.2660093 0.68566 0.33807874 -0.12543151 -0.41084287 -0.10501942 -0.016781712 0.058742944 0.16628005 0.16164155 0.26866814 -0.07933582 0.31315076 -0.03780107 0.16818243 -0.31015423 0.24234591 -0.021254748 0.008678843 -0.23559798 -0.14367646 0.057543814 -0.41379642 0.3199869 -0.093363635 0.0961829 0.043058608 0.18495245 -0.12246321 0.046000253 0.06622424 -0.17283964 0.30851486 0.2607012 -0.23602147 0.30505168 -0.27358374 -0.14868818 0.2542864 -0.46057406 -0.10350964 -0.17896575 0.062016394 0.79582995 -0.43924993 0.06728791 0.083345726 0.08159832 0.21252501 0.11011007 0.3121318 0.5240447 -0.3403586 -0.04942833 0.048670586 0.060289495 -0.29334894 0.07533264 0.16055128 0.19655608 -0.038808223 0.06745079 -0.49211434 0.1757096 -0.3044716 -0.10833746 0.07157423 0.0868725 0.116678014 0.04532184 -0.10285626 0.10833444 0.103749946 0.21509093 -0.6526585 -0.03457609 0.11491082 0.53599465 -0.50252765 -0.005078119 0.39786738 -0.17373802 -0.0826782 0.10071782 -0.35816017 0.031080436 0.3119664
576 0.010159423 0.25820088 -0.0543914 0.5027606 0.45016322 -0.07920477 0.13008256 0.3906876 0.47498986 -0.30797428 0.40904993 -0.113005005 0.14250049 -0.41592285 0.49451342 -0.15590264 -0.7588706 -0.03173843 0.26085028 0.28485453 0.16456725 -0.30478308 0.027616126 -0.285183 -0.028001107 -0.25466922 0.19107515 0.4734987 0.036570195 -0.5537109 -0.039541014 -0.56244636 0.09103408 0.46516502 0.28005686 0.48993784 0.11758296 -0.30926505 0.21542417 0.27775195 0.22296979 -0.35778922 -0.010717378 0.70116115 0.14087942 -0.15097593 0.036137577 -0.26951548 0.26219812 -0.36999035 0.035146903 -0.17514236 0.8046776 0.0393291 0.2198044 -0.05782022 -0.18461409 -0.21645842 -0.13183224 0.08930435 0.04736836 0.21568099 -0.50030637 -0.67354965 0.003051342 -0.06813178 -0.45252973 0.47922677 0.26873586 0.110420294 0.65078163 0.4501913 -0.54719484 0.58718026 0.80418175 0.045125797 0.84444916 0.64414865 -0.27011418 -0.14037539 0.21488725 -0.44616 -0.5726248 0.3485574 0.35216662 -0.47023386 0.6430834 -0.23809122 -0.45439753 -0.3247073 -0.36937347 -0.08562088 0.1646079 -0.110410035 0.07290059 -0.25216353 0.21293198 0.32484993 0.099993154 0.8848659 0.02922836 -0.15061808 0.8313773 0.30173448 -0.43383086 -0.8257858 0.0493379 -0.09803661 0.015352943 0.0017588271 -0.11374854 0.44400063 -0.0700894 0.20869388 0.052217867 -0.33138627 -0.06909704 0.07110388 -0.17419675 -0.019939316 0.23376028 -0.0038485413 -0.5317314 0.23733836 0.1050657 0.049946465 -0.30268943 0.25835228
294 0.039823323 -0.10292175 -0.2925012 0.16452125 -0.12920709 -0.42014688 0.13578625 -0.09831436 0.26289323 0.21932422 -0.52726126 -0.06799963 -0.11414823 -0.48835105 0.1449299 -0.32310906 -0.43571028 0.6608443 -0.45759112 0.083495274 0.119568184 0.16934277 0.45560145 -0.15253973 -0.029924672 -0.2584331 0.06909412 0.47075233 -0.15351124 0.24486096 -0.045243755 -0.595016 0.6262167 0.29178062 -0.33977327 0.17019099 0.21133351 -0.002660315 -0.13130967 0.49161562 0.26380473 0.2662442 0.21454287 0.51982725 0.1941711 0.14262493 0.27040398 -0.061353516 0.04079449 -0.51113135 -0.11339987 -0.17217177 0.23095205 0.38858646 -0.022924181 0.14073324 -0.033341806 0.026394336 0.009588118 0.052116275 -0.057991855 0.1631805 -0.1378452 -0.5501138 -0.014490765 -0.4024174 0.092801414 0.46567118 -0.075312875 -0.050359186 0.10804622 -0.027440434 -0.34847674 0.16481264 0.3734423 -0.09671134 0.55978835 -0.21530657 0.17890204 -0.1703887 -0.324052 -0.17965513 0.005154898 -0.18943869 0.5549034 -0.4249539 0.18597867 0.06384423 0.428632 0.3029302 0.33247554 -0.07750136 0.42741776 -0.12365509 -0.07018302 -0.18226275 0.09210084 -0.23296756 -0.050256923 0.27567282 0.0072777164 -0.3797551 -0.070159845 -0.15868834 0.2676827 -0.029665532 -0.15570658 -0.37189153 0.10520058 0.33443624 0.09417327 -0.019238614 0.4148572 0.49538678 0.028501395 -0.35283625 -0.15995751 -0.10415328 0.19113876 -0.467282 0.037616763 -0.08321487 -0.24707425 -0.23219037 0.10755718 -0.43994218 0.11728502 -0.05481991
157 -0.29288694 0.17412408 -0.501069 0.10698846 0.00013468196 0.03209174 0.31448725 -0.12901872 0.6855651 -0.630101 0.47581792 0.05102864 0.012296682 -0.5010052 0.4670515 0.2207796 -0.4462272 0.34456614 -0.013705068 0.046400018 -0.09034391 -0.33714345 0.16734806 -0.45002887 -0.34629962 0.3367354 0.050920814 0.15908031 0.27174366 -0.31575963 0.1922642 -0.16036208 0.5472835 0.5181362 -0.14742441 0.52385825 -0.5161863 0.10377021 -0.18437237 0.069990814 -0.12787843 0.1930512 0.054664508 0.45370322 0.2385051 -0.5267875 0.12329562 0.2028094 0.1667279 0.03348969 -0.30234423 0.33398542 0.35335845 -0.3156694 0.15811317 -0.16396603 -0.24691108 -0.7097535 -0.058166787 -0.2138222 -0.30319044 0.0030443037 -0.33354968 -0.46298936 0.2982488 -0.102825545 -0.2801571 -0.059092883 -0.107031666 0.10350644 0.00558788 -0.3392647 -0.16682813 -0.14776498 0.34156156 0.19193546 0.5487645 0.40141934 -0.14552224 -0.051977832 -0.2998746 0.07903586 0.1677386 0.25226864 0.7405075 -0.4005367 0.1992414 0.1951177 0.06790907 -0.25710467 0.09085078 -0.07156921 0.4357774 -0.21331255 0.3649984 0.24715601 -0.047952894 -0.41764128 0.20946999 0.09022096 -0.08737057 0.12984692 0.37650704 -0.124764845 -0.18301128 -0.072967514 0.52442473 -0.12315661 -0.07081713 0.11465252 0.14928015 -0.037698943 -0.5341736 -0.13067856 -0.04362533 0.26086244 0.15061238 -0.026823519 -0.2493299 -0.109315164 -0.25894946 0.030583648 -0.29552191 0.2508445 0.15750384 0.33174118 -0.6909969 0.33538547
344 0.38669145 -0.41468 -0.2481702 -0.36895406 0.3962284 0.40498418 -0.10339655 -0.2286969 0.17788526 0.24971023 0.08600526 -0.1413632 -0.22654517 -0.031849664 -0.5976954 0.30661383 -0.18144515 0.3582159 0.53591484 0.18200438 0.0897123 0.05422234 -0.19987512 -0.24940668 -0.38067 0.040390432 0.24437028 0.10354546 0.39988622 0.22852096 -0.12602292 -0.17954606 0.07399545 0.28186595 -0.063406184 0.41332325 0.31223497 0.054229055 0.2629805 0.4219123 -0.01674572 0.2715081 0.29055482 0.2533946 -0.14585952 -0.1522769 -0.19126163 0.114153214 -0.21459457 0.27982688 -0.2425608 0.05945572 0.5901304 0.04466771 -0.12879235 -0.19611369 0.31602117 -0.12154634 -0.4542834 0.14434402 0.12301489 -0.24854831 0.5268159 -0.44006002 0.27001613 0.2174187 -0.33451912 0.57894164 -0.50387007 -0.14691028 -0.17097744 0.4408812 -0.84804845 0.22151922 0.2124052 0.23942073 0.7926916 0.40074882 -0.4104758 0.060961325 0.030773984 0.2097893 -0.04652906 0.22429338 0.10489971 -0.12812588 0.07952442 0.27299032 0.18524584 -0.26798084 -0.3901316 0.16133416 0.265435 0.23727845 -0.23551412 0.12449196 0.29557115 -0.32489663 -0.38619334 0.16221924 0.18422875 -0.25728884 0.10838415 0.3687642 -0.34713286 0.35784748 0.55848616 -0.24236351 -0.42914876 0.58088297 0.07411062 -0.15460005 0.2910749 -0.52309203 0.09466132 -0.7319409 0.67025703 -0.06827796 0.21975781 -0.4449026 0.019961553 0.29605988 0.05507074 -0.13027072 -0.16027205 -0.18705821 -0.14471646 0.04444358
523 0.4489857 -0.59511346 -0.13889633 0.0035542338 -0.088281184 -0.25334865 -0.04392108 -0.06142215 0.39587218 0.24851848 -0.3890799 -0.046975765 -0.047109533 0.062106263 0.1414532 -0.5096983 -0.09222039 0.022609884 0.032129213 0.05551929 0.09796137 0.5859915 -0.09526378 0.12275193 -0.2927944 -0.07004508 -0.47563925 0.27323723 -0.03086772 0.11817112 0.22733632 -0.22273058 0.080843136 0.38028085 -0.17706618 0.12933214 -0.16484296 0.37951553 -0.038655777 0.3695371 0.36555293 -0.30427372 0.48070282 0.09500424 -0.03867686 -0.12779535 -0.012486303 -0.22945705 0.0031823383 -0.13067803 0.15908426 0.2727239 0.48568803 0.11305554 -0.215669 0.23046203 -0.039602008 -0.29190865 -0.07289127 -0.08633316 -0.023747465 -0.012179467 -0.10835877 -0.29823968 0.083737336 -0.025534086 -0.40404716 -0.60810226 -0.1521503 0.119677834 -0.6229215 0.25569555 -0.517623 0.21222155 0.060227 -0.030009808 -0.23820728 -0.15245849 0.083884 -0.3662657 0.075248785 -0.2362954 -0.2965571 0.2355529 0.36216575 -0.22430651 0.30749884 -0.021324176 0.19299555 -0.2760462 0.07725488 0.21418285 0.6122973 0.1643416 -0.19537061 -0.08610678 0.4253948 -0.10710104 0.09661129 0.21230006 0.10142259 -0.6992888 0.30388433 -0.25986466 -0.05576627 -0.18615161 -0.01888828 -0.30276397 -0.24089375 0.1372765 0.16946425 -0.04795728 -0.23281714 0.17381194 -0.4007842 -0.46070668 -0.37553382 -0.2221403 0.12708534 -0.49294028 -0.11555921 -0.18309249 -0.096096925 -0.2148799 0.56218946 -0.39610618 -0.25084642 0.4761928
1354 0.06899136 -0.38445547 -0.23973006 0.20697503 0.63764274 -0.055756193 -0.040858846 -0.59982723 0.61586934 -0.30095726 -0.30129793 -0.31530213 -0.059293974 -0.1609997 -0.39212197 -0.059781466 -0.08684911 0.046948064 0.41951472 0.6035156 -0.11124398 -0.6358111 -0.15460603 -0.119499795 -0.46979845 -0.23598129 -0.07453709 0.11303192 0.33259752 -0.12311267 -0.041397937 -0.52510285 -0.00089368864 0.10116895 -0.29463688 0.27202868 0.045254957 0.08257972 -0.32641926 0.64529204 0.33326253 -0.16797622 0.4059084 0.049092643 0.31523943 0.4327527 0.20634498 -0.21030012 -0.01352624 0.138087 0.108937204 0.019077303 0.48302534 -0.12829207 0.23043965 -0.3733356 0.5643263 -0.112287074 0.105406016 -0.091796294 0.1924656 -0.54186493 0.046564378 -0.71520776 0.7139193 0.4880216 -0.0330373 -0.13017179 -0.5606315 -0.38099453 -0.58036083 0.0704723 -0.102902725 0.4033111 -0.4918135 -0.2924761 0.27505127 0.273631 -0.43642613 -0.45305455 0.17078945 0.19832599 -0.49891856 -0.08370063 0.23392957 -0.5019838 0.061129976 0.08971303 -0.107657716 0.12150246 -0.2710999 0.5131059 0.48375604 -0.14920618 -0.3744313 0.005013938 -0.061086882 -0.94970936 -0.34366447 0.58908844 0.23600341 -0.2864377 0.719103 0.2703002 0.14784668 0.14818749 0.16890371 -0.0813982 -0.22349077 0.22717163 -0.48716375 -0.17068508 0.096175045 -0.6897195 -0.10579168 -0.18588388 0.12022579 -0.27015525 0.0015577441 -0.3500041 0.3069443 0.48267892 0.378677 0.4967769 0.40600157 0.09165526 -0.15498044 0.39528596
378 -0.06273751 -0.3099029 -0.15608333 -0.03872029 -0.1075105 -0.34868968 0.20752248 -0.1690974 -0.08667087 -0.006616901 0.30351257 -0.03672979 -0.2365344 0.09569742 0.094355956 -0.073942974 -0.35973814 0.32013857 0.39867187 0.47645542 -0.06317494 -0.15983835 -0.13957562 -0.64076674 -0.14140803 -0.024152836 0.30149785 -0.10295768 0.44138187 0.09950449 0.35664856 0.15005209 0.14807913 0.0583328 -0.621862 0.18095696 -0.509911 -0.15009773 0.087148935 0.24236347 -0.20181152 0.17948808 0.19434856 0.8974226 -0.36948815 0.2987168 0.42364287 -0.015250158 -0.03139727 0.24378878 0.2629598 0.07365687 0.6470772 -0.2001712 -0.048625156 -0.14002846 0.30937853 -0.3800216 -0.44947022 0.24584657 0.27670792 0.2332144 -0.06930192 0.043743756 0.35932595 -0.32946926 -0.27525327 -0.06411577 -0.42705053 -0.35179567 -0.5722815 0.0445657 -0.39817625 -0.19618362 0.30023313 0.21900125 0.53498435 0.18066 -0.09078128 -0.34339508 -0.31273207 0.41760653 0.033166174 -0.0037490407 0.19801542 0.05671464 -0.23288606 0.111523904 0.07736836 -0.118662685 -0.41474938 0.023451976 0.03564437 0.04155467 -0.2588356 -0.10679497 0.3645095 -0.3585523 -0.29550257 -0.18474247 -0.23012125 -0.39374587 0.21147648 0.276959 0.10362407 -0.16425018 0.8293047 -0.049100894 -0.1747705 0.00221692 0.23332047 -0.08549209 0.16450003 -0.43083286 0.06556883 -0.48213866 0.16288398 -0.28608194 0.3081516 -0.45814174 0.25770062 0.330921 -0.07900352 -0.2530384 0.027430648 -0.30028236 0.36589757 0.44999927
793 0.5661565 -0.053612776 0.05875143 -0.181852 0.36229593 -0.31984335 0.13125424 -0.12325036 0.36837575 -0.18738009 -0.21784638 -0.35719907 -0.34321418 0.26180288 -0.08594226 -0.08027965 -0.067897975 -0.06223241 -0.47376963 0.70682675 0.32158044 0.1988987 0.46497554 -0.41118988 -0.06946056 0.049353447 -0.17667012 0.22416712 -0.007960828 0.057639472 0.6275872 0.22894438 0.24035704 0.32838088 0.18408762 -0.08220073 -0.22782193 0.044190913 -0.11025961 -0.13258688 0.3925633 -0.0011192098 0.15953144 0.3176909 0.0888525 -0.36542886 0.33557305 0.07275082 0.003953421 0.088234 0.054093484 0.00334959 0.48108017 -0.47093043 0.040104218 0.060529206 0.0023414493 0.17872001 0.24554679 0.075123616 0.18895935 -0.059373073 -0.25295952 -0.35124737 -0.25885552 -0.0846685 -0.27590984 0.3757058 -0.8387718 -0.21907566 -0.008240238 0.6200138 0.2033919 0.7487201 -0.13018252 0.0502313 0.05022163 0.45801744 0.022947755 -0.070178874 0.14180124 0.18465436 -0.4218848 0.50176924 0.31729126 -0.29373163 0.11235114 -0.28386098 -0.62089187 -0.11153339 -0.35869786 0.168789 0.35868448 0.6290075 -0.21557418 -0.2836111 -0.6755594 -0.51859075 -0.030490799 0.4689376 -0.2705009 -0.56548184 0.43190593 0.07212131 0.045142595 -0.2959947 -0.075408086 -0.1740729 -0.29549885 0.34804967 0.04855383 0.13107577 -0.08470469 0.10162929 -0.40754855 -0.39561892 -0.24610825 -0.23917197 0.35200813 -0.5588843 0.22884068 0.23825245 0.0049631554 0.07934547 0.15896967 -0.507816 0.13086694 0.24693987
453 -0.15681718 -0.2810335 -0.2871003 -0.37212437 0.28796068 0.03798994 -0.3503146 -0.34564865 -0.069530495 -0.20175481 -0.10531835 -0.097221725 -0.45897505 0.0026801475 -0.4096716 0.42822808 -0.21096571 0.3522157 0.2610732 0.14449695 -0.050536543 -0.18318391 0.6869777 -0.017305294 -0.28083402 -0.038396552 0.12613063 -0.12081242 0.56261384 -0.01704467 0.07732841 -0.037617173 0.048284534 0.300004 0.045811065 0.192901 0.13774487 -0.15871532 0.055435378 0.83550066 -0.1771961 -0.008996499 0.20506988 0.22336268 0.20089357 0.0887636 0.058657784 0.22012612 0.2731674 0.010035438 0.06657854 0.13923073 0.7281858 -0.1305025 0.5506286 0.31422278 -0.26019192 -0.27446702 -0.39737782 -0.24930482 -0.083803624 0.22922324 -0.34705618 -0.1359885 1.0048844 -0.14710836 -0.6197748 -0.056788713 -0.24984244 -0.12119646 -0.24813305 -0.005548092 -0.5061257 0.34234315 0.20815685 -0.116481006 0.5109371 0.44181654 0.015131687 0.18953657 -0.13011299 0.29783225 0.5083987 0.0058241137 -0.20943835 -0.22108683 0.33125722 0.15281215 -0.4253144 0.089246914 -0.15916337 -0.32335597 0.81542975 0.22917946 0.21573521 0.12897891 0.054827783 -0.6525502 0.4694463 0.26769102 -0.3059343 -0.027073793 0.13447736 -0.13920145 -0.11364057 -0.02552002 -0.022462944 0.104249544 -0.4773951 -0.08147616 -0.16218556 0.124818295 0.06404608 0.15062155 0.3140151 -0.4800376 0.446118 -0.7609376 0.38343707 -0.35734594 -0.2977572 -0.2912551 -0.20833102 -0.6034111 -0.6565714 0.5623505 -0.035467796 0.46633273
910 0.33846384 -0.20431106 -0.053355563 -0.42820016 0.16694656 -0.29869324 -0.102924414 -0.3253786 0.2653953 0.21279615 -0.27550894 -0.47055703 -0.34853157 -0.18749143 -0.10944323 -0.455127 -0.12087945 0.04585584 -0.036486503 -0.06664514 0.15175739 0.35588846 0.13705786 -0.24877541 -0.25477588 0.0682537 -0.44486466 -0.030911768 -0.41573575 0.2870617 0.49322122 -0.50546664 0.20322727 0.35398513 -0.33757007 0.18053223 0.088292465 0.32117912 0.1549392 0.36696973 -0.17446588 -0.043386813 0.3007958 0.1768681 0.4856296 -0.30654278 0.49060598 -0.057980247 0.22592194 -0.2001013 -0.108859256 0.14403328 0.53944176 -0.057747003 -0.076290876 -0.043518126 0.18100093 0.3526264 0.20463234 0.0821821 0.01824227 -0.11299982 0.03030205 -0.52896357 -0.16433376 -0.24688777 0.08328558 -0.28212777 -0.07424709 -0.42352548 -0.14634632 0.478781 -0.14346035 0.13896075 -0.16638447 -0.21122645 -0.019306552 -0.16879685 -0.05506212 -0.08483776 -0.06614589 0.0027595586 -0.3612546 0.023803497 0.31042856 -0.3717305 0.14639169 0.23606364 -0.1893475 0.20309278 -0.42902136 0.49906188 0.17264579 0.31583577 -0.48758003 -0.06886822 0.053561095 -0.25291193 0.22281294 0.04753231 -0.33137432 -0.37494123 0.6704365 -0.17698291 -0.11619502 -0.29717875 0.19524455 -0.067520216 -0.114144646 0.18828145 0.24266244 -0.074651115 -0.16383691 -0.19670364 -0.3266698 -0.32134798 -0.04392291 -0.18811274 0.20359972 -0.55109125 -0.2719369 -0.21124944 -0.18427555 0.04142721 0.7028809 -0.58250856 0.21258625 0.13499396
635 0.051086884 -0.19452289 -0.7255569 0.16526817 0.2618174 -0.25223926 0.080271356 0.23339444 0.089411415 0.020729762 0.3225612 -0.43717292 -0.3854261 0.05880777 -0.24565694 0.7677184 -0.24727178 0.20424144 0.039717797 0.19520631 -0.015522979 0.13743144 -0.2497124 -0.6061058 -0.22784522 -0.011853431 -0.024871925 -0.2242179 -0.17868121 0.20027919 -0.37663704 -0.1730662 0.55047715 0.17829485 -0.361763 0.1507665 0.19030856 -0.29200146 0.32965443 0.19951014 0.0051864306 0.050777994 0.0038984772 0.56472915 0.08266234 0.11225274 -0.018575475 -0.492261 0.48321834 -0.17688058 0.3661658 -0.2220937 0.26025155 -0.3794686 0.88442695 -0.11178344 -0.32811216 -0.2313033 -0.1488306 -0.12948588 -0.20513041 0.2218198 -0.38590115 -0.676239 0.05360194 -0.4064457 -0.27040732 0.36245084 -0.11668197 -0.15894337 -0.21280308 -0.41526818 -0.19184847 0.29030934 -0.20721065 -0.2100865 0.20882545 -0.23634292 -0.27643412 -0.079734184 -0.39011815 0.18368159 -0.016728634 -0.01565305 -0.16142328 -0.3208973 -0.24888758 0.2584605 -0.3662567 -0.46971807 -0.31855497 0.45525244 0.45944157 0.013956882 -0.44606635 0.064106055 0.10730176 -0.40391603 0.006530951 -0.12079238 -0.113572046 0.09139328 0.4316312 -0.06498263 0.32810915 0.19635083 0.42339143 -0.42372358 -0.21495283 0.32993883 0.47219744 -0.19479944 0.09687111 -0.053051677 0.12392953 -0.045512922 0.46038592 -0.2316378 0.48316416 -0.47633293 -0.14038809 -0.0859452 -0.47101334 0.40234655 -0.22284752 -0.26919967 -0.08767535 -0.019182518
672 -0.20891005 -0.0030729922 -0.07994025 -0.1140586 0.28862754 0.28576753 0.14836282 -0.3518509 -0.26968917 -0.513707 0.1409958 -0.3949992 -0.3875547 0.11867206 -0.473755 0.49815813 0.20145667 0.19002646 0.13714863 0.05329063 0.08281619 -0.35679892 0.10572261 -0.094605945 -0.33547157 -0.34011906 -0.18847072 -0.018766228 0.09753676 0.73183995 -0.24809565 0.09762599 0.30404294 0.14792413 -0.4221709 -0.0274572 0.22228484 -0.27718088 -0.2794343 0.34967422 0.44828755 0.22084202 0.1369088 0.20023108 -0.1289753 -0.08006793 -0.0722651 0.25850117 0.40386438 -0.33093795 -0.21798225 0.27247798 0.36926344 0.18956828 0.43701398 0.041802272 0.18269543 -0.35391852 -0.20856053 -0.09800645 -0.2274335 0.2026889 -0.31384695 -0.38860595 0.8098764 -0.07516001 -0.88813347 0.16062617 -0.24922289 -0.30004326 -0.4994081 -0.0016038169 -0.70232975 0.46325132 -0.11795286 -0.087790266 0.3831755 0.14630426 -0.052444153 0.18196483 0.023032013 0.276162 0.08564973 0.13475105 0.23978738 -0.033324663 0.24495369 0.20370317 -0.4020398 0.060529493 -0.35249925 -0.022139585 0.30592003 -0.2111273 -0.11693176 0.15169458 0.307698 -0.7433489 0.8222734 0.18884759 -0.31111085 -0.20845164 0.49591613 0.04959569 -0.21120457 -0.10080055 0.049431976 0.34344018 -0.23135512 0.1817517 -0.17583804 -0.07895622 0.1582166 0.38112694 -0.048322957 -0.75115865 0.37197447 -0.33441216 0.11589757 -0.5325876 -0.1435935 0.2964666 -0.4992298 -0.15076965 -0.80064356 0.08131481 -0.48997557 0.36211675
1644 -0.15296686 -0.13998649 -0.028710518 -0.017258506 -0.33343878 0.20306107 0.52394116 0.1318166 0.018349446 -0.36133644 0.28978443 0.025306711 -0.07787414 -0.3802024 0.027793545 0.3371124 -0.34307152 0.15700991 0.26479346 0.40902424 -0.36716348 -0.005998407 0.0020206056 0.05594268 0.003429285 -0.23062456 0.2835749 0.21509278 0.32020158 0.531364 0.077945895 0.19328217 -0.015303317 0.5054996 -0.19558363 -0.06490913 -0.40394595 0.24781995 0.009446701 0.35157833 0.22527839 0.52083117 -0.077328935 0.69427717 -0.16810182 0.5651513 0.29978964 0.025627548 0.07804146 0.17252687 -0.021854296 -0.12699808 0.54971004 -0.1302544 -0.26991248 0.32434714 -0.097355925 -0.26960137 -0.50479275 0.1311603 -0.0033418462 0.142352 -0.43079424 -0.025793763 -0.015049419 0.3663704 -0.057938192 -0.061388597 -0.021944657 -0.22034255 -0.19109404 -0.038056947 0.025761893 0.63311243 -0.14621963 -0.08427112 0.90773016 0.14155142 0.10764663 -0.038863037 -0.19033237 0.5621481 -0.055651583 0.2673302 0.04136753 -0.062507406 -0.12264372 -0.06900399 -0.25497347 0.4177538 -0.0689721 0.35246283 0.21923101 0.13732892 -0.02601867 -0.15340914 0.12266951 -0.7411097 -0.2310363 0.36164048 0.37922573 0.17434908 0.44868645 0.1835549 -0.14102663 0.24938047 0.31491926 -0.275018 -0.5105623 -0.13315266 -0.03599853 -0.10969455 -0.05940745 -0.121394575 -0.5045012 -0.5236748 0.44574663 0.20750883 -0.0930864 -0.5306433 0.010983221 -0.33428153 -0.08717228 -0.2620404 -0.029345118 -0.3776718 -0.07755973 0.5996865
570 0.19661048 0.3007802 0.16235332 0.805733 0.49293128 0.09156068 -0.1601275 0.13526148 0.26875097 -0.21741566 0.42476818 -0.08852959 0.13116334 -0.20548566 0.14902906 -0.023541713 -0.8712093 -0.23385237 0.35790646 -0.0024110824 0.12805562 -0.22739479 -0.15769376 -0.36226264 -0.21481563 -0.39628267 0.22655538 0.6061508 0.05699954 -0.41704115 0.043851573 -0.9572065 -0.07739852 0.3542564 0.071193986 0.36771214 -0.002727643 -0.36202553 -0.08238012 0.23372355 0.321071 -0.21959506 -0.12826094 0.6404663 0.016994514 -0.18083285 0.025533423 -0.3395989 0.21746628 -0.54361457 0.015908431 -0.34781134 0.7646771 0.09757377 0.4521705 0.2029718 -0.09496016 -0.39958683 -0.18000543 0.120182365 0.018054338 0.45341784 -0.7041059 -0.76104325 0.07218726 0.22795008 -0.34240913 0.4161793 0.2654191 0.07039705 0.7032742 0.40014172 -0.5626453 0.8519191 0.72528213 -0.027108675 0.99734974 0.57985765 -0.33360273 -0.0678508 0.11917611 -0.5534852 -0.59885365 0.4475325 0.20012383 -0.7932784 0.68576896 -0.35596618 -0.56749004 -0.20937155 -0.47987908 -0.21154413 0.3061085 0.06550489 -0.13921925 -0.35933685 0.28973597 -0.057735607 0.0069824085 0.74286664 0.047083635 -0.2131455 0.99939615 0.3503958 -0.4437385 -0.9036034 0.014693829 0.007524072 0.1145061 0.31315202 -0.081832565 0.45861527 0.027237564 0.14824325 -0.057804335 -0.4736525 -0.11901892 -0.043113105 -0.2050423 -0.08132252 0.32805994 -0.19638821 -0.46905157 0.42796773 0.24882573 0.16773716 -0.28992596 0.3828911
1527 0.05090729 -0.23856704 -0.5651015 -0.19660197 -0.012328786 -0.2860879 0.0572291 -0.29000404 0.5589504 0.03877831 0.28584206 -0.36246842 -0.10043752 0.05059127 -0.05403488 0.210095 -0.6344846 -0.19402193 0.13828112 -0.11486593 0.34750065 -0.5743291 0.21120468 -0.263107 0.16870454 -0.08005808 0.31667125 0.022293568 0.83995116 -0.086910374 0.008708794 -0.67121834 -0.38005793 0.48480192 0.052895132 0.26537865 0.08072787 -0.4032346 -0.13829617 0.46820185 -0.09882912 0.37824363 0.34435928 0.47220498 0.110822745 0.0017613035 0.10456681 0.12589245 0.5806518 -0.26935515 -0.21448441 0.06757611 0.45264605 -0.1958343 0.6420056 0.31146765 0.10078565 0.1993042 -0.09642717 0.3271588 0.0022255857 -0.082638115 -0.0026922016 -0.3973985 0.45404097 0.33442083 -0.04297736 0.2911248 0.024672728 -0.49730077 -0.025182912 0.24818182 -0.32184085 0.36318535 0.32513288 -0.21285428 0.24704196 -0.41110307 -0.22616057 0.23205371 -0.70931494 -0.5575454 0.061157566 0.29276466 0.2500149 -0.48287648 -0.2877591 0.27729705 -0.03714219 0.17012152 -0.38195512 0.38373974 0.3087741 -0.2139269 0.09447395 -0.0766791 0.10416639 -0.0961049 0.28606516 0.015734883 0.00084384694 0.042581353 0.055984363 -0.15912308 -0.77695984 0.13745868 -0.18746074 -0.011344319 0.06194403 -0.2508965 -0.409236 0.20787518 -0.9541463 -0.31686518 0.07418574 -0.5240096 0.1538087 -0.45838988 0.69894874 -0.33027205 -0.00531779 -0.014373042 0.2137462 -0.18533128 0.030269073 -0.5459228 0.121072896 0.77191746
136 0.12884957 -0.63867617 -0.14508605 -0.086704515 0.17184915 0.016845603 0.046817187 0.05952366 0.31268772 -0.13171795 -0.04954957 0.012339205 0.054094527 -0.29927677 -0.4029316 0.08990069 -0.053675804 -0.23273899 0.2556277 -0.051240854 -0.27538276 0.1629769 -0.07624007 -0.033858232 -0.12655881 -0.18236654 0.11916645 0.10301488 0.6397827 -0.070667006 -0.14226198 -0.1190078 0.019407988 0.08541419 -0.29510772 0.36577094 0.11359549 -0.0958075 -0.28623188 0.65805936 -0.41016835 0.4983758 0.28565583 0.31825244 -0.05114932 0.2531626 0.48410293 0.06646252 0.26943514 0.0488876 0.37391597 -0.017879374 0.27140513 -0.01754743 -0.08980199 0.13154136 0.20536722 0.16947034 0.09536089 0.007879108 0.16636135 -0.00084495894 -0.25639793 -0.5754808 0.22076221 -0.1988839 -0.36882257 0.30419564 -0.12016966 -0.13954006 -0.13766167 -0.37877727 -0.48508877 0.7648127 -0.08521478 -0.40236986 0.5913602 -0.29838997 0.14570396 -0.2730381 -0.37910217 0.11646936 -0.5446756 0.61305845 0.019207176 -0.5381955 0.42295778 -0.18269683 0.34671557 -0.04535999 -0.15398575 0.05615157 0.46339387 -0.07016413 -0.83754677 0.22359185 -0.23433985 -0.27650186 -0.611323 -0.14822027 -0.25543854 -0.12781893 1.0513086 -0.18515326 0.20044667 0.33025935 0.5297548 -0.1401385 -0.32562605 0.1384956 -0.21291178 -0.233184 0.10519512 -0.13038014 -0.09659603 -0.52750504 0.06059785 -0.15369952 -0.3223389 -0.5747447 -0.073230565 0.18289116 -0.015818954 -0.27818024 0.056071453 -0.10308907 -0.18370879 0.31186524
109 -0.09791921 -0.008881575 -0.34144577 0.17639814 0.5602688 0.088700876 0.15234585 -0.014392046 -0.099620305 -0.33036977 -0.048372943 -0.36683622 -0.6253886 -0.0151089635 -0.19659935 0.14407846 -0.08240885 -0.020708656 0.14864197 -0.5027451 -0.21124452 0.15192638 0.30211994 -0.41419634 0.01817341 -0.044362057 0.018128496 0.014894822 -0.1308943 0.2069484 -0.089463204 0.08979094 0.38877577 0.21555232 -0.30638444 0.16846627 -0.27092442 -0.21543302 0.18598244 0.47751883 -0.008234784 0.23652165 0.27335483 0.18889587 0.013421063 -0.066245675 -0.13987412 -0.11519947 0.6875097 -0.12447704 0.063611984 0.00047047148 0.7075343 0.014974577 0.7274807 0.1121181 -0.25012714 -0.20881554 -0.38141978 -0.47233796 -0.07286062 0.31854522 -0.14347275 -0.68913937 0.35667324 -0.7576437 -0.7853984 -0.114069 0.012877459 -0.62546223 -0.21369995 -0.041067075 -0.76788414 0.03325022 -0.34007272 -0.12475165 0.44297484 0.14670682 -0.23915277 0.28902903 -0.14804256 0.38319367 0.041828185 0.19073896 0.21256751 -0.4508858 0.13441385 0.29789397 -0.39975426 0.12584087 -0.07946445 -0.22834145 -0.0013100569 0.17602248 -0.1477924 0.2685655 0.11883589 -0.9252718 0.5015514 -0.03124537 0.17047992 0.07924774 0.6119814 0.15998639 -0.22238031 -0.09461762 0.25285947 -0.25404847 -0.461026 0.16786663 0.35749123 -0.3528683 -0.17043217 -0.12830782 -0.23986591 -0.3126288 0.38229316 -0.13777512 0.36216015 -0.41110572 -0.13908888 0.011585016 -0.210998 0.054120123 -0.3826147 0.35652617 -0.438508 0.2258243
14 -0.57048863 -0.0835711 -0.072279096 0.15944402 -0.16205482 0.04152985 -0.24228935 -0.119644456 -0.3115725 -0.7057348 0.04661862 -0.32397032 -0.33338025 -0.5532635 -0.1170604 -0.26006496 -0.3225947 0.71384364 -0.08442355 0.30522764 0.59793186 -0.18233164 0.67800033 -0.2713763 -0.40847665 0.038821507 0.18976156 0.13264437 -0.0072822957 -0.1179493 0.31169707 -0.08698226 0.35014457 0.25966835 -0.36184284 0.42172623 -0.21740867 -0.6025983 -0.024267135 0.32763782 0.15893039 -0.248623 0.34276775 0.66226876 -0.14496602 -0.2452457 0.21614921 0.38813958 -0.111030914 0.044605978 -0.26745516 0.57130486 1.0540243 -0.012395194 0.5606934 0.10496731 -0.16712646 -0.36279592 -0.42418048 -0.41369036 -0.6888337 0.20354448 0.034375668 -0.025157379 0.41576076 0.06229478 -0.15974136 -0.32030755 0.16381742 -0.2360461 -0.12175859 0.00305291 -0.4491066 0.59629166 0.18543014 0.3630003 0.596642 0.22289063 0.22626536 0.020821847 -0.241451 -0.27034488 0.11396977 0.1422207 0.15447272 -0.06504879 -0.03727305 0.039899815 -0.025016196 0.2815335 -0.1627223 -0.016131075 0.42886493 -0.67578727 -0.10535929 0.3992517 -0.19424647 0.033031415 0.2326689 0.49672136 -0.18619831 -0.20513064 0.47582024 0.013170103 -0.47947636 0.2899219 0.4906978 -0.16470288 -0.59146196 -0.33477464 0.06795783 0.11823634 -0.43285015 0.057773292 0.23068446 0.0357064 0.0066027315 -0.28735542 0.06276929 -0.097584784 -0.009829969 -0.016908374 -0.6215506 0.0329413 -0.52333724 0.6834496 -0.16811581 0.41394022
1328 -0.057271715 -0.39374924 -0.18150315 0.009802951 -0.1419599 -0.14978394 -0.27422085 -0.2721376 -0.14219105 -0.57819605 0.365249 -0.14501552 -0.4044221 -0.49179247 -0.14312112 0.5824117 -0.22002141 0.38771036 0.30850634 0.43216553 0.14279014 -0.036485802 -0.0076172915 0.18424542 -0.3344492 0.018364316 0.61533004 0.062631585 0.34157422 0.087389335 0.23379913 -0.034260605 0.19035432 0.059725054 -0.21186696 0.285867 -0.23514232 -0.05718341 -0.07847951 0.16896053 0.4655579 -0.017722167 0.16923577 0.9014209 -0.44760486 0.10299605 0.5093647 -0.16189863 -0.0371252 0.27411047 0.27252343 0.019802008 0.81220454 -0.34662703 0.29282704 0.26912358 -0.30867124 -0.0077600493 -0.49216723 0.041576553 -0.30670166 0.3323149 -0.1347986 -0.33327308 -0.1514531 0.23027465 -0.46994358 0.3225498 0.01436835 -0.48510408 -0.35365215 -0.28772733 -0.19979015 0.48173204 0.1889199 0.4198108 0.67078507 -0.071174204 -0.15384333 0.027857773 -0.57468456 0.032566 -0.3023071 -0.04947577 0.06256369 0.19351831 -0.13178921 0.5835756 -0.2377708 0.2624949 -0.22595645 0.4228961 0.21611139 0.18690376 -0.39438486 0.22168209 -0.15690564 -0.64310986 -0.03815583 -0.022020845 0.055704184 0.19131254 0.52798676 -0.072753645 -0.30741316 0.27065971 0.6294835 -0.44154575 -0.27365 -0.31374308 0.37430725 -0.1490301 -0.018867776 -0.18980321 -0.07477283 0.015161248 0.021819571 0.0022811778 -0.60289955 -0.36483756 -0.010545093 -0.238316 -0.06362419 0.24200228 -0.1609755 -0.12183286 -0.00623219 0.0799629
1240 0.2662966 -0.11070686 -0.7188142 0.18976845 0.10459385 -0.28670767 0.0006925169 -0.3286456 0.59591764 -0.16627239 0.43243802 -0.2818767 0.23071586 -0.3848338 -0.20065707 0.45953873 -0.44361246 -0.43727276 0.02694039 -0.35711655 0.16790849 -0.4328581 0.09680688 -0.59247446 0.0066599157 -0.0887013 -0.0006610349 0.024346227 0.70434636 -0.021560848 -0.038895216 -0.7491929 0.071563475 0.4401385 -0.041523553 0.21304603 0.07441026 -0.41877815 -0.09071727 -0.10308689 -0.49929777 0.27990568 -0.11442803 0.3009224 -0.26620847 0.27391946 0.23504786 0.22791694 0.24429609 -0.1545889 -0.45665184 0.41819555 0.5147312 -0.5907188 0.49709803 0.16446981 -0.10734576 -0.15217464 -0.014752701 0.15771855 -0.20544772 -0.24784563 0.014978579 -0.5733353 0.18829302 0.4781129 -0.27176753 -0.11124394 0.055005718 -0.32315356 -0.3680081 0.13333885 -0.4452233 0.037861392 0.36526713 0.2088041 0.40500227 0.016600754 -0.07905547 0.25187925 -0.7355684 -0.5863909 0.34454942 0.3430736 0.5157606 -0.5670647 -0.07873586 0.18304731 -0.42034063 -0.22404353 -0.32094845 0.38927338 0.3453732 -0.04137437 0.21597598 0.08895778 0.063416965 -0.10681036 0.30356005 0.057261396 0.38914758 -0.04366328 -0.16571744 -0.18958488 -0.56722385 0.21836936 0.1925556 0.26448214 -0.17975658 0.053588293 -0.5123647 0.28853855 -0.595444 -0.15316482 0.2161084 -0.15504697 0.10537704 -0.2288492 0.12179712 -0.2162773 -0.36874464 -0.16549411 -0.22552967 -0.24618271 -0.0768096 0.028857457 0.19305737 0.4842316
2499 -0.17873845 0.13304485 -0.18303195 0.39283252 0.1719046 -0.004863138 0.10677265 0.31585202 0.21543308 -0.09498775 0.25234526 -0.2994406 -0.028399862 -0.56582665 0.5908515 -0.03378667 -0.77001154 0.008840265 -0.17894493 0.03593901 -0.04269288 -0.51789254 0.2533247 -0.4289131 0.06515529 0.15218367 0.5141956 0.35840073 0.24569699 -0.16085126 -0.31908175 -0.5862494 0.21319062 0.35576013 0.26518697 1.035211 -0.19267258 -0.44065022 0.007499666 0.42613664 0.118429676 -0.25330973 0.17515402 0.609381 0.3248849 -0.12748492 0.21237846 -0.42237154 0.44699496 -0.446229 -0.1474104 0.14687389 0.8851928 -0.09578795 0.14055952 0.33857343 -0.09324214 -0.22873351 0.23229359 -0.4484486 -0.46206507 0.34927592 -0.25601265 -0.72209764 0.012943007 0.17984271 -0.13814141 -0.42350093 0.3081863 -0.1995149 0.73046696 0.3516218 -0.40139493 0.28575987 0.36919916 0.240982 0.8738239 0.5815896 0.05588065 -0.63483125 0.15682048 -0.40468132 -0.6961847 0.057365883 0.5808144 -0.5193666 0.19456227 -0.29773805 -0.06885714 -0.116836295 -0.017935226 -0.13573778 0.1548541 -0.028050555 0.12857337 -0.14680722 -0.07022084 0.08953568 -0.28199914 0.8281964 0.07995493 -0.11960136 0.4090707 -0.28524363 -0.5212929 -0.38614428 0.29935187 -0.29583076 -0.1601918 0.19818611 -0.24551663 0.11337766 -0.24705781 -0.06536262 0.14984222 -0.38717753 -0.17738368 0.15912704 0.16942304 -0.19701952 0.14287227 0.19127202 -0.36162013 0.20285222 0.20670149 0.2768142 -0.22649096 0.13855669
1153 0.44593662 -0.07703435 -0.13147002 -0.3772138 0.13717747 -0.29701507 -0.025752451 -0.06564722 0.23927599 -0.13032581 -0.2705473 -0.4069804 -0.19418204 -0.017076956 0.20381747 0.12522836 -0.3322255 -0.09622571 -0.31992102 0.31780073 -0.010813589 0.31530023 0.50752383 -0.6114925 0.19330288 0.13659523 -0.47999972 0.20607173 -0.26868984 0.12010084 0.3238753 0.05272186 0.24588858 0.25185797 -0.08780776 0.18209825 -0.0499354 0.3019682 -0.058852904 -0.07323282 0.025232831 -0.022966703 0.080889225 0.15024416 -0.04022736 -0.18373065 0.85524625 0.20307669 -0.083272524 -0.057804424 0.4570847 -0.015749466 0.41535303 -0.41370136 0.09576504 0.21087833 -0.19705722 -0.097588874 0.12191623 0.3391503 0.20243932 0.14442141 -0.11733652 -0.51565915 -0.093146816 -0.30617565 -0.24321005 0.4126352 -0.5225617 -0.39860618 -0.0045593656 0.59642076 0.015171144 0.37647972 -0.27533433 0.12748022 -0.030373976 0.60236555 0.030554423 -0.29091316 0.2208538 -0.095058255 -0.12584856 0.12790237 0.6982211 -0.22072572 -0.047959223 -0.5559231 -0.7454018 0.07994401 -0.71373993 0.34232736 0.55836433 0.66186833 -0.32394862 -0.4655415 -0.17738576 -0.11106351 0.17207295 0.22761643 -0.17022797 -0.64473367 0.22264749 -0.08614215 -0.14075798 -0.42184305 0.3605033 -0.553835 -0.43052757 0.2947357 -0.40736276 -0.11154259 -0.26917982 -0.0635866 0.0014325834 -0.40116712 0.21162327 -0.42648047 0.28471896 -0.2541881 0.014275853 0.22048713 0.014444346 0.03428727 0.17955767 -0.35735843 0.5087534 -0.02665429
569 0.45795304 -0.5342021 -0.2739795 0.16150194 0.2717948 -0.19755015 -0.048967183 -0.056808352 -0.050873946 -0.18746758 0.140133 0.09532074 -0.31900862 -0.017933816 -0.288559 0.17445165 -0.5570493 0.37036183 0.43143475 0.096549496 -0.09409214 -0.07187825 0.6775305 -0.22944449 -0.40417615 0.17298514 0.18449046 0.2582279 0.33871248 0.07673485 0.53030914 -0.010252574 0.32588574 -0.24028563 0.060065296 0.028140599 0.30135196 -0.34244746 0.086906895 0.38078275 -0.05584506 0.1690287 -0.4443911 0.38519198 0.03720249 0.50508404 0.29585353 -0.09945919 -0.00065915694 0.041123215 0.3514284 0.061472844 0.6117029 0.08474968 0.25377965 0.22583897 -0.10896277 -0.35431263 -0.31166384 0.21929555 -0.14714439 -0.038370427 -0.07711499 -0.04262498 0.26996702 -0.369211 -0.17877918 0.1021974 -0.21058461 -0.46074718 -0.13294816 0.053508867 -0.51927155 0.18222111 -0.09303184 0.2668354 0.4510506 0.42248198 -0.30175126 -0.1532424 -0.05499852 0.0858023 0.5111426 0.033312894 -0.12260491 -0.03993027 0.24464953 0.031387966 -0.32460225 0.018791838 -0.17201202 -0.06207976 0.56038886 0.26062557 -0.031051932 -0.1219781 0.056768548 -0.87098867 0.40696 0.43815237 -0.4070679 -0.018390262 -0.10931307 -0.00715813 0.11683892 0.07163478 0.08236415 -0.14189428 -0.21786965 -0.22458082 -0.11666169 0.13727367 -0.010560633 0.04309816 0.19492716 -0.3948836 0.42904755 -0.31826073 0.22172017 -0.4235873 0.06102187 -0.66096497 -0.5212696 -0.636418 -0.52945614 0.21836047 -0.14035952 0.470493
478 0.4026318 -0.47131842 -0.5892006 -0.02601517 -0.13645814 -0.22349569 0.13474476 -0.51856697 0.753547 0.06596611 -0.18407889 -0.099483825 -0.26225582 -0.049876757 0.15328343 -0.103039026 -0.18123312 0.2414862 0.13135849 0.45721656 0.37111065 0.6233696 -0.42262453 0.2737116 -0.14547239 0.3104653 0.22608912 0.10817219 0.2981888 0.33258113 0.088444546 -0.063960925 0.20589161 0.05148391 -0.25474104 0.23711118 0.056092516 -0.10464312 -0.19479887 0.69346 0.07457891 -0.1289356 0.6227323 0.34744826 0.21798328 0.029941607 0.30178687 0.14095606 0.38979045 0.057928115 0.4572976 0.10376118 0.3518908 0.36363322 0.058522947 -0.00073370076 0.35970175 -0.06409927 -0.27951646 0.42973012 0.33661208 -0.032132696 -0.30868775 -0.9063078 0.2563054 0.06532781 -0.14472233 0.20317505 0.013355408 -0.120773226 -0.03709784 -0.16615169 -0.53147054 0.24354875 -0.22281896 0.052047197 0.28414223 -0.08573944 0.10116027 0.013442853 -0.15391561 0.24901493 -0.25893086 0.616535 -0.025122069 0.14078987 0.34953576 -0.13989726 0.41811594 -0.3185173 0.07995416 0.13943242 0.279154 -0.1564977 -0.114871524 0.16845581 0.32679123 -0.41171822 -0.23619768 0.29179406 -0.07400365 -0.32580832 0.2166751 0.17642117 -0.108194575 -0.26746053 0.53503287 -0.30101773 -0.12123988 -0.34423566 0.14645231 0.06671362 0.05858597 -0.3075599 0.28783584 -0.20458071 -0.21719867 -0.11033763 0.24061213 -0.30194238 0.29185876 -0.13115612 0.06583392 -0.37430888 0.08914124 -0.3509816 -0.17519113 0.08252418
1136 0.79154 -0.13863108 -0.31548968 -0.23833942 -0.13492525 -0.321848 0.23429371 -0.46468222 0.072408214 -0.44063908 -0.08879366 -0.15907118 -0.47153294 0.14783189 -0.0856793 -0.18528214 -0.1407082 0.4810671 -0.3324151 0.4165384 0.3840786 0.051175177 0.03929323 -0.36248377 0.24076949 0.027622009 -0.48530987 0.4562553 0.013768946 -0.073322 0.538977 -0.04448522 -0.013899716 0.24315044 0.087218516 -0.26733652 -0.05651852 0.45159167 0.109076 0.219222 0.11472361 -0.0610477 0.17609549 0.33508328 0.30826297 -0.28057224 0.44409856 -0.20911938 0.12918454 0.5137168 0.19990736 0.31452787 0.3973481 -0.5522494 -0.048573732 -0.17123358 -0.013211703 -0.061221108 0.0016698852 -0.13688973 0.25946355 0.33695135 -0.14286049 -0.4261989 -0.00070031534 -0.61248976 -0.21623729 -0.018991906 -0.22682069 -0.6342691 0.2024303 0.6196699 -0.16233936 0.73861665 0.14256337 0.04496957 -0.099279866 -0.028577402 0.020798767 -0.2890716 0.21124734 0.08173159 -0.029233882 0.14518031 0.19328286 -0.0185953 -0.32455263 -0.5748855 -0.5833799 0.035903323 -0.8350626 0.37226835 0.28575927 -0.25434902 -0.17440309 -0.37873116 -0.11338397 -0.0011788367 0.021537043 0.26274318 0.0459918 -0.6431968 0.3455602 0.021321213 0.12507828 -0.29722172 0.01239175 -0.32728067 -0.26846993 0.307338 0.05016427 -0.09709495 -0.13987103 -0.020708228 -0.4238525 -0.16728425 0.18137752 -0.4144639 0.05622893 -0.2829671 0.13353556 -0.06333892 -0.62807745 -0.05285408 0.36591554 -0.60734415 0.118589625 0.08088242
1290 -0.019403176 -0.42807236 -0.22192428 -0.51567227 -0.2579997 -0.20259203 0.2860978 -0.1268202 -0.046328604 0.07004782 0.21867222 -0.18902019 -0.21702586 -0.082859345 -0.13447747 0.2985427 -0.1244354 -0.080869585 0.5932105 0.5165346 0.023117937 -0.11682747 0.114879064 -0.2702404 -0.35813504 0.38923922 0.65493816 0.282112 0.5806613 0.17591083 -0.07020531 0.21850118 -0.3789813 0.4185686 -0.025690788 0.08212925 -0.14656234 0.0287894 0.2836441 0.1510746 -0.285449 0.09762409 -0.06722058 0.6777735 0.011220695 0.1525334 0.16230421 0.2806511 0.23218806 -0.20620452 0.009667318 0.59403485 0.3034948 0.018860552 0.074527994 0.18057753 -0.37374935 -0.08905585 -0.15703383 0.090490125 0.20557164 -0.108459435 -0.06138873 -0.10422077 0.37503928 -0.074288376 -0.4431903 -0.0051751146 -0.12231327 -0.59969866 -0.40478805 0.28982034 -0.23286973 0.58894736 0.4690872 0.1993685 0.5853761 0.14993054 -0.01570087 0.08631256 -0.18669343 0.32666314 0.40438914 0.1740869 0.013738973 -0.13741767 -0.03480835 0.023404535 -0.07190145 0.014898359 -0.33996883 -0.20772837 0.26674727 0.25634757 -0.21720126 -0.298717 0.08432578 -0.5417545 -0.13812353 0.11863165 -0.07962446 -0.1428851 0.33307856 0.13674183 0.002741674 0.023259446 0.315766 0.01610511 -0.10835964 -0.17913519 0.21111129 -0.045172364 0.075397104 -0.24946468 0.026165968 -0.69126284 0.2820924 -0.5643739 0.38189596 -0.44068357 0.021926353 -0.35686448 0.31474903 -0.53379816 -0.21947779 -0.38675153 0.013007811 0.2622157
66 0.3262914 -0.3850315 0.055318903 -0.18103583 -0.45052204 -0.20672074 0.10581681 -0.26495385 0.23380919 0.027204424 -0.103665225 -0.6146332 0.17713743 0.10129212 -0.021022724 0.0078018755 -0.37151152 0.53746265 0.37354693 0.7266113 0.35343745 0.26223162 0.007041821 0.22208379 -0.37995255 -0.18384191 0.13915645 0.10483161 0.20133464 -0.12187717 0.5009215 -0.5577926 -0.15002123 0.52841973 -0.26127172 0.35255927 0.26141402 -0.086006716 -0.0114684 1.1624464 -0.038564738 -0.28208813 0.2686432 0.5875494 0.08966837 0.39329848 0.3895733 -0.3388624 0.113485694 0.21392632 -0.15253136 0.068873964 0.5477629 0.04707092 0.3958432 -0.3520282 0.025306743 0.096509516 -0.3685765 0.50830096 -0.2524963 -0.09908752 0.060307898 -0.45898432 0.21939774 -0.22989273 -0.38738602 0.26956156 -0.06604899 -0.21067527 0.13016577 0.13386056 -0.17279676 0.101793095 -0.4040342 -0.40536916 0.68236935 0.035799455 -0.007014795 -0.08295134 -0.2698862 -0.12515572 -0.6384926 -0.010772686 0.41956142 -0.50889933 0.034074783 0.20385681 0.22696534 0.047367185 0.2616465 0.28979456 -0.35416767 0.30525312 -0.5810746 -0.17504203 0.3898168 -0.3984155 0.17602797 -0.120147645 0.14062576 0.12861055 0.1349588 -0.21277125 -0.042736355 0.093290135 -0.00073293125 -0.3481984 -0.15167214 0.5422412 0.005785097 0.37621167 -0.08729578 -0.49847636 0.19386223 0.014919696 0.3638602 -0.28770986 -0.22694688 -0.3789312 -0.10423255 0.030183425 0.32129765 0.324942 -0.070860416 -0.27255183 0.29863933 -0.015485893
591 0.09327337 -0.16580008 -0.1984868 -0.1598048 0.5002813 -0.094403304 -0.14179997 -0.24842599 0.30871558 -0.24779528 0.20671773 -0.5342819 -0.47121182 -0.112746 -0.34368643 0.22280633 -0.050566517 0.18568751 -0.15149382 -0.35889444 0.11251918 -0.25048968 0.16935888 -0.2263066 0.06484157 -0.051099468 0.10860096 -0.21745813 0.056298446 0.50726736 -0.014027061 -0.19485869 0.45709312 0.21072938 -0.1104105 -0.00014261313 0.16227847 -0.116195604 -0.1944243 0.73262495 -0.08622802 -0.21018791 0.17946668 0.41894808 0.017810818 0.09580314 0.16908589 0.24559784 0.39604312 0.19918178 0.30943716 -0.0917985 0.7165206 0.107795864 0.51240003 0.44653243 -0.15411672 -0.083386205 -0.5128893 -0.46570945 -0.11336741 0.31181672 -0.029441008 -0.3920867 0.6784404 -0.23128577 -0.6637723 0.19262835 -0.079970896 -0.2518743 -0.24838428 0.058458246 -0.52669334 -0.101292804 0.2949753 0.11371291 0.5182396 -0.24555475 -0.1971204 0.45042765 -0.015661033 0.28303578 0.043894824 0.07576746 -0.50565594 -0.35066125 0.16899395 0.37121427 -0.6990738 0.16632213 -0.20024619 -0.21729256 -0.014559001 -0.11029754 -0.12777184 0.061542336 0.053672645 -0.57260776 0.46119854 0.2105132 -0.10944958 -0.051570237 0.5373587 -0.08377133 -0.15774257 0.050175227 -0.11031172 0.074617825 -0.32591596 0.17081375 -0.0009912904 -0.094863616 -0.057711978 0.29889193 0.37429404 -0.50126547 0.5324881 -0.6708752 0.19970135 -0.37266672 -0.32202163 -0.022592656 -0.0823417 0.07726678 -0.2774153 0.7910352 -0.19245464 0.42227438
1459 -0.18135664 -0.35419047 -0.20896879 -0.35423657 0.061194506 -0.7969041 0.19439812 -0.03839965 0.55167305 0.18763761 -0.32486132 -0.20036763 0.26098254 -0.36322525 0.059765078 -0.39412603 -0.31577617 0.46448344 0.17080429 -0.35683292 0.39018103 0.050920017 0.27417493 -0.19242606 0.25924113 -0.13815282 -0.19005431 -0.043647874 0.46327388 0.002206647 0.21195988 -0.54047436 0.29651675 0.28484794 -0.3437072 0.07525931 -0.427093 -0.033484574 -0.00013334393 0.3622946 0.5787271 -0.10082569 0.8546162 0.5269235 0.057270836 -0.20585638 -0.065188326 0.09057464 0.12832232 -0.26864898 -0.1254582 0.509728 0.2861155 -0.011115601 0.033936415 0.2789308 -0.1802897 0.019512134 -0.1726835 -0.017550033 -0.105583005 0.37917736 -0.067351505 -0.46703255 0.48614448 -0.15066226 -0.16927482 0.17443115 0.085854135 -0.106717356 -0.14297545 0.29900387 -0.49055997 -0.0031110204 -0.02446995 -0.048330814 0.2950744 -0.043483496 0.06493865 0.4022212 -0.3858331 -0.27072206 -0.16991694 0.053250875 0.78232175 -0.39919895 -0.06437098 0.59295344 0.09955438 0.24682555 0.20738202 -0.021558346 0.41500053 -0.27959636 -0.12649824 0.14820772 0.28543925 -0.07699449 0.18694194 0.17669979 -0.07249585 0.2359311 0.38452426 -0.33568537 -0.3749014 -0.0876308 -0.088776596 -0.13756195 0.35794336 0.117732845 -0.12645034 0.015066721 -0.12510297 -0.095323645 -0.06699774 -0.4737643 -0.23999226 -0.12243019 0.63180256 -0.32684913 -0.4431233 0.058440216 0.3625959 -0.5107239 0.0351712 0.104261525 0.08834439 0.38836235
188 0.40149915 -0.045532167 0.15888937 -0.118021406 0.43410417 -0.19506639 0.14511612 0.06674565 0.19906016 0.024502333 -0.17716058 -0.25929472 -0.0009658565 -0.16344607 0.1997033 -0.0017578375 -0.47003612 0.19726664 -0.21364932 0.3245239 0.2505206 0.3296809 0.293442 -0.15882455 -0.18916138 -0.22284517 -0.95776016 0.2927942 -0.06265659 0.030757697 0.34016767 -0.15988941 -0.08620521 -0.02316849 -0.38810942 -0.14908491 -0.5820612 0.3487888 -0.005817176 0.030525431 0.2281572 -0.02116188 0.28077284 0.17365359 -0.0618282 -0.13489497 0.15784203 -0.004368505 0.22361696 0.39090016 0.30147266 0.060716517 0.64170724 -0.5389681 0.12283096 0.2641601 0.081498645 -0.25309956 0.0027740456 -0.358154 -0.028751913 0.07083619 -0.4301076 -0.21244703 -0.1465518 0.003629972 0.036507454 0.13975078 -0.3718195 0.19777118 -0.5181154 0.6132311 -0.3428787 0.37284192 0.30390254 -0.02315088 -0.1202722 0.26086855 0.36111483 -0.22239415 -0.22043018 0.15999702 -0.3854456 0.3690871 0.3283844 -0.25737712 0.054147493 -0.32770815 0.025894532 -0.21799852 -0.36995482 0.12788565 0.91549075 0.39075172 -0.4572426 -0.27628067 -0.1041361 -0.24099095 -0.21151336 0.6859176 -0.13144325 -0.043199576 0.03949079 -0.1410508 0.15290807 -0.07573936 -0.14959322 -0.5016335 -0.49331346 0.31878832 0.030871727 -0.16232164 -0.009434822 0.25888366 -0.2772305 -0.3798176 -0.20874931 -0.45745313 0.2565395 -0.36995947 -0.23197278 0.16685939 -0.16297387 0.062102586 0.5700614 -0.2913276 -0.12054385 -0.03306194
76 -0.4066318 -0.33052567 -0.52574563 -0.30258027 -0.33911523 -0.20041096 0.399725 -0.25657412 0.2633366 -0.7190837 0.28728968 0.19512028 -0.2329354 -0.427122 0.33712456 0.07301604 -0.49783698 0.40277082 -0.01653743 0.23945077 -0.14903846 -0.3621954 0.51081175 -0.58167803 -0.19339539 0.06843665 -0.022902243 0.0914381 0.0014508136 0.121459596 -0.04385282 0.014301855 -0.19616456 0.46986172 -0.08745443 0.15543017 -0.21543272 -0.18585004 0.18028282 0.28426194 -0.08001731 -0.20719619 0.3375311 0.78326005 0.057707734 0.022150477 0.12519865 0.1806467 -0.20737927 -0.3201541 -0.421495 0.60387367 0.5155309 -0.12412508 0.024425559 0.17757143 -0.3090556 -0.10096655 0.2477954 -0.25726277 -0.2589665 -0.26248416 -0.28331268 -0.38228416 0.017778812 0.11559691 -0.0062695947 -0.46481186 0.16395682 -0.18559235 0.069514975 0.15868285 -0.3444985 -0.31696343 0.700993 0.22118649 0.5227414 0.15547474 0.18106315 -0.15040195 -0.07194061 -0.31418133 0.05004212 0.08308596 0.42510054 -0.16080181 0.25981396 0.20988946 -0.73751444 -0.41484395 0.17445913 -0.1121273 0.5065914 -0.19962281 -0.18417118 0.42473546 0.19111143 -0.14318779 0.55041367 0.1668593 0.27862602 -0.4513903 0.20568426 -0.13227195 -0.14313577 -0.02758856 0.18626168 0.1326722 -0.65547806 -0.09347705 0.06565872 0.43807212 -0.009877944 0.16994815 0.31192487 0.17957658 0.0020716893 -0.6013971 0.5184021 -0.2670148 -0.18746449 0.0158819 -0.22573926 0.09020549 -0.6377244 0.1531847 -0.00788405 0.16605006
41 0.19062397 -0.47894233 -0.07173576 0.08767149 0.3503651 -0.25459248 -0.15992865 -0.4998605 0.1735781 -0.37534118 0.05888361 0.005610326 -0.23610564 0.18312475 0.2510011 0.9214281 -0.51735735 -0.23728839 -0.22269629 -0.06511374 0.77359146 -0.38845426 0.3413036 -0.2279979 -0.44418448 0.09198813 -0.26551187 -0.06588493 0.3884127 -0.48294562 0.47975352 -0.82988936 0.22855851 0.8247179 -0.046441335 0.93908066 0.050590843 -0.43712634 0.050628074 0.42434412 0.18707319 0.09733645 0.019247578 -0.18296407 -0.10876177 0.17900077 0.72449815 0.36032355 -0.19419004 -0.3357638 -0.50241035 0.7257547 0.69151986 -0.7353817 0.19916822 -0.35320863 -0.07587435 -0.38235146 0.18212919 -0.14452943 0.3083242 0.032525264 0.7362533 -0.4308303 -0.287204 0.0022085775 -0.18963173 0.48437408 -0.090916865 -0.15058139 0.23412867 -0.255858 -0.31523746 0.40643167 0.076076694 -0.4280546 0.95646095 0.91392183 0.6514424 0.72187275 0.10261595 -0.2122226 0.47125334 0.013126605 0.38170826 -0.39045498 0.45787892 -0.005144303 -0.76254255 -0.111861326 -0.93546903 0.7318328 0.62499446 -0.24074386 -0.78884727 0.9765318 0.34949318 0.089580566 -0.027491124 0.67684376 -0.1435843 -0.48538607 0.8358612 -0.27039894 0.15990362 -0.09336962 0.45516843 -0.23024285 -0.48562866 0.7223586 0.17051919 0.079865165 -0.02608632 -0.2006202 -0.107034735 -0.6912401 0.24368525 -0.54100317 -0.24194202 -0.5472808 0.0061102347 -0.024546782 -0.35080963 0.450785 0.2963709 0.43642595 0.5247726 0.70429426
250 -0.3023593 0.0054603 -0.29130298 -0.035758883 -0.24593762 0.0153472405 0.4019155 -0.25886697 0.25864938 -0.47943994 0.33762503 -0.05169047 -0.09618204 -0.5630871 0.07645891 -0.07887154 0.045372415 0.45013824 0.15773578 0.4460053 0.111964926 -0.13659151 0.29750016 -0.22617671 -0.25677374 0.12315076 -0.30056 0.07501628 -0.116613865 0.013471607 -0.15127146 -0.100120984 -0.04593665 0.41184852 -0.10963979 0.30626485 -0.11011534 -0.2147498 0.1785358 0.42862722 0.13279463 -0.30188957 0.29670998 0.59934556 -0.1290546 -0.110918395 -0.060396224 0.23506968 -0.20374131 -0.19677246 -0.1465683 0.47688764 1.0267874 -0.1696263 0.38334826 -0.04179119 -0.3380861 0.21427299 0.010963608 -0.06968269 -0.33959684 0.06834774 0.10908848 -0.18048419 -0.0929666 -0.21636917 -0.048869915 -0.3582279 0.32005492 -0.009451701 -0.13848339 -0.070027426 -0.17371756 -0.059081513 0.24380095 0.17858407 0.25631934 0.26087514 0.11864319 -0.20175752 -0.24470234 -0.33299825 -0.057360146 0.14255863 0.1793646 -0.36472973 0.17098777 -0.08611322 -0.27048242 -0.20689538 -0.22370845 -0.06320494 0.85046035 -0.50032747 0.14661604 0.4649172 0.033334248 0.27835935 0.2672769 0.65441585 -0.03878507 -0.167046 0.5821113 -0.0803705 -0.37519202 0.14087011 0.13397211 -0.19526312 -0.1191065 -0.4898952 0.0069488725 0.59078246 -0.15749158 0.06609284 0.2342946 0.37343746 -0.30295998 -0.33194667 0.3132989 -0.26083165 -0.16803978 0.17345364 -0.39618483 0.062759146 -0.48332807 0.009194238 -0.37979832 0.32833442
129 0.49604177 -0.16915466 0.18358965 -0.22344908 0.19321223 -0.22931434 -0.0905165 0.0991885 0.36719733 0.07349503 0.27940762 -0.4487607 -0.08533519 -0.035406265 0.49716887 -0.21376467 -0.07426581 -0.13729428 -0.0769364 0.041320078 0.09037426 0.30335462 0.23479451 -0.02955336 0.19875827 0.12005749 -0.46152195 0.34952062 -0.15517406 0.22683623 0.017747963 -0.49374732 0.091143504 0.19420096 -0.18103558 -0.4282875 -0.1598675 0.44512537 0.38646722 0.28280634 0.29621288 0.16378699 -0.25328758 0.24379939 -0.17094113 -0.12538892 0.2964566 0.17618649 0.21652168 0.34174266 0.063501544 -0.020113999 0.75011593 -0.3270647 0.023507537 0.101493955 0.03207503 0.017893344 -0.1645948 -0.049090832 -0.09096452 0.28400937 -0.504967 -0.37806657 -0.18060315 0.1758074 0.018152365 0.18268314 -0.35769987 0.06356192 -0.15847138 0.6645861 -0.08259332 0.42045885 0.12064756 -0.044994883 0.30543503 0.39702013 0.17441168 -0.09354538 -0.049863383 0.15682393 0.17680068 0.2815062 0.47290283 -0.2966416 0.31477812 -0.030410014 -0.50035787 0.30042717 -0.3044235 0.3517978 0.72522473 0.21352132 -0.27216554 -0.4786632 -0.11116788 -0.18369897 -0.012257182 0.88482594 0.043144424 -0.32183203 0.2972851 0.15821162 0.19952674 -0.40861845 0.11735201 -0.34124395 -0.52709657 0.093445376 0.114826016 0.016484452 -0.11004477 0.20838103 -0.3122367 -0.24643765 -0.0764291 0.046554357 0.1871778 -0.037204877 0.5042902 -0.018661084 -0.20380048 0.21507852 0.79916835 -0.26467705 0.26326838 -0.021837885
2175 0.10279961 -0.07198591 -0.2113234 -0.20465314 -0.05768477 -0.5703661 0.09031866 -0.06968548 0.15382598 -0.7607657 -0.09714871 -0.18973407 -0.24115464 -0.23676056 -0.032951932 -0.1987338 -0.38862532 0.26509318 -0.37273923 0.19099693 -0.15877956 -0.11410002 0.25154912 -0.7748855 -0.09237423 0.266276 -0.24520327 0.04711409 -0.36137295 0.19280766 -0.013473678 -0.04327363 0.112880915 0.043564875 -0.6524848 0.085070536 -0.0998298 0.32057273 0.25618792 -0.17045124 0.1280893 -0.13346677 0.104789615 0.21722297 0.05046451 -0.32140532 0.27504382 -0.104847774 0.24945495 -0.02430372 0.044126026 0.114381194 0.5775349 -0.5469323 0.120071836 0.06210034 0.20409979 -0.25949314 0.17755507 -0.42665923 -0.064547434 0.32292637 -0.1531685 -0.48067763 -0.22538085 0.1393263 0.1531345 0.15010267 -0.5135244 -0.1243949 0.19132617 0.63412637 -0.013323413 0.6144758 -0.26967603 0.21284889 -0.0405462 0.33433384 0.4080741 0.03575143 0.05563281 0.2958828 -0.2055802 0.2487728 0.39311716 -0.22392116 0.23195599 -0.23103783 -0.1861174 -0.06397067 -0.18368016 0.1532613 0.9058038 0.2247528 -0.39042783 -0.41859338 -0.003543441 -0.087148875 -0.094511114 0.42635918 -0.31516016 -0.17526506 0.22822593 -0.29858512 -0.02027607 -0.30170655 0.0114549305 -0.686105 -0.5650629 0.6185909 -0.24947643 0.030579409 -0.18086474 0.027930727 -0.35114685 -0.27274016 -0.08110033 -0.11722236 0.74172676 -0.09454679 0.11784989 0.26519352 -0.254185 0.24744956 0.7162374 -0.31771857 0.32340938 -0.2294854
686 0.17592151 -0.044606965 -0.9827143 -0.11710399 0.13475855 -0.31082585 -0.020563465 -0.15952338 -0.019894954 -0.034534484 0.36749914 -0.073143706 -0.30597302 -0.0052974205 0.25690496 0.39656833 -0.25052965 0.08617716 0.17509049 0.19121869 0.42223737 0.07686308 -0.30984488 -0.34336305 -0.1907302 0.042832408 0.055137705 -0.09558393 0.38418555 0.21912588 0.2662773 0.024198981 0.815549 -0.20240603 -0.35709786 0.13724476 -0.004823154 0.02739171 0.023985548 0.42034158 -0.016285688 -0.045949668 0.23606433 0.31989846 -0.12732653 0.22311224 0.36911696 -0.2442177 0.2734648 0.29344663 0.061992433 -0.28984654 0.25851214 -0.29697013 0.40036768 0.11931244 -0.2830761 -0.3632684 -0.37122592 -0.28690824 -0.44602457 -0.1358098 0.008817696 -0.33674878 0.31836593 -0.18050186 -0.5404302 0.14744243 -0.33726 -0.38469115 -0.121340595 -0.0803464 0.056249708 0.06259479 0.03152806 -0.048783045 0.67590034 0.1456509 0.0037164239 -0.057273455 -0.47150382 0.028133716 -0.24890196 0.3622695 -0.13033365 -0.46346816 0.21958587 -0.12248757 -0.4217144 -0.19705832 0.05866817 0.42327353 0.3749118 0.30952474 -0.678704 -0.45368716 -0.10330552 -0.4997511 0.13012221 -0.050664764 0.07933861 -0.039932225 -0.12447358 -0.20708011 -0.12680198 0.0044238074 0.5407874 -0.8345706 -0.1918964 0.2869036 0.40336618 -0.029285474 0.10948519 -0.19329791 0.022326525 -0.061101288 0.29408744 0.06582347 0.09532237 -0.3634362 -0.1445095 -0.29065856 -0.55688685 0.3436348 -0.079144746 -0.26520932 -0.026076948 -0.24749294
426 0.2313586 -0.08096543 -0.061140593 0.11466512 -0.09539794 -0.18283428 0.16230737 -0.17924449 0.008527606 0.33925232 0.2596647 0.059108686 -0.08217104 0.18759981 0.0759977 0.64366525 -0.33924806 0.58926183 0.4592796 0.8244817 0.07744212 0.13376586 -0.09459444 -0.33889857 -0.27860954 0.12262152 0.4955734 -0.38459596 0.26383117 0.741774 0.012527571 0.0687046 0.115017846 0.30469397 -0.21700782 0.16084953 0.25369015 -0.38075367 0.009008473 0.46177217 -0.0088882325 0.16256794 0.43809128 0.65592486 -0.2856954 0.4184619 -0.18056463 -0.09103203 0.25907695 0.10015921 -0.17343676 -0.21099997 0.48770845 -0.113819286 -0.31688398 -0.18687256 0.52653605 -0.12033232 -0.23973325 -0.079987705 0.21958633 -0.086783014 -0.18963401 -0.1438863 0.33073238 -0.40907547 -0.4609216 -0.051241256 -0.1424462 -0.396848 -0.26482216 0.20633662 -0.15324071 0.2782496 -0.29796496 -0.12855825 1.0153995 0.35612065 0.22350381 0.11623585 -0.062930234 0.2726379 -0.31235227 0.40264308 -0.093224734 -0.647089 -0.02292186 0.14090297 -0.06293198 0.09684576 -0.38410032 0.2964157 0.33936384 0.53208756 -0.10374531 -0.1460671 0.3834296 -0.122784585 -0.33562544 0.142165 -0.1894937 0.29467276 0.42248836 0.054805636 0.09250905 -0.14069606 0.522119 -0.48468396 -0.3711931 0.7092691 0.32966733 -0.14071877 0.34871286 -0.12633424 -0.10655658 -0.19231416 0.08586913 -0.35007203 0.38366774 -0.4276366 -0.07011135 -0.21850066 0.004644728 0.020278852 -0.1474325 -0.23210952 0.051743794 0.19582213
1569 -0.06889379 -0.19572301 -0.8310926 -0.23037139 0.35161033 -0.22669257 0.016673906 -0.25467715 0.29002157 -0.1486775 0.37310532 0.19364901 -0.24855366 0.14077811 -0.060312353 0.5385509 -0.5262366 0.12550579 0.32520917 0.41155997 0.32005137 -0.23474203 0.04548762 -0.6900227 0.2727711 -0.31702963 0.32217923 -0.25311673 0.17397544 0.20440668 0.11946243 -0.17223768 0.6160345 0.31263864 -0.17688464 0.23518267 0.42300764 -0.2494701 0.4100112 0.16604482 0.08539082 0.46172082 0.2857599 0.62246513 -0.0914393 0.16301352 0.112392336 -0.29773307 -0.05294579 -0.28048548 0.044400662 -0.16170399 0.49961445 -0.18157955 -0.0341872 -0.32433346 0.40215236 -0.19858894 -0.060589828 -0.41846308 0.53381985 -0.17941202 -0.35723037 -0.63336366 0.12757243 -0.014250472 -0.61355513 0.4467253 -0.15270308 -0.11817698 0.12277365 0.117372945 -0.5924339 0.04610464 -0.04461477 0.089906596 0.66067094 -0.07870442 -0.35464713 -0.1333998 -0.6348817 0.20832273 -0.053941507 0.2574932 -0.40686202 -0.52494186 -0.10563736 0.538804 -0.17358227 -0.38256216 -0.43385077 0.7392136 0.24647655 0.2652883 -0.12230709 0.007454069 0.1641005 -0.056032356 -0.08238255 0.48318225 -0.01699218 -0.11476958 0.4833199 0.36628512 0.1055355 -0.29558477 0.5974176 -0.5180805 -0.47384268 0.3554761 0.27335262 -0.11838362 0.11340808 -0.38094887 0.05044699 0.08522545 0.15852334 -0.20549601 -0.043183744 -0.011955199 -0.090427674 -0.07503226 -0.1674709 0.51139677 -0.007837097 0.15878437 0.07630242 0.2772627
359 -0.09631532 0.03884654 -0.2793278 0.34173083 0.25579563 0.005877333 0.11133426 0.3433037 0.27233687 -0.13298391 0.24426119 -0.39557365 0.048204675 -0.8262342 0.7241945 -0.016090205 -0.70709187 0.075020514 -0.052903973 0.24352725 -0.087285236 -0.5300415 0.24669933 -0.3636521 0.06086586 0.16386679 0.34232512 0.2976917 0.07459076 -0.013746724 -0.14734475 -0.56941533 0.2062411 0.41200113 0.24610889 0.85180664 -0.23410587 -0.62054783 0.008495617 0.37945226 0.14873126 -0.29248795 0.31326792 0.54291993 0.23128398 -0.13992737 -0.05982878 -0.5475383 0.42876655 -0.34415096 -0.04614906 0.005159174 0.91063434 -0.025161728 0.08993918 0.38010973 -0.06048499 -0.20301919 0.06562128 -0.3901425 -0.3134894 0.3104596 -0.1319085 -0.74560875 0.08405577 0.18084873 -0.1438288 -0.12757242 0.24237843 -0.079053275 0.6346705 0.45508137 -0.6353725 0.1974574 0.478805 0.25626898 0.8549726 0.6224271 -0.02461637 -0.7534357 0.20617461 -0.29010645 -0.5582776 0.23298298 0.57989734 -0.3467931 0.23602399 -0.30773512 -0.13932708 -0.059231054 -0.08054304 -0.07892949 0.030694045 -0.022197474 0.040500846 -0.15886195 0.27534524 0.13699086 -0.26691058 0.6610009 -0.014253285 -0.1748959 0.3100996 -0.30362117 -0.50043315 -0.5560563 0.16067709 -0.31493163 -0.08790261 0.38191143 -0.3282827 0.07209175 -0.114781484 0.1214076 0.0836968 -0.5874972 -0.10063187 0.33621943 0.17509782 -0.15673481 0.31860226 0.18721333 -0.3454138 0.30197382 0.20182881 0.04434675 -0.13347356 0.14155602
640 -0.12803565 0.07164406 -0.2623942 0.2359876 0.5871125 0.0060806586 -0.020275764 -0.10244513 -0.06825445 -0.42223975 0.17877586 -0.68431956 -0.5890624 0.056248758 -0.3029268 0.38476887 0.07839671 0.29169577 -0.009744163 -0.06207425 0.13642007 -0.09543038 0.29659897 -0.3457962 -0.15115198 -0.029243661 0.066900276 -0.09368302 0.13587484 0.26434183 -0.3027332 0.22421543 0.5406305 0.17095454 -0.19918166 0.20902176 0.25282413 -0.28273422 -0.007150099 0.5985689 0.01830459 -0.0044905213 0.2504358 0.35072508 0.032165717 0.15683721 0.00081401295 -0.15237729 0.69944376 -0.0703253 0.08280146 0.043547776 0.7768472 -0.043247458 0.91044784 0.19062631 -0.2791593 -0.08678594 -0.30570355 -0.33364412 -0.15853865 0.65249544 -0.17141385 -0.4270152 0.41505167 -0.5701211 -0.62024426 0.3853287 -0.0001981487 -0.19996418 -0.23287041 0.016919337 -0.6264909 0.12968102 0.0062324144 0.04660067 0.3824543 -0.1701655 -0.14951253 0.019618167 -0.20580868 0.2270162 -0.101058334 0.093031466 -0.046845093 -0.13906056 0.07569496 0.22290649 -0.51358926 -0.03340214 -0.41127172 0.061418734 0.18154804 0.09080603 -0.3223038 -0.06798803 0.18599994 -0.76959264 0.45522577 0.108506024 -0.46231952 0.20259137 0.5412653 -0.09476152 -0.03569306 0.04484145 0.2670378 -0.053080063 -0.22915728 0.12772836 -0.08006065 -0.22401012 -0.13271387 0.20201315 0.32549998 -0.51732767 0.43790677 -0.31940418 0.19435789 -0.2916543 -0.14560618 0.06768012 -0.2130046 0.39010957 -0.41996682 0.43209818 -0.34875152 0.29583627
1178 0.21706383 0.049666643 -0.23862424 -0.08573283 0.05250661 -0.50374013 -0.0817829 -0.18089429 0.5475136 -0.8257624 -0.22877827 -0.115987115 -0.057528727 -0.34099767 0.010429472 -0.16512318 -0.36400914 0.17294396 -0.37408334 0.81138 0.06347681 0.3638719 0.5628117 -0.19046697 -0.032464683 -0.014392382 -0.32730615 0.13235883 -0.2682941 -0.16828722 0.7067011 0.12340977 0.368301 0.036956917 -0.33585683 0.00426037 0.07013167 0.29545662 -0.076428525 -0.25594735 0.20008403 0.25639457 0.28180835 0.2595316 0.14464368 -0.28873003 0.034641325 0.042507444 -0.046791878 0.3337875 0.32143745 0.047456942 0.820875 -0.87479055 0.03500889 0.12811337 0.054150872 -0.29248935 0.0375169 -0.16876207 0.12680568 0.36068073 -0.033023298 -0.3236855 -0.04871916 -0.01425071 -0.037405394 0.3187373 -0.16414441 -0.14995132 -0.38792565 0.6505226 -0.093492754 0.32666934 -0.38531932 -0.07942215 0.066384785 -0.03563335 0.1912478 -0.2672421 -0.05377416 -0.70120406 0.08616278 0.37531075 0.5530169 -0.12562512 0.51720804 -0.16382436 -0.7328284 -0.06707381 -0.48090547 0.42267886 0.42058536 0.23632514 -0.39282548 -0.6367764 0.20867322 0.12656942 0.14029023 0.20205808 -0.1581091 -0.06725538 0.35694328 -0.318955 -0.57772815 -0.26273817 -0.14645538 -0.34394813 -0.07713494 0.91266537 0.1986738 0.014054433 -0.085462324 0.07564747 0.067521684 -0.88462484 -0.25555676 -0.17862067 0.54894984 -0.21098359 -0.22650434 0.09314843 -0.2196674 -0.14565086 0.456252 -0.023958674 0.008577539 0.30813214
881 0.12992652 -0.38707313 0.008462753 -0.47324663 -0.27014887 -0.07329789 0.16949823 0.21356606 0.36085552 -0.29404548 0.35071203 -0.19302431 -0.005059345 -0.17527696 0.1257887 0.8529386 -0.25691134 -0.27840766 -0.41262183 0.21309261 -0.15320548 -0.16906299 0.112162426 -0.1118002 -0.24804321 0.35413846 -0.14335796 0.09406063 0.025666848 0.5908165 -0.0048431656 0.11361484 0.031716358 0.30105415 -0.1214843 0.30508193 -0.5054548 0.107685246 0.39380893 -0.0049577276 -0.04646631 -0.2287748 0.13338584 0.8646981 0.27707636 -0.034080777 0.7175677 -0.36496806 -0.19213286 0.07600238 0.25815195 -0.23640834 0.63078 -0.116155006 -0.33890814 0.3530659 -0.112561725 -0.25633785 0.25494745 0.5051597 -0.024044856 -0.060867906 -0.27508882 -0.48640186 -0.16419329 0.15611193 -0.18362422 0.12844299 0.058046404 -0.52245945 0.07162895 -0.32152194 -0.47477606 0.25841203 0.14311959 0.2776789 0.28920498 0.14111313 0.16762723 -0.35495684 0.046039205 -0.5597959 0.062582396 0.22133373 0.30032182 -0.057432637 0.128117 0.17235558 -0.31914183 -0.0212675 -0.116605826 0.28139758 0.6898774 0.009220722 -0.17515169 -0.3260048 0.13809572 -0.28202096 0.019906055 0.43853217 0.37897444 -0.52442265 0.14821966 -0.059702575 -0.15219364 0.06870729 0.15155679 0.27898645 -0.043698832 -0.038756203 -0.13716823 0.20043063 0.04334374 0.29513615 -0.25963494 -0.2310529 0.487465 -0.084463626 -0.1212798 -0.08801721 0.32183918 -0.29228544 -0.6489034 -0.17830755 0.017432 -0.63700247 0.02214767 0.370807
738 -0.051952057 -0.18327282 -0.1567228 -0.110414475 0.34716776 -0.76991814 0.01261158 -0.2809997 0.30694208 0.09027268 -0.18323694 -0.31871665 -0.020367535 -0.35583258 0.2154981 -0.43613636 -0.16966492 0.1525825 -0.3280207 -0.24595061 0.16272727 0.025337053 0.35221645 0.22782418 0.1830742 -0.039838403 0.17830049 0.5313669 -0.30300313 0.07942237 0.2813125 -0.2608599 0.43904084 0.28841305 -0.7037132 0.37832534 -0.055733275 0.0042194775 -0.32283986 0.44535616 0.59559643 -0.018996809 0.4401792 0.69721675 0.067567304 -0.22041829 0.25615948 0.02140332 -0.008747513 0.044540197 -0.082767375 0.24474727 0.54886 0.22111037 -0.090568826 0.34341857 -0.36991733 0.25957683 0.18070795 -0.21602704 -0.040678047 0.25600803 0.0010575572 -0.75241727 0.17129263 -0.030032285 -0.27004483 -0.07968273 0.5637207 -0.44535583 -0.041628204 0.28296545 -0.4900094 0.11098783 0.08992609 -0.16946767 0.21707714 -0.24552877 0.116155915 0.025907638 -0.4282663 -0.14789692 -0.3664637 0.11539197 0.6792565 -0.16431686 0.037626863 0.51651925 -0.19335522 0.24555764 0.28246415 0.39162245 0.068718106 0.007938498 -0.32647333 0.6872222 0.08961641 -0.4864842 -0.37831855 0.017644871 -0.15161836 -0.006154767 0.52280396 -0.13920647 -0.10399769 -0.36912477 -0.065747604 -0.34049454 0.2700096 0.18292685 0.09825815 -0.10456994 0.33256298 0.0231476 0.060467023 -0.59535134 -0.28159505 -0.08802249 -0.05974519 -0.8433288 -0.54413277 -0.08648423 0.16729653 -0.18553512 0.36307672 0.19254859 -0.0846942 0.28215447
558 0.31501952 -0.19501835 -0.5331359 -0.21519655 -0.28934357 -0.2839928 0.43318793 0.022798525 0.4370184 -0.05627479 0.19885238 0.30210853 -0.1038362 -0.24425673 0.25538224 0.1818266 -0.2967031 0.1604253 0.18769981 -0.06031615 -0.14525436 0.18826422 0.4583576 0.10653834 -0.3834948 0.34766853 0.1313319 0.09723642 0.5125388 -0.53375393 -0.10374308 0.06032288 -0.15816431 0.4353485 0.15323815 0.16614035 -0.026762612 -0.11580197 -0.23894499 0.6921834 0.08626988 -0.1293209 0.19311559 0.61081505 0.1034476 -0.13056076 -0.07894689 0.1926593 -0.16742171 -0.39701018 -0.10249152 0.513112 0.5769619 -0.23374268 0.21475121 0.15659991 -0.20598827 -0.039875604 0.017110651 0.20114267 0.086033925 0.04959485 -0.26708627 -0.15827458 0.4503145 -0.024828816 -0.23617516 0.17873704 -0.11764981 -0.34640148 -0.2818714 0.42008576 -0.11844841 -0.17970918 0.27747452 -0.22320838 0.22321667 0.32113653 0.12635422 0.3690434 -0.52430916 -0.26478913 0.09165649 0.2740268 0.035499427 -0.29526627 -0.09287385 0.2625195 -0.47928366 -0.0072362428 -0.18593492 -0.03508317 0.61503875 -0.40610844 -0.28906545 0.70799136 0.5043589 0.07905776 0.33591047 0.081201315 -0.09200072 -0.33588454 0.76862156 -0.22792386 -0.088330515 0.268347 -0.18473814 -0.078049004 0.059967715 0.08231586 0.17112437 -0.01020063 -0.24647674 -0.2058582 0.20317824 -0.56739694 0.25169152 -0.7525102 0.67994225 -0.3048977 -0.61900556 0.024614926 0.0063277576 -0.24954358 -0.2748595 0.1138496 0.1581745 0.64887726
99 0.6224486 -0.15967865 -0.5383587 0.06608647 0.2553234 -0.4448809 -0.6209822 -0.45137468 0.5933886 -0.11348426 0.008950992 -0.18158863 0.24567504 -0.053580947 0.5165094 0.60740244 -0.45594126 -0.34432545 -0.26586092 -0.32144976 0.6510295 -0.44059002 0.24819236 -0.34819987 -0.18604133 0.122680046 0.3146179 0.21757685 0.65075743 -0.6507695 0.7314054 -1.2834575 0.2959002 0.88619655 0.038665317 0.9413182 -0.26799867 -0.43479496 0.3607462 -0.08910374 -0.5708173 0.25511885 -0.17811118 0.06586542 -0.5443042 0.031518027 0.58054084 -0.27386627 0.33816513 -0.34909934 -0.3026759 0.87721294 0.807943 -0.5583671 0.6620462 0.11435673 -0.07645989 -0.5621655 0.21688737 0.098732814 0.1178269 0.1713068 0.20133185 -0.9305969 -0.22082593 0.4779865 -0.048619043 0.5145074 -0.012606186 -0.5038704 -0.005658184 -0.05573118 -0.24084395 0.018437074 0.31303707 -0.41485524 0.40734932 0.6579591 -0.11053757 0.59249586 -0.34387368 -0.34087375 0.4592899 -0.011623977 0.47388953 -0.070733145 0.27518678 0.09818864 -0.8258889 -0.06350061 -0.77737564 0.6242334 0.68830395 -0.150878 -0.578814 0.6049008 0.4224615 -0.30485213 0.2600499 0.028512323 0.78272605 -0.38443434 0.65064627 -0.24776563 -0.2604986 -0.4648058 0.7105394 0.1760356 -0.018492762 0.5359022 0.14082196 0.3928354 -0.07926487 -0.17601475 0.08613588 -0.8858123 0.69664353 -0.9736365 0.08195244 -0.48205417 -0.010805762 0.33756226 -0.31043905 0.08726681 0.43097505 0.1858555 0.27257013 0.70598704
342 -0.044128973 0.105722785 -0.049891204 -0.30952388 0.9097303 -0.361485 -0.17507206 -0.49308997 0.8136652 -0.47267213 0.13310389 -0.46567053 -0.122592114 -0.121782914 -0.08968536 0.44605896 -0.71004325 -0.05357724 0.3892792 0.20362306 0.16788763 -0.6583117 0.18320364 -0.17631908 0.118405946 -0.070341684 0.21297309 -0.3534252 0.507299 0.5449568 0.22233929 -0.51630706 -0.46968922 0.51313066 0.376886 -0.035488427 -0.2295775 -0.54331154 -0.22035228 0.27072793 -0.28266594 0.44634563 0.15674144 0.22072735 -0.6426959 -0.2447451 0.3056673 -0.17074648 0.2195534 -0.090142556 -0.058675382 0.3657928 0.40635163 -0.37718078 0.530532 -0.013603977 0.0047403486 0.19875242 0.2395449 0.2643585 0.23543136 0.33170143 0.5560622 -0.40088817 0.30125284 -0.18422383 -0.24148789 0.45707968 0.18898122 -0.41654414 0.35115546 0.39633095 -0.2607678 0.3529144 0.45936424 0.3823778 0.20014831 -0.06656419 0.08083196 -0.014269025 -0.24464977 -0.57822007 -0.19638652 -0.17785272 0.46466553 -0.93380314 0.010390852 0.29529625 -0.08949317 0.35425046 -0.92384154 0.4391256 0.32945973 -0.34498173 0.09872575 -0.64722353 0.35237122 -0.5682418 -0.18951496 0.01944559 -0.115349285 -0.18845023 0.7555468 -0.17165251 -0.69368106 -0.40903047 -0.093916625 -0.64128613 -0.45891008 -0.42423663 -0.053049706 0.115789205 -1.2540858 -0.25343272 -0.34792107 -0.48463276 0.22386344 -0.82318586 0.33354765 -0.4552092 -0.056581456 0.0532625 0.08793554 0.05371483 0.0013927964 -0.6349196 -0.4235001 0.80263454
415 0.57690126 -0.12049244 0.05107641 -0.16952741 0.0359151 -0.604892 0.03612867 -0.3134887 0.29464287 -0.027563982 -0.23646949 -0.47769624 -0.24332285 -0.18705913 0.108428136 -0.41231474 -0.28623208 0.15761723 -0.32951874 0.596217 0.11180321 0.6118217 0.16901453 0.13345125 0.040542416 0.23246917 -0.63166296 0.47524962 -0.30074996 -0.00742605 0.32999003 -0.30200568 0.18677488 0.022871295 -0.11160039 -0.43121284 -0.20635591 0.28723827 0.00205887 0.057800163 0.26750538 -0.06824452 0.2609949 0.28843543 -0.066197045 -0.49141842 -0.058764476 0.038334895 -0.004451683 0.40902027 0.32369375 0.37499413 0.54711837 -0.9112835 -0.0023842235 0.355823 0.024914306 -0.21894 -0.11190087 -0.33591685 -0.32403192 0.2807864 -0.2523805 -0.44924948 0.2976383 0.08126782 -0.10105721 -0.014606005 -0.12077417 0.1274373 -0.40493935 0.54523605 -0.3632513 0.13819776 -0.019911127 -0.048415568 -0.036936887 -0.11269848 0.40092462 -0.23763219 -0.21847962 -0.38977847 -0.087235145 0.43028414 0.5026193 -0.3595781 0.46605593 0.0061967517 -0.38305652 0.0117753865 -0.49899974 0.36316386 0.48332468 0.2548429 -0.34361658 -0.43827108 0.01974571 -0.06475733 -0.12212285 0.46391183 -0.18874504 -0.068910405 0.43297562 -0.13678029 -0.19509916 -0.43029636 -0.1753631 -0.42800573 -0.26592487 0.27819747 0.14482506 -0.34020245 -0.10649339 0.2597665 0.0605937 -0.6444544 -0.3083741 -0.33828625 0.11020491 -0.5536022 -0.16478306 0.247551 -0.06444072 -0.41361317 0.36870763 -0.13900283 -0.18248974 0.07276949
967 0.4346139 -0.43715382 -0.33701164 -0.46850765 0.15062748 -0.35813063 0.09064934 0.18497694 0.19856156 0.0746011 -0.18365166 -0.5063599 -0.3708897 -0.20896275 -0.07453103 -0.02297315 -0.11592376 -0.09017167 -0.3856227 -0.7374906 -0.22093044 0.18064195 0.4535681 -0.2640945 0.04760239 0.07650468 -0.091150135 0.17572154 0.072104126 -0.024014866 -0.008772671 -0.031270914 0.7376941 0.21901824 -0.3655367 -0.26903847 -0.1523984 -0.096060075 0.22455177 0.48585927 0.14745857 0.02267806 0.30213544 0.7112945 -0.5063157 0.093312055 0.49486518 -0.021213895 0.6647357 0.04288625 0.20433097 -0.043470576 0.82586277 0.13875972 0.1465476 0.260809 -0.35781854 0.28353345 -0.3155184 -0.11176323 -0.16389558 0.5160825 -0.22873819 -0.579421 0.1614453 -0.07551741 -0.100019924 0.11883276 -0.0386169 -0.44402277 0.10519167 -0.00808627 -0.5337209 -0.154593 -0.13721827 -0.019684913 0.2137563 0.11515091 -0.17655377 0.48243317 0.122523874 0.42114943 0.2550018 0.19111207 -0.054661613 0.029022213 -0.04359271 0.6129396 -0.4141576 0.3134289 -0.07603266 -0.3898427 -0.33954662 0.06525861 -0.21607842 0.37976852 -0.39771566 -0.6796076 -0.0900498 -0.019646127 -0.21987107 -0.11775081 0.2873113 0.29626366 -0.2106984 0.1974853 0.18208241 -0.49510977 -0.44780222 0.13441603 0.14969414 -0.043899562 -0.06836974 -0.13497815 0.089145645 -0.33522362 0.18395321 -0.1905797 0.41655293 -0.6381613 -0.20814842 -0.15035525 -0.14645031 -0.020818511 0.231448 -0.009572585 -0.02690415 0.28299552
1910 0.3591753 -0.16819586 0.092449404 0.19157322 0.28946528 -0.026831998 -0.16457398 -0.6459404 0.59122545 -0.6675964 0.88001186 -0.2854125 0.24534816 -0.39824024 -0.21992879 -0.5612203 -0.68314147 0.29324302 -0.61009973 0.2921047 0.11712714 -0.60228026 0.7639857 0.07185061 -0.025022926 -0.051855348 0.6181185 -0.037387967 0.22202037 0.28456515 -0.22742434 -0.49386632 0.21422973 0.4163631 -0.011660282 0.32358804 -0.01737109 0.024644492 0.12836443 0.3693089 -0.21228762 -0.070667125 0.5411255 0.70675004 0.31752226 -0.41595784 0.4040272 -0.24670699 0.1853668 0.10448653 -0.89795244 0.09556506 0.8688406 -0.19491382 0.06406952 0.26949045 0.3873259 -0.26288357 -0.10102376 -0.2137948 -0.31877124 0.38384485 -7.995127e-05 -0.94068176 0.4669286 0.23314357 0.22356243 -0.46313787 0.37106276 -0.27088556 0.6232473 -0.35110593 -0.4631387 0.29673186 0.04753737 0.69658375 0.28001794 -0.2577695 0.44173875 -0.39530134 0.035319187 -0.5134091 -0.039967265 -0.057447094 0.34259257 -0.2003923 0.49822637 -0.23778932 0.12975533 0.029830972 -0.5294634 -0.21912882 0.59566325 -0.14252676 0.37254012 -0.30952364 0.06963044 -0.49897677 0.18883006 0.024267655 -0.06361306 0.31089485 0.17349385 0.17419678 -0.41407147 -0.40740225 0.13406143 -0.42611194 -0.5654002 0.30747983 -0.24912998 -0.03915451 -0.13803211 0.3355009 0.04483122 -0.08759675 0.35113263 0.071431 0.23524438 -0.27852163 -0.25754386 0.1890028 -0.7319592 0.8699067 -0.3865606 -0.1362992 0.014503481 0.2748924
1484 0.40649843 -0.6386827 -0.61937773 -0.12546808 0.08708999 -0.43330818 0.03353952 -0.28817305 0.12833194 -0.543202 0.26590633 -0.067034304 -0.18366227 -0.074266225 -0.12571684 0.18609755 -0.64496964 0.08128931 0.4018199 -0.090492465 -0.05247988 -0.20668608 0.15391694 -0.30284718 -0.3939382 0.16935545 0.227477 0.16494092 0.5305315 0.27637425 0.4505418 0.14329882 0.024546703 0.31548652 0.25995955 0.009283244 0.40321806 -0.37360942 0.25068578 0.33819422 -0.23932663 0.44554657 -0.41052058 0.65750086 -0.1482537 0.42443627 0.31677118 -0.09998052 0.3229021 -0.17026506 0.0014195184 0.08622791 0.28429434 -0.27854937 0.07050952 0.31591243 -0.29873812 -0.33286017 -0.41421783 0.23064639 -0.15821038 -0.46081355 -0.39976516 -0.1412399 0.49971098 0.19490933 -0.1146463 0.16899633 -0.39103112 -0.24805002 -0.01592383 0.20720449 -0.3544145 0.38092053 0.21500152 0.34596667 0.7763591 0.31593135 -0.07305432 0.17250314 0.103477634 0.20223758 0.24238694 0.1587669 -0.23090962 -0.07899645 0.37164328 -0.015351043 -0.040920515 -0.31297994 -0.5543391 0.09294765 0.5817969 0.19628677 0.058040585 -0.3049764 -0.0855154 -0.4162729 0.094611235 0.32744095 -0.33177903 0.16795841 0.15007548 0.19633979 0.1605224 -0.018034 0.39322644 0.12582219 -0.24715178 -0.30662173 -0.36749423 0.07325588 0.09922559 -0.32510185 0.35357445 -0.44206896 0.29517582 0.14284992 -0.19994654 -0.31365445 0.044037666 -0.43781674 -0.6934962 -0.16453421 -0.053461287 0.047391072 -0.14818569 0.1660529
84 0.30702102 -0.1306591 -0.62012917 0.034352455 0.24496011 -0.023853073 -0.16159286 -0.49276146 0.54088855 -0.28360027 0.38765982 -0.314775 0.30601335 -0.18045476 0.22191761 0.4023365 -0.45942625 -0.16842698 -0.02059832 -0.34167305 0.05159521 -0.4860283 0.23644653 -0.41631126 -0.27039802 -0.14288574 0.2490613 0.2833306 0.81076705 -0.1616915 0.3771686 -0.68000066 -0.045638952 0.65898585 -0.027230239 0.31725213 -0.19396728 -0.1955531 0.048685733 -0.2686498 -0.5029563 0.4977205 -0.16748805 0.39692166 -0.34919548 0.044008967 0.359136 -0.12270321 0.39371973 -0.4771223 -0.534036 0.65930897 0.5703465 -0.55983704 0.722106 0.19094256 -0.19685437 -0.4597237 0.12907915 0.08137793 -0.21012646 0.024185931 -0.07350867 -0.47211716 0.18295154 0.5459723 -0.07972902 -0.14820665 -0.114581905 -0.5410151 -0.37493107 0.10164143 -0.30412996 0.09072149 0.3802564 0.10600921 0.36374488 0.38852653 -0.2342911 0.42507473 -0.32342398 -0.31770507 0.5326953 0.41203108 0.4484161 -0.20724614 0.083605714 0.11803264 -0.5347435 -0.5153235 -0.3900387 0.2891452 0.51223576 -0.18484564 -0.0036808827 0.19029392 0.25556272 -0.42509976 0.444993 -0.042830523 0.6311259 -0.114146106 0.19864962 -0.14769644 -0.45038638 -0.1475593 0.057260755 0.30359852 -0.17567657 0.16715112 -0.33794776 0.44494402 -0.4926937 0.13307646 0.19117929 -0.43836462 0.49532303 -0.53373206 0.16490865 -0.23532856 -0.2935713 0.27641815 -0.07750424 -0.22659858 -0.17276049 0.03686752 0.21987776 0.65641403
519 0.3985543 -0.5717821 -0.09776075 0.3501047 0.40182686 -0.12310103 -0.15992507 -0.50479424 0.6837421 -0.86216825 0.7653698 -0.30341074 0.23440294 -0.219405 -0.34551892 -0.13018917 -0.43843928 0.07145846 -0.65839154 0.40538982 -0.02063491 -0.6303766 0.40797442 0.36394003 -0.43750393 -0.013648447 0.48509565 -0.14633726 -0.12343018 0.5128134 0.02925984 -0.34648862 -0.27190325 0.105248414 -0.035341263 0.17770843 -0.109227315 -0.11908695 0.13471438 0.15696318 -0.27445844 0.36622444 0.64933497 0.7486078 -0.19808413 -0.120062724 0.49662694 -0.5376179 -0.06833196 -0.1851227 -0.7508947 0.27783653 0.71746016 -0.116810255 -0.115349054 0.5135129 0.37755805 -0.12927882 0.1480874 -0.1776173 -0.30048653 -0.120736204 -0.18109551 -0.80523264 0.5104606 0.41109157 -0.34601456 0.009179847 -0.08212023 -0.47096917 0.40221444 0.030613529 -0.5648036 0.0430731 0.8205786 0.5091622 0.266291 -0.42196488 0.51930547 -0.36308303 0.020039313 -0.69021606 0.026361454 -0.06574967 0.25521755 -0.4889291 0.47826126 -0.025171367 -0.4419356 0.24229527 -0.30278936 0.17616059 0.83190423 0.041662253 0.12765796 0.13126816 0.38536873 -0.3749571 0.06203979 -0.0013701194 -0.12330501 0.027889576 0.3163504 0.040277634 -0.26036203 -0.491339 0.13685447 -0.11890575 -0.6086198 0.18860693 -0.25963858 0.09626096 0.28662062 0.53185135 -0.14210589 -0.34575778 0.52787095 0.05109205 0.17727053 -0.118233904 -0.36913458 -0.24655429 -0.6291457 0.8585171 -0.47519192 -0.33563647 0.14135303 0.2517347
1687 -0.2658407 -0.26554832 -0.22833306 -0.21843494 0.021787308 -0.36963618 0.011718484 -0.021477763 0.56355554 0.083307885 -0.3533015 -0.19440243 -0.049063142 -0.6157912 -0.01173879 -0.18638508 0.16690697 0.30277628 0.24256106 -0.07565981 0.50429904 0.5074308 0.2866091 -0.066424124 -0.35747534 -0.1541629 -0.50175214 0.06862535 0.16958052 -0.22992031 0.1323998 -0.22214444 0.46007738 0.23044161 -0.09552338 0.0031328402 0.3398815 -0.0045677484 -0.21264161 0.044727746 0.6010798 -0.028306779 0.4982172 0.47358787 0.32393965 -0.14990142 -0.17177066 0.26679564 -0.120394014 -0.12184312 0.24453753 0.43597624 0.5709868 -0.2920829 -0.124554045 0.4084271 -0.2975275 0.05641653 -0.11848274 -0.14106694 0.09999284 0.050609928 -0.2419451 -0.669347 0.3646869 -0.063918084 -0.105159305 -0.10043006 -0.20278637 0.24649405 -0.31829786 0.2117478 -0.517067 -0.2601086 0.028677613 -0.28004324 0.41920027 0.052056096 0.047302827 -0.23198226 -0.19646142 0.015705995 -0.23710988 0.3427306 0.45450637 0.0825811 0.21982776 0.35530975 -0.12762989 -0.0065924455 0.1744026 0.46980366 0.6581943 -0.39507824 -0.33738372 -0.11897479 0.3951293 0.48600027 0.14525011 0.2706952 -0.054133676 -0.3964748 0.32352853 -0.19849381 -0.4178178 -0.07818058 -0.20270787 -0.08753735 0.019447792 0.27746263 0.25000033 0.39231664 -0.0777045 0.027443623 0.007135244 -0.4737356 -0.27712867 -0.4312606 0.55569416 -0.25583 -0.33797833 0.10250429 -0.0006258436 -0.51077473 0.077511154 0.07825406 -0.33770514 0.27661565
2220 0.4052052 -0.20561837 0.028912067 -0.24863519 0.17775616 -0.21198991 -0.16755086 -0.4007588 0.46938127 -0.28243884 0.19192982 -0.64489895 -0.30826265 -0.1364587 0.32967287 -0.27995354 -0.39210197 -0.22328721 -0.354232 0.1504761 0.123344526 0.5536409 0.46603662 -0.06556665 0.16388413 0.15089944 -0.35420746 0.020814653 -0.6678885 0.108099476 0.35820308 -0.24245624 -0.008559657 0.23971537 -0.14001855 -0.26334217 0.17595717 0.58363205 0.52273077 0.35727876 0.096006066 0.1845805 -0.28327903 0.19473626 -0.47576123 -0.21716459 0.25115946 0.109407954 0.20289621 0.111561105 0.018535208 0.0063462667 0.9291695 -0.30481455 -0.060698133 0.23685525 0.052262228 -0.1790372 -0.17845756 -0.029481422 0.06876551 0.23431551 -0.28710717 -0.29580465 -0.12158073 0.06969248 0.020513171 -0.2209096 -0.550354 -0.16738668 -0.07952115 0.55837774 -0.09224328 0.48629522 -0.060424887 0.3262794 0.1517699 0.086879596 0.40159997 -0.116907716 0.05304436 -0.02669457 -0.05147268 0.30951202 0.43652022 -0.41263345 0.6847605 -0.22829945 -0.55327594 -0.31172785 -0.24358244 0.49779892 0.6453246 -0.07351907 -0.24365756 -0.5816791 0.13506114 0.018603394 -0.4586393 0.30954155 0.2264551 -0.12002889 0.52206075 -0.2542532 0.014043713 -0.49025285 0.021686776 -0.40720093 -0.75298524 0.27300805 1.2866195e-05 0.32015422 -0.1420232 0.16615756 -0.13843808 -0.6542631 -0.007004061 -0.07343806 0.56631094 0.02651642 0.07588818 0.43650177 0.059551075 0.2713575 0.88237107 -0.09821055 0.46668756 0.04206837
1595 0.007800645 -0.35648197 -0.10347655 -0.12960361 -0.008297847 -0.38242787 0.38869917 0.26533258 0.1400662 -0.03841233 0.052502815 0.078213915 -0.23294967 -0.35195515 -0.21888731 0.5941954 -0.29625577 0.10529356 0.30246717 0.20727006 -0.4044146 -0.37020165 -0.2813291 -0.29646078 -0.2709331 0.072507225 0.4543275 -0.15012674 0.47131455 0.2922096 0.14344488 0.36503178 0.4466712 0.04406837 -0.0899796 0.15848893 -0.018743644 -0.5169594 -0.081746764 0.34151998 -0.19691154 0.28306013 0.14058267 0.747809 -0.12361776 0.49077305 0.34883335 -0.1188601 0.2629387 -0.044208616 0.41149482 -0.42721573 0.8285371 -0.24274522 -0.6367596 -0.10492841 0.21441558 0.45621604 0.19827285 0.40631625 -0.24516304 0.26133266 -0.14131033 -0.17756015 0.2990733 -0.3290265 -0.22874618 -0.02301479 -0.24592508 -0.44438368 -0.36462352 -0.1980294 -0.12464141 0.52043843 -0.12753755 -0.1164976 0.942584 0.4038812 0.5852586 -0.29787704 -0.10210907 0.31004202 -0.5617485 0.31740105 -0.14604513 -0.6976487 0.3573985 0.18358557 -0.17487197 0.40991163 -0.73145735 0.40034628 0.28443074 0.30942836 -0.28441525 -0.19436482 0.3439876 -0.22520503 -0.47396964 0.42762408 0.043068025 -0.14716871 0.5338474 0.06761216 0.020135434 -0.018019577 0.53819454 -0.11846038 -0.19496337 0.012101748 -0.07572511 -0.53250295 0.08953043 0.17516658 -0.12623094 -0.15896587 0.32164583 0.11802813 -0.1318656 -0.44238764 -0.1726247 -0.24132136 -0.4242672 -0.2673178 -0.045237187 -0.28211102 -0.020496285 0.16701865
809 0.35789254 -0.40459135 -0.0099147735 0.17232291 0.5903314 -0.14309464 -0.48634127 -0.86442846 0.3272324 0.07652405 0.57009184 -0.7738026 -0.45061252 -0.40668628 -0.4454735 -0.14169951 -0.32383987 0.039065607 0.5912548 0.21963473 0.5767713 0.11197223 0.73076683 -0.51962566 0.010504656 -0.23361178 -0.09321409 0.05931623 0.17446974 0.06534165 0.0114749195 -0.9470409 -0.54655164 0.5626333 -0.5464079 0.4242224 0.06251423 -0.7444943 -0.013291628 0.37698197 -0.14271902 0.00707558 0.6067713 0.131274 -0.10438084 -0.52886164 -0.2261337 -0.033521503 0.12171319 -0.060723312 -0.14518352 -0.102413744 0.950499 0.18699667 0.11602278 0.3122617 0.44045976 0.3714282 -0.22644116 -0.2602191 0.6791629 -0.031180361 0.5118536 -0.06514801 0.25816125 -0.22536373 -0.23013411 0.04681952 0.33720168 -0.78289104 0.6576376 0.8470075 -1.3882093 0.49324596 0.3899001 0.31405646 0.6289104 0.3874244 -0.3089661 0.23950809 -0.21741708 -0.46474713 -0.13380979 0.6408391 0.058083076 -1.1490128 0.03665512 -0.31389022 0.24925081 -0.14369902 -0.39097863 0.25748724 0.44481117 0.34302446 -0.6470907 0.37445226 -0.14074753 0.20227972 -0.79984343 0.36094078 -0.5312322 -0.060328834 0.48728362 -0.23313646 -0.34067926 -0.14602858 -0.08337128 -0.7118805 -0.4798489 0.47037864 -0.1227937 0.50937 0.41685644 -0.087019674 -0.07573326 -0.29002592 0.0950706 -0.20566902 -0.42436075 -0.26793498 0.129257 -0.15361685 -0.0806661 0.13451195 0.0864795 -0.06279225 -0.25913525 0.4647299
1335 0.2755669 -0.64665407 -0.75349474 0.05863515 0.29691124 -0.25516248 0.07895711 0.10073352 0.54998744 -0.32258478 0.25361794 -0.101019554 -0.26948535 -0.2962271 -0.57039326 0.10160544 -0.10450746 0.16451265 0.10197262 0.2673155 -0.00909927 -0.17597033 -0.083397314 -0.23876536 -0.29690763 -0.098535344 0.030546108 0.11119249 0.30279148 0.29383242 0.20924762 -0.37022865 0.6465403 0.13332705 -0.0725348 -0.03466115 -0.21507284 -0.5064921 0.37709084 0.034180198 0.002042033 0.17805251 0.36622432 0.6398252 -0.5639509 0.19094533 0.54234785 0.048783276 0.21005176 0.035529587 -0.083081245 0.2157353 0.63016737 0.16218978 0.5848496 0.08111263 0.10848078 -0.14884363 -0.27755713 -0.25433645 -0.0028576371 0.14237876 -0.02967988 -0.51191765 0.2800094 0.07310743 -0.51027757 0.30164176 -0.40975586 -0.10220588 -0.015813412 -0.03184135 -0.59524316 0.33135128 0.18843804 0.50861436 0.12414375 -0.087138265 -0.3911101 0.2291171 0.12976496 0.43680444 0.010211572 -0.42037997 -0.3161544 -0.0019934594 0.07792322 0.6157049 -0.23159154 -0.47205165 -0.21584165 0.06712966 0.2474994 0.44769537 -0.33541566 0.054099172 0.0780992 -0.46254098 -0.25905764 0.18860225 0.08233296 -0.12917595 0.17147459 0.42992064 0.08601858 0.443775 0.36100176 0.3292822 -0.18803783 0.15815413 -0.47292003 -0.16846755 -0.009224576 -0.1635305 0.109490484 -0.009890805 -0.011816671 -0.2536228 0.16671383 -0.36607084 -0.5211476 -0.37302607 -0.70002437 0.05717817 0.3611696 0.09250817 0.15981543 -0.07988901
