34 128
34 0.012264956 -0.14306091 0.034476906 0.094091676 0.007894159 -0.06952907 0.15420146 0.069494784 -0.11105397 -0.014257643 -0.15774761 -0.023670986 0.052965313 -0.1913105 -0.1173436 -0.104970165 0.061710615 -0.05824797 -0.036475826 0.069213144 0.1739411 -0.04783394 0.1766654 0.024831727 -0.039396554 -0.121314995 -0.13688655 0.034458883 -0.025630107 0.17537704 0.009262557 0.03942489 -0.09136703 -0.072570905 -0.36119404 -0.095587544 0.30736297 0.079533786 -0.011350097 -0.14777766 -0.26993734 0.105021656 0.1782444 0.20705563 -0.00064315146 0.13817166 0.07159168 -0.1498453 -0.14225169 0.059876956 0.07649224 0.18481253 0.038437832 0.057261817 -0.2746764 -0.024024174 -0.13468823 0.043904696 -0.031949162 0.20684087 0.12177878 -0.15400788 -0.042386852 0.27904153 0.100000806 -0.21804729 -0.073599085 0.055031676 0.018001068 -0.13196659 0.024731012 0.094204776 -0.045600705 0.027102388 -0.04685286 -0.058677386 0.09370036 0.089759246 0.019388352 0.1570138 -0.028307226 -0.17668638 -0.05809846 -0.1510831 -0.0009948042 0.332731 -0.12575258 0.04570047 -0.17093706 0.0018835374 0.10271445 0.062770255 0.07223256 -0.028428713 0.020303804 0.29417485 -0.14574826 -0.016553953 -0.015048078 -0.16810879 -0.20331973 0.11986227 -0.19112785 -0.08466045 0.035291173 0.056024827 0.21690579 0.007913861 0.043765455 0.019105721 0.07290731 -0.03829981 -0.08370529 -0.08401404 -0.048258573 -0.087594405 -0.14982347 0.17011102 -0.16057892 0.08763491 -0.13656797 -0.08243667 0.011351616 -0.22878562 0.013551348 0.13275993 0.08831392 0.09055704
1 0.014702938 -0.24292699 -0.003084261 0.05987846 -0.029225698 -0.12322097 0.08875463 0.21913473 0.13719842 -0.021135045 -0.09065764 0.15530719 0.060247537 -0.27964318 0.07587321 -0.23858505 0.0027920785 -0.22081983 -0.020560022 -0.045515936 0.25552785 -0.12671845 0.16533116 0.070255555 0.14159587 -0.09987794 -0.1290481 0.03847221 0.01756865 0.0436079 0.01682166 0.0146557605 -0.05441131 -0.04831842 -0.08414859 -0.0773687 0.117519915 0.059826214 -0.008884116 -0.08190444 -0.115365535 -0.0067183278 0.15124229 0.19373298 -0.1523702 0.13012725 0.118221834 -0.07887133 0.05270337 0.11033017 -0.12891409 0.13930361 -0.0157773 0.14936039 -0.19003667 -0.057033148 -0.039800283 0.061778042 -0.0039892145 0.047709543 0.155697 -0.1350421 0.05189101 0.15971878 -0.09564606 0.020577699 -0.11137318 0.09470602 -0.0002108043 -0.24070416 -0.10511314 0.07662789 -0.09435302 -0.034485005 0.19929972 0.04894668 0.1609442 0.028663954 -0.023454262 -0.12207571 -0.12334295 -0.016393222 -0.050741147 -0.008429573 -0.16156878 0.01863042 0.11342842 -0.037701048 0.017988484 0.043546867 0.13459325 -0.048398566 0.12619865 0.012193986 -0.09759082 0.08040131 0.0026829715 -0.1956524 0.041864086 0.06274358 -0.08105433 0.08302367 -0.17119129 -0.032224994 -0.074331835 0.035614006 0.0947693 0.037622705 -0.004070639 -0.056751333 0.035799205 0.079400726 -0.023424365 -0.010369765 -0.088422924 -0.0062405374 -0.053904247 0.10129707 -0.14235581 -0.026519181 -0.068829894 -0.026591878 0.13807248 -0.21107237 -0.19337428 -0.076139614 0.08236893 0.13707232
33 0.01602311 -0.16822487 0.023596881 0.09452361 0.0016556783 -0.085445814 0.13940062 0.11142257 -0.053524263 -0.014322208 -0.1361675 0.018047573 0.05205016 -0.2134742 -0.0706641 -0.12917128 0.04577331 -0.08167764 -0.036826063 0.048344847 0.1825596 -0.062190972 0.16182873 0.027220909 -0.0054669585 -0.10378324 -0.13222393 0.03659138 -0.006789264 0.15236379 0.004688098 0.037057415 -0.086013414 -0.05524641 -0.32218587 -0.1044875 0.2721911 0.07371331 -0.011340529 -0.13136244 -0.24181888 0.082646646 0.1750795 0.21108751 -0.036013365 0.14225571 0.07441793 -0.1444099 -0.110108174 0.06696009 0.026631882 0.17679435 0.03511607 0.07663274 -0.27538934 -0.023033649 -0.12003401 0.048241545 -0.022206636 0.18033458 0.14224641 -0.16995087 -0.02381907 0.27002892 0.06684731 -0.17566402 -0.07713859 0.06609109 0.015172434 -0.16069469 -0.0020712537 0.09387393 -0.053653345 0.014140546 0.0041692303 -0.025859168 0.12032962 0.07570145 0.016041482 0.09828359 -0.043232482 -0.15130536 -0.06430325 -0.12532005 -0.03754698 0.2723879 -0.075353056 0.026465004 -0.1284904 0.009124175 0.12547828 0.04122653 0.08244404 -0.02556812 -0.0038464514 0.25600362 -0.12416058 -0.059548687 0.000803995 -0.119371325 -0.18144694 0.101907894 -0.18828227 -0.06800954 0.019302879 0.044334624 0.18517362 0.013401523 0.033611856 -0.0025569375 0.06147203 -0.0144594675 -0.06865745 -0.08042579 -0.057918515 -0.06748426 -0.13266459 0.14612779 -0.1623661 0.059698116 -0.12440897 -0.07382775 0.042289652 -0.23191471 -0.027578237 0.081093326 0.09049113 0.09960894
3 0.012532777 -0.19501244 0.014237457 0.07161318 -0.016007917 -0.09810073 0.11528946 0.15639071 0.02927377 -0.018770074 -0.11433201 0.07793214 0.05254167 -0.24381076 -0.0046678684 -0.18189614 0.028771482 -0.15628403 -0.030525906 -0.0014327995 0.21976942 -0.09378952 0.16855043 0.05517473 0.07003756 -0.107311584 -0.13313442 0.040998783 0.005708775 0.09862795 0.012373074 0.019964505 -0.06940388 -0.053026624 -0.19339791 -0.08468561 0.19104165 0.068960555 -0.008720068 -0.10223333 -0.17532687 0.033407353 0.15858434 0.19898386 -0.088177316 0.13210644 0.10194904 -0.10917799 -0.03362635 0.08883567 -0.04073046 0.15095873 0.0030711885 0.108959936 -0.22347565 -0.04277419 -0.08053202 0.053095385 -0.015709834 0.11710422 0.13912538 -0.14020754 0.014835753 0.21280186 -0.012819412 -0.07907722 -0.0923384 0.082105175 0.0075552072 -0.20127171 -0.05039953 0.08765581 -0.076708645 -0.0076108417 0.10101017 0.005821785 0.13939269 0.053198975 -0.0035787856 -0.0075314166 -0.08294804 -0.07897663 -0.056008875 -0.06696515 -0.09398526 0.15181036 0.016209017 -0.0034659135 -0.062154435 0.024439545 0.11982624 -0.00075677 0.10036466 -0.004733948 -0.051798794 0.16983019 -0.061110683 -0.11792652 0.019565292 -0.031778213 -0.13139845 0.09429863 -0.1828125 -0.051511034 -0.02629605 0.046066653 0.14060606 0.023611302 0.018479094 -0.02830029 0.05366047 0.03255302 -0.046632912 -0.041131355 -0.06915 -0.036443036 -0.093819275 0.1293259 -0.14458407 0.020385554 -0.09815703 -0.052361015 0.08533061 -0.21926607 -0.1093622 0.009420082 0.08678299 0.11878757
2 0.021068886 -0.20030387 0.007171049 0.07006225 -0.017039089 -0.1003926 0.10999308 0.16612655 0.03887192 -0.020202374 -0.11516671 0.09334735 0.058526177 -0.24817759 0.00695444 -0.18800287 0.018564565 -0.150911 -0.029209763 -0.0024749008 0.22030818 -0.09405825 0.16516095 0.04995826 0.069112994 -0.10054954 -0.13126005 0.03790419 0.008124131 0.09170467 0.016685823 0.019124461 -0.07088793 -0.04880369 -0.18469924 -0.08050756 0.18469511 0.061703585 -0.006626763 -0.09962991 -0.16353016 0.034046702 0.15902515 0.19760965 -0.094513364 0.13015233 0.09458698 -0.1077322 -0.020714737 0.08339987 -0.051927783 0.14178923 0.007758033 0.114779875 -0.22174668 -0.041577462 -0.07183836 0.056696173 -0.014083966 0.108404845 0.1413921 -0.13893929 0.019462895 0.20081162 -0.019110154 -0.060001016 -0.09582633 0.0756342 0.0065518674 -0.19971488 -0.05843957 0.08487261 -0.07070929 -0.014419474 0.10733661 0.0165822 0.13691331 0.04875446 -0.0059544765 -0.019211624 -0.08675006 -0.07467086 -0.05873028 -0.058295794 -0.096729174 0.1358403 0.026448775 -0.009463283 -0.04572711 0.025929935 0.12520398 -0.0056617814 0.10057509 -0.0089789815 -0.05907216 0.15423322 -0.05551044 -0.1256413 0.016848689 -0.016186226 -0.1160482 0.08491579 -0.17033412 -0.050526317 -0.034049865 0.03578096 0.1349374 0.029219938 0.008790519 -0.03139862 0.04548732 0.037839506 -0.04329485 -0.042932715 -0.07333033 -0.03406832 -0.08927209 0.124822065 -0.15183486 0.016631067 -0.094750516 -0.05091972 0.09362492 -0.2216147 -0.113135286 -0.00027521944 0.09135181 0.118022636
4 0.018163005 -0.2049622 0.0009539928 0.06804307 -0.018621812 -0.10954382 0.09432072 0.18713501 0.07931119 -0.021792075 -0.09562892 0.11704081 0.057921767 -0.25386372 0.034737736 -0.20313367 0.013792186 -0.17859429 -0.02453477 -0.016145255 0.23080997 -0.10633606 0.15578948 0.05674333 0.100978725 -0.09710927 -0.13025679 0.039274514 0.013696816 0.06972509 0.01326896 0.013792673 -0.06311277 -0.048811644 -0.14003113 -0.07943776 0.15623756 0.06399217 -0.007778588 -0.08609291 -0.13534187 0.012847243 0.15214635 0.19371878 -0.11186874 0.1256766 0.10252673 -0.09647097 0.0034204156 0.08915851 -0.07719059 0.13324814 -0.001074774 0.12336598 -0.20088531 -0.044349235 -0.05549734 0.05514986 -0.006262773 0.07581928 0.14965056 -0.13903151 0.03418917 0.18306918 -0.045738265 -0.024518568 -0.10503018 0.08400304 0.006582938 -0.21136336 -0.075577915 0.08245635 -0.07804685 -0.026007734 0.14605261 0.027767923 0.14486624 0.04183445 -0.01485935 -0.05453291 -0.09542154 -0.051345408 -0.05326694 -0.03275317 -0.1192824 0.08341666 0.0669637 -0.023078606 -0.018055618 0.03347561 0.118398495 -0.026764309 0.106523804 -0.00040612114 -0.0743228 0.12705994 -0.03487541 -0.15218298 0.027099954 0.013551669 -0.10486648 0.08410386 -0.16324541 -0.036894735 -0.053536154 0.03718932 0.109981984 0.029797008 0.0037405808 -0.042595923 0.04575756 0.050669227 -0.035790738 -0.02924172 -0.075752184 -0.01868083 -0.07626544 0.1111949 -0.14163019 -0.0012716001 -0.08010074 -0.03863874 0.1050965 -0.2155888 -0.1463428 -0.030886224 0.08739649 0.12601954
32 0.014373223 -0.18933082 0.006556973 0.075803064 -0.013185818 -0.08943987 0.120240964 0.13782384 0.015224102 -0.016705334 -0.1174357 0.066584475 0.0497754 -0.22299568 -0.014520039 -0.16014384 0.027660327 -0.13598935 -0.03423128 0.008920512 0.20556004 -0.08148428 0.15871407 0.043629028 0.045996718 -0.11001654 -0.13253589 0.032527234 -0.0069807223 0.10314769 0.01472805 0.02524042 -0.0628267 -0.06340842 -0.21740037 -0.08338425 0.21144296 0.0740937 -0.016119022 -0.115375474 -0.19231066 0.052005462 0.15993682 0.19218077 -0.079195686 0.13708583 0.098521814 -0.10828895 -0.046512876 0.08181156 -0.028344903 0.16680738 0.00799307 0.1002651 -0.22918366 -0.044460543 -0.0869058 0.04876279 -0.012868114 0.12297595 0.14046371 -0.14189118 0.007256734 0.22140427 -0.0030712043 -0.09903911 -0.09437076 0.07752045 0.01123293 -0.18941471 -0.042783223 0.090541236 -0.07305132 -0.0053105857 0.07584247 -0.0017642578 0.123551555 0.058696985 -0.0070400857 0.015194859 -0.07444855 -0.088514924 -0.05042376 -0.07377301 -0.08341841 0.17183886 -0.0016977823 0.0046646013 -0.075637646 0.019351138 0.12170527 0.0070300973 0.102631755 -0.0057565337 -0.032635786 0.17994925 -0.06419832 -0.10892287 0.01024892 -0.054308254 -0.13446759 0.09509851 -0.18501422 -0.058311824 -0.01785329 0.044887025 0.15402359 0.018470582 0.020609211 -0.018645339 0.054160044 0.022208853 -0.052489646 -0.048343234 -0.064045586 -0.042327896 -0.10089031 0.12895176 -0.13981512 0.026650982 -0.09918306 -0.05534249 0.07735407 -0.21300723 -0.087331034 0.022954535 0.07727496 0.111061625
14 0.016279433 -0.20255601 0.009988993 0.06860237 -0.015434911 -0.09775045 0.10520201 0.16254789 0.047624648 -0.016099738 -0.11244479 0.09491673 0.052949697 -0.24238212 0.012206195 -0.18306899 0.020817386 -0.15651886 -0.02748266 -0.006899082 0.22107518 -0.0918618 0.15979859 0.0531752 0.07399396 -0.09843419 -0.1276089 0.038991608 0.0005228146 0.09202868 0.014988176 0.023242626 -0.0671183 -0.050430086 -0.17443472 -0.08513724 0.17945416 0.06449291 -0.012257145 -0.0991386 -0.16752438 0.031887624 0.15710913 0.19655035 -0.095279515 0.13340001 0.09776148 -0.10010775 -0.01967623 0.09045261 -0.05848731 0.14812005 0.0041088266 0.11516251 -0.21605256 -0.044655617 -0.07666606 0.0553739 -0.012869395 0.09860825 0.1456156 -0.14545877 0.023667173 0.19914244 -0.025099866 -0.0592028 -0.09205011 0.07637078 0.0078756455 -0.20082484 -0.061451614 0.08678893 -0.07822806 -0.010961546 0.114730984 0.01645347 0.13729696 0.04872866 -0.009755677 -0.02572634 -0.08574281 -0.0691304 -0.051793337 -0.051257037 -0.10686975 0.12951466 0.029987602 -0.01068649 -0.044775404 0.027153747 0.12312578 -0.01133735 0.103793874 -0.0047066677 -0.057948947 0.15507698 -0.051435176 -0.12764616 0.02344466 -0.016104478 -0.12076786 0.08694426 -0.17319983 -0.044599038 -0.037537467 0.039114643 0.13254671 0.028681831 0.008915633 -0.03385507 0.043438222 0.034926925 -0.046061274 -0.039680965 -0.06928293 -0.032935772 -0.091182716 0.118579976 -0.14718127 0.014734629 -0.09095984 -0.049241487 0.09497832 -0.21878107 -0.11540873 -0.0069916476 0.082701646 0.117719345
24 0.018001435 -0.16726393 0.018693782 0.08530622 -0.0066293594 -0.08095353 0.12872986 0.11276884 -0.02400268 -0.014958027 -0.123496875 0.036025725 0.05257991 -0.21231319 -0.048407722 -0.14044589 0.034785733 -0.109270036 -0.03286676 0.028496325 0.19652356 -0.07198001 0.16486391 0.041702 0.020454368 -0.110204175 -0.13670985 0.027819997 -0.015064985 0.13565756 0.0101464465 0.03201816 -0.07878424 -0.07023307 -0.27215922 -0.09205038 0.2542492 0.074172944 -0.015258529 -0.13268161 -0.2269387 0.075352736 0.17340744 0.2111091 -0.05607348 0.14972052 0.08925836 -0.12693593 -0.08106279 0.076587915 0.006481575 0.18167157 0.017370293 0.08906725 -0.24945414 -0.034421116 -0.10205611 0.047462955 -0.020253275 0.15440014 0.14169456 -0.15435852 -0.0049832175 0.24998611 0.030015893 -0.1444556 -0.089461304 0.07251957 0.011757044 -0.17241944 -0.019307926 0.0961505 -0.0715888 0.0065487493 0.03927162 -0.020317722 0.11701264 0.06827996 0.0010675568 0.066892244 -0.056595936 -0.118301384 -0.05764111 -0.09990421 -0.062029313 0.22734244 -0.047155075 0.02070735 -0.10860392 0.01484097 0.121754766 0.025472343 0.09789649 -0.012653457 -0.014876623 0.2270176 -0.09103192 -0.081025414 0.002530498 -0.09084497 -0.16308238 0.106128156 -0.1872899 -0.064081825 -0.0023762342 0.047664206 0.17586799 0.016950581 0.031913176 -0.005425287 0.06298972 0.0011581838 -0.06551699 -0.067467764 -0.067646794 -0.060055636 -0.12208802 0.14167671 -0.15134645 0.051734228 -0.11454535 -0.06764093 0.060871527 -0.23093762 -0.05545047 0.063030526 0.08568975 0.1086208
6 0.020770373 -0.24347445 -0.009781321 0.07123781 -0.03230186 -0.11339779 0.09624682 0.2158938 0.14596298 -0.02216252 -0.08339274 0.15800431 0.054016657 -0.27538162 0.08660337 -0.22693047 -0.0061134533 -0.2289316 -0.026606115 -0.051489968 0.2520556 -0.13304256 0.1632788 0.06325957 0.1485495 -0.11316678 -0.13862537 0.017666489 0.009270339 0.05448218 0.027729545 0.015541157 -0.04955096 -0.06565986 -0.08944148 -0.07991619 0.13684432 0.07203425 -0.027549872 -0.092800505 -0.13517222 0.005009869 0.16565816 0.19909042 -0.1684277 0.14645158 0.1367462 -0.08848401 0.054095 0.12467097 -0.13588113 0.16896085 -0.022532724 0.1537587 -0.19819987 -0.07198529 -0.046562657 0.05738379 0.012406291 0.04536781 0.17460907 -0.13644186 0.059190836 0.1770352 -0.09905116 0.010036392 -0.12008612 0.09956316 0.0028596905 -0.25538003 -0.10590755 0.0861794 -0.11230635 -0.02784735 0.20800866 0.050503522 0.15649177 0.038625043 -0.03384854 -0.12522772 -0.12574211 -0.00037980144 -0.044855516 -0.0011394308 -0.16068093 0.008996631 0.12072142 -0.036981773 0.01236477 0.0467474 0.14481384 -0.04577913 0.13879688 0.02484869 -0.095277786 0.0867668 0.016277527 -0.20992602 0.04446492 0.06230307 -0.07460713 0.08006604 -0.18483403 -0.032636564 -0.08469592 0.030959647 0.09184601 0.0401394 0.0069784713 -0.05676789 0.043369897 0.09262623 -0.025232438 -0.014146975 -0.08925406 0.0016799986 -0.05073911 0.0924525 -0.13447545 -0.025701353 -0.062149357 -0.024818853 0.15403758 -0.21313092 -0.20691879 -0.07472088 0.08463277 0.1311604
7 0.02439064 -0.24595413 -0.013046581 0.06529848 -0.035110693 -0.11579507 0.09497202 0.21891004 0.14505309 -0.023392446 -0.092562884 0.16030383 0.058220863 -0.2835691 0.08599221 -0.23313299 -0.0024997187 -0.22574338 -0.030146651 -0.04892517 0.25923103 -0.13149287 0.16741978 0.07060381 0.14666896 -0.112036414 -0.14231195 0.025458552 0.0072247176 0.04862728 0.028149549 0.01974399 -0.05613734 -0.065399416 -0.09144577 -0.079974726 0.13382764 0.06456736 -0.02202079 -0.09019853 -0.13261104 0.0023625065 0.16251054 0.20433617 -0.16085795 0.14583355 0.13187069 -0.084150836 0.05166481 0.12021353 -0.13618064 0.16346382 -0.017777188 0.15668164 -0.20345423 -0.06580277 -0.046485696 0.058694556 0.00900065 0.052885253 0.17096347 -0.14016117 0.059841983 0.17781518 -0.098306455 0.0155931255 -0.11760383 0.10199069 0.007108993 -0.25633177 -0.11045419 0.090741046 -0.11092395 -0.03200042 0.20784973 0.05153185 0.15716925 0.036816992 -0.03131029 -0.12598118 -0.12325058 -0.0041678017 -0.050067525 -0.00017011544 -0.16632774 0.016149292 0.11457688 -0.035522148 0.010518647 0.049319245 0.1459396 -0.049954467 0.13837686 0.017987726 -0.09689343 0.08971696 0.011553895 -0.20928428 0.039120995 0.061675232 -0.082763836 0.08558572 -0.18922819 -0.035469245 -0.08336109 0.028358126 0.096236534 0.037732173 0.0059196283 -0.05755827 0.042112466 0.09186547 -0.029849257 -0.01991345 -0.09203462 -0.0056897774 -0.05974771 0.09786563 -0.14547417 -0.020351158 -0.07060316 -0.023075191 0.15446822 -0.21631925 -0.20418374 -0.07750882 0.08734279 0.14119838
8 0.018204063 -0.21768618 0.0008026303 0.06480107 -0.025402926 -0.10818357 0.0939234 0.1904336 0.09439962 -0.016523402 -0.094577886 0.12669979 0.05180839 -0.2532397 0.052194074 -0.2080325 0.009156787 -0.18006068 -0.019461181 -0.023452219 0.22655691 -0.10848815 0.15203345 0.05461106 0.108707204 -0.08783965 -0.12204549 0.038426038 0.012871032 0.06362117 0.013938544 0.017017042 -0.05854738 -0.040978868 -0.12141656 -0.07823922 0.14393763 0.057718698 -0.0051433234 -0.07872057 -0.1305997 0.010659244 0.14454702 0.19347319 -0.12213123 0.13205579 0.10167007 -0.090339825 0.015748268 0.09701434 -0.09862639 0.13305366 0.00024916077 0.13278106 -0.20570411 -0.048281368 -0.055253774 0.05319111 -0.008180914 0.0669436 0.14810349 -0.14125866 0.037871074 0.1787941 -0.058677685 -0.015216839 -0.09416323 0.080272876 0.00621384 -0.21137454 -0.08559879 0.075321585 -0.08709657 -0.02458453 0.15786816 0.039295223 0.14703627 0.036607817 -0.014434377 -0.07594063 -0.1001147 -0.04222325 -0.056230854 -0.027471373 -0.13571104 0.07023789 0.07961047 -0.02520971 -0.009547926 0.03200633 0.13075376 -0.034154747 0.110797614 0.001680511 -0.08003255 0.104015045 -0.021287292 -0.16106896 0.026371164 0.02785837 -0.085850716 0.07084989 -0.16311795 -0.035301063 -0.051609226 0.026936589 0.09892304 0.024621386 0.0017011683 -0.048793714 0.032858998 0.06077763 -0.027452275 -0.025468815 -0.08115285 -0.0113816885 -0.066391855 0.10188288 -0.14155741 -0.008302435 -0.08081502 -0.0406249 0.122150615 -0.21004789 -0.15446357 -0.049737148 0.085383676 0.12292649
28 0.0130463 -0.16966033 0.017782785 0.081360124 -0.008385019 -0.07311646 0.12845401 0.10553506 -0.025344467 -0.014663069 -0.119732894 0.035737436 0.04585511 -0.1968592 -0.04802404 -0.13131507 0.034862872 -0.105880424 -0.03138769 0.028626392 0.1819337 -0.07000264 0.15552618 0.03567146 0.01558323 -0.10790168 -0.13120231 0.026780974 -0.012673345 0.12568004 0.012817509 0.033107053 -0.06806828 -0.065917 -0.26281402 -0.09254415 0.24600993 0.0758685 -0.015260797 -0.12698275 -0.22228019 0.06853762 0.16943295 0.20393337 -0.06079379 0.14351243 0.08760091 -0.12545884 -0.08165908 0.07682635 -0.0008544752 0.1825578 0.02228348 0.08165027 -0.24602969 -0.038467523 -0.10586249 0.0424857 -0.021001944 0.15277524 0.1360006 -0.15192273 -0.0035010516 0.24634059 0.031749405 -0.14170446 -0.08683382 0.072413765 0.01017149 -0.1719701 -0.021092568 0.0930831 -0.07176314 0.0037112513 0.03507159 -0.019036496 0.11184297 0.07023748 -0.0036289261 0.06335731 -0.060618453 -0.11858484 -0.054096363 -0.09570685 -0.060939267 0.2251373 -0.043397594 0.02249154 -0.10828659 0.015623033 0.12455195 0.022874225 0.09351282 -0.011086596 -0.00946216 0.2153739 -0.08812004 -0.08029968 0.0030985943 -0.09135777 -0.15814422 0.1054046 -0.19176133 -0.06799432 0.0014963932 0.046762694 0.17560406 0.01700031 0.033380173 -0.008965341 0.060560845 0.006362873 -0.0663944 -0.06457086 -0.061271135 -0.060187515 -0.11860456 0.13433288 -0.14598164 0.043599766 -0.11098447 -0.06184407 0.061152227 -0.21355031 -0.058414016 0.055279054 0.08249355 0.102824144
9 0.015671752 -0.17667805 0.012598525 0.07704715 -0.008177438 -0.08665851 0.121006 0.12932989 -0.004002532 -0.018072782 -0.12260815 0.05440616 0.05233958 -0.22059068 -0.0343043 -0.15013936 0.028766003 -0.11533251 -0.03306923 0.022044163 0.19316994 -0.07239715 0.16305701 0.038188305 0.030223465 -0.10197353 -0.13271031 0.029581929 -0.008047318 0.12197247 0.013074723 0.032335643 -0.07741028 -0.06386121 -0.24310586 -0.091453806 0.23073584 0.06950576 -0.015555666 -0.11692357 -0.20721115 0.055444065 0.16578455 0.2015653 -0.06243868 0.1318432 0.08633794 -0.120181054 -0.066236876 0.07217903 -0.011823697 0.16192542 0.0127929775 0.09082372 -0.2285624 -0.035818677 -0.09437025 0.048200227 -0.01744094 0.1335728 0.13695616 -0.14543298 -0.0031038758 0.22749412 0.022275379 -0.11839256 -0.08411093 0.07026847 0.009088322 -0.17467731 -0.026444416 0.09165862 -0.061106913 -0.00036875033 0.056911517 -0.012875168 0.11790334 0.06586225 -0.0022219045 0.04336839 -0.057518367 -0.10486881 -0.057025984 -0.091051824 -0.06568354 0.19506519 -0.025768157 0.01010088 -0.09052655 0.018119771 0.11782192 0.01621527 0.0950182 -0.008315154 -0.028542835 0.19678725 -0.0805078 -0.08727028 0.007839877 -0.06772351 -0.14983033 0.09271446 -0.17804371 -0.057655133 -0.008534486 0.043100342 0.15535584 0.02357953 0.020237751 -0.016586544 0.057615526 0.010587794 -0.054991 -0.060315605 -0.062337033 -0.05226358 -0.11250941 0.13629864 -0.14897348 0.043397203 -0.10605948 -0.06088629 0.06043559 -0.21834771 -0.06924909 0.047276698 0.082891785 0.10613063
30 0.019908812 -0.16406758 0.015569341 0.086446784 -0.00859864 -0.07457233 0.12970237 0.1034312 -0.03712036 -0.014507882 -0.1320165 0.027617317 0.04827258 -0.20541486 -0.05709564 -0.13334009 0.038687855 -0.09521328 -0.036224823 0.03822446 0.18265511 -0.06782055 0.16196777 0.029776689 0.01101642 -0.10809867 -0.12636995 0.029245961 -0.017911915 0.1349506 0.01025983 0.028484572 -0.07499465 -0.06680979 -0.27412805 -0.08507718 0.24939834 0.07363388 -0.011881408 -0.12876044 -0.22008991 0.07388456 0.16927382 0.20512918 -0.043180186 0.13638422 0.08060098 -0.12877451 -0.087612584 0.07170123 0.01417187 0.17159563 0.024463056 0.07494561 -0.24101447 -0.030748043 -0.10944419 0.047259808 -0.018507514 0.15612458 0.13217345 -0.1509643 -0.006740298 0.24345586 0.047312025 -0.14875624 -0.08447823 0.06427067 0.015558508 -0.16230167 -0.009876586 0.09037071 -0.060585145 0.00827038 0.024809178 -0.026002854 0.10876974 0.07296583 0.004831414 0.07899915 -0.053290844 -0.1246575 -0.059646882 -0.10412283 -0.046103816 0.23455109 -0.058303908 0.02343936 -0.11414925 0.014213035 0.117855385 0.02490378 0.08557792 -0.0121768415 -0.006526675 0.22241993 -0.099575825 -0.06374837 0.00044692497 -0.09912481 -0.1534377 0.10108696 -0.18007237 -0.06930164 0.0026567308 0.043315567 0.17289628 0.016748287 0.026969539 -0.005035196 0.057223286 -0.0069391234 -0.06785525 -0.06930096 -0.053971633 -0.062094256 -0.1241135 0.13779463 -0.14954953 0.05786793 -0.11557905 -0.06352789 0.04970571 -0.21297003 -0.0390201 0.06932401 0.08789043 0.09853909
5 0.019242495 -0.2334301 -0.011262593 0.068943344 -0.024331609 -0.10979955 0.10038151 0.19219656 0.12005146 -0.024200208 -0.08831854 0.14011185 0.05062124 -0.2596736 0.06490076 -0.21489364 -3.620157e-05 -0.20296063 -0.02808258 -0.033633795 0.23952061 -0.11412995 0.1544674 0.06483701 0.123213574 -0.11141974 -0.13399222 0.01980466 0.0033462725 0.060956102 0.022485405 0.018029092 -0.057849243 -0.061248347 -0.113229565 -0.08271703 0.15349501 0.0706951 -0.02253999 -0.09354806 -0.13892056 0.013918033 0.15874779 0.19761287 -0.14595093 0.14186624 0.12423706 -0.08979977 0.029750112 0.10977171 -0.111572996 0.16635399 -0.00811852 0.13664128 -0.20266923 -0.065938495 -0.05101979 0.05492023 0.0066468418 0.059724685 0.15793632 -0.13814506 0.049436275 0.18274316 -0.07985245 -0.009132841 -0.107370846 0.090274505 0.009549061 -0.23576167 -0.09393264 0.08570521 -0.10229728 -0.027628528 0.17596965 0.03625083 0.14289328 0.035970706 -0.028288241 -0.096967794 -0.11341445 -0.020914452 -0.049365014 -0.017907651 -0.14703695 0.041630484 0.09266925 -0.023850048 -0.0048999633 0.040628523 0.14070854 -0.03781865 0.12904187 0.016278943 -0.08496933 0.10612215 -0.0072949817 -0.18506537 0.038132083 0.043311108 -0.094342515 0.08439868 -0.18280883 -0.042127904 -0.07273008 0.029482506 0.106146775 0.032258358 0.005253598 -0.04979342 0.040605795 0.07501087 -0.031276263 -0.027524494 -0.08745445 -0.008493025 -0.0614034 0.1022386 -0.13437432 -0.0106051685 -0.07201962 -0.028139409 0.13594171 -0.21547061 -0.17917551 -0.051876213 0.07863302 0.13142775
11 0.0193266 -0.25866017 -0.008916655 0.069280066 -0.030791644 -0.12317971 0.09396482 0.22886926 0.14584108 -0.02695959 -0.09698936 0.16437224 0.058255058 -0.28868157 0.08725492 -0.24467085 -0.0045835427 -0.22737531 -0.027607081 -0.05214 0.26708665 -0.13289335 0.17172717 0.07141725 0.14431722 -0.11262702 -0.14142115 0.030258862 0.0069046887 0.045861043 0.02757872 0.01567169 -0.052134495 -0.06397813 -0.08299402 -0.073798805 0.13773319 0.06880833 -0.018516662 -0.08177332 -0.12074013 0.0037348366 0.16394165 0.20031555 -0.16041699 0.14375608 0.13197185 -0.07903678 0.04901338 0.11843138 -0.13235828 0.15676197 -0.015983194 0.15501669 -0.20143288 -0.07002643 -0.045485564 0.062939025 -0.00010849295 0.051556654 0.16502793 -0.13843071 0.06356386 0.17203173 -0.10049904 0.02051508 -0.12070019 0.09466449 0.009703429 -0.25296068 -0.10913622 0.0862179 -0.10844766 -0.035633005 0.20993875 0.052968174 0.15804046 0.030013297 -0.03370554 -0.12528755 -0.12246811 -0.002652379 -0.051207446 -0.0034806603 -0.16961521 0.016775215 0.12148438 -0.036139466 0.013569536 0.048953455 0.14283049 -0.054370563 0.13442662 0.019820238 -0.09582989 0.07872522 0.011789288 -0.20407137 0.0378246 0.068954535 -0.074929215 0.08629649 -0.18310228 -0.03315908 -0.085046224 0.029513162 0.09859625 0.033474933 0.002574159 -0.062213443 0.03894641 0.09069725 -0.03317085 -0.019788338 -0.09044963 -0.008021597 -0.061692618 0.1015922 -0.14243907 -0.02473077 -0.067727566 -0.028877784 0.15532652 -0.2217515 -0.20185807 -0.08152528 0.08114795 0.13805978
31 0.018556764 -0.1846544 0.015283445 0.07986121 -0.010795924 -0.094904944 0.12066907 0.13492545 -0.0005307546 -0.017180026 -0.1201466 0.06558015 0.0561955 -0.23003922 -0.025128841 -0.16415493 0.025178965 -0.12501588 -0.02936715 0.01593902 0.20747924 -0.08220679 0.16013254 0.047268234 0.040395506 -0.104358785 -0.13052982 0.038418595 -0.004732374 0.11585006 0.009991804 0.030630872 -0.07760317 -0.056653235 -0.2335406 -0.085761204 0.22206265 0.069098465 -0.007917569 -0.12055597 -0.19789647 0.057061244 0.16460048 0.20095825 -0.06970876 0.13777515 0.08684323 -0.12051106 -0.058807272 0.079394825 -0.022393083 0.16336446 0.014756133 0.09373616 -0.2333927 -0.038389158 -0.08792952 0.047644038 -0.021792691 0.129522 0.14466132 -0.15075319 0.000271718 0.22575802 0.00892908 -0.110545255 -0.094398476 0.071298614 0.008581651 -0.18352482 -0.03577381 0.08837744 -0.06851971 -0.0026444332 0.06992059 -0.0050654295 0.1327011 0.06052374 0.0023307381 0.03270505 -0.06749757 -0.10292112 -0.059323166 -0.08688396 -0.07494664 0.19024652 -0.017799543 0.0034626941 -0.08347003 0.015890805 0.11997643 0.013530369 0.0997607 -0.011538498 -0.036834586 0.19364823 -0.08169382 -0.09878568 0.009301524 -0.057437677 -0.14827736 0.09523723 -0.17898135 -0.06087682 -0.015233146 0.044386696 0.15925914 0.023374785 0.023651991 -0.018372154 0.052009318 0.011905255 -0.05986343 -0.060642377 -0.06550552 -0.046790417 -0.11270156 0.13746057 -0.15525478 0.037913 -0.110094994 -0.062160894 0.0696104 -0.2308441 -0.08017081 0.0372161 0.08236056 0.11112205
26 0.01790197 -0.15282564 0.018568026 0.07635104 -0.0051413504 -0.077690884 0.12609105 0.10037982 -0.036271047 -0.016096275 -0.12481069 0.023833292 0.05129801 -0.19866823 -0.05431213 -0.12583867 0.039332736 -0.09634518 -0.032286126 0.034234036 0.18267712 -0.06452493 0.15838023 0.037398938 0.01006052 -0.10615727 -0.12969325 0.026857154 -0.016258033 0.13195789 0.013157254 0.030733993 -0.07049707 -0.06899358 -0.27185246 -0.09077005 0.24313697 0.06994806 -0.0145156225 -0.12654439 -0.21824074 0.06643608 0.1575143 0.19442368 -0.047344174 0.1414817 0.07833946 -0.12152584 -0.084032126 0.074616574 0.014464389 0.16968063 0.01886241 0.0740398 -0.23634297 -0.032029245 -0.0983036 0.04437483 -0.024196936 0.15222557 0.12814033 -0.14361814 -0.0089485785 0.23592407 0.038480498 -0.14073431 -0.077571005 0.062017985 0.011734156 -0.1569265 -0.013362872 0.08675312 -0.06292072 0.00719859 0.029144276 -0.026382627 0.105159126 0.06757625 0.003361992 0.067350835 -0.05564659 -0.11707814 -0.05311878 -0.09942619 -0.048522346 0.22890018 -0.054386307 0.020021932 -0.109997876 0.010121875 0.114210024 0.02703489 0.09048286 -0.008614052 -0.007993831 0.21348901 -0.094045505 -0.06872522 0.005000789 -0.09629483 -0.15401115 0.09908198 -0.17778574 -0.060982 0.0071062874 0.046602666 0.17197488 0.015053762 0.03535255 -9.6321426e-05 0.053525377 -0.0032840122 -0.060896683 -0.0605646 -0.056472294 -0.058230847 -0.113587506 0.1322357 -0.13861157 0.043987494 -0.11030045 -0.064908646 0.046610497 -0.21557637 -0.044085924 0.06765779 0.07747112 0.09258405
29 0.01566414 -0.18842994 0.009418964 0.076469846 -0.009223073 -0.09503198 0.12088635 0.13895713 0.0092060855 -0.016731251 -0.1174548 0.06782295 0.05069314 -0.22762693 -0.020636452 -0.16325286 0.024407987 -0.13323814 -0.02889483 0.012167517 0.20730545 -0.08424126 0.15861809 0.04326394 0.041916255 -0.10939764 -0.13427392 0.03166503 -0.00037482235 0.11484605 0.017054068 0.026187386 -0.07082221 -0.060524963 -0.23069565 -0.08710948 0.22079156 0.071793206 -0.010960575 -0.1177762 -0.19246241 0.05425782 0.16097392 0.19694424 -0.07261204 0.14093 0.09181276 -0.11833842 -0.055666514 0.081990905 -0.02531627 0.16255821 0.010145513 0.09922364 -0.23944044 -0.03645051 -0.08436603 0.053475965 -0.012756628 0.13129647 0.14475915 -0.15143132 0.0025901827 0.22732273 0.0034794738 -0.105914615 -0.09459427 0.074144855 0.013174224 -0.18151343 -0.04140296 0.09001721 -0.07317709 -0.00093431 0.07236896 0.00010096756 0.13268265 0.061357457 -0.0010287442 0.022499999 -0.074558586 -0.09396 -0.05410483 -0.08335258 -0.0775629 0.18211946 -0.0056677423 0.001319696 -0.0794944 0.016630152 0.12281339 0.0066847946 0.098184444 -0.007403072 -0.03338125 0.19406478 -0.076682694 -0.102796055 0.011800019 -0.058128227 -0.14582658 0.09826314 -0.18253285 -0.05721454 -0.015738962 0.042144164 0.15134068 0.018456621 0.023736719 -0.017918486 0.056256104 0.021180522 -0.057864815 -0.056857333 -0.07065135 -0.04958119 -0.1064298 0.12875846 -0.14628108 0.031244932 -0.105100974 -0.056748305 0.07246379 -0.22535075 -0.084835105 0.032784116 0.08388525 0.1083952
25 0.01189653 -0.16607675 0.01114919 0.073661864 -0.0129023595 -0.07975374 0.116689466 0.109900974 -0.008035971 -0.015694773 -0.11846814 0.04029526 0.04760783 -0.19955777 -0.037260763 -0.14239864 0.03271384 -0.11217394 -0.028631337 0.024453275 0.19014697 -0.07267556 0.15651938 0.04237643 0.027397968 -0.109291516 -0.12554368 0.027520774 -0.016014703 0.11816889 0.014514038 0.02836305 -0.06641281 -0.067866474 -0.24092469 -0.08169542 0.22063676 0.07387751 -0.01677243 -0.11999601 -0.20623416 0.06445839 0.15620022 0.18806545 -0.055048116 0.13952164 0.08906943 -0.11052007 -0.06505259 0.07546165 -0.008987876 0.16891 0.017431466 0.084342115 -0.23012352 -0.03793216 -0.089842826 0.040177025 -0.01719959 0.1404956 0.12810189 -0.1372081 0.0014357588 0.222742 0.017650364 -0.1241319 -0.08462979 0.07070678 0.00813649 -0.16701488 -0.02524894 0.08493 -0.06529838 0.00516233 0.046387132 -0.01880035 0.11137447 0.06498941 0.00091555296 0.045394946 -0.060286876 -0.10622434 -0.053152904 -0.09207578 -0.06615874 0.2001543 -0.03054737 0.010079195 -0.100397244 0.0119360555 0.11491841 0.016330056 0.094732456 -0.011083835 -0.020438818 0.19879597 -0.07864823 -0.084710024 0.006766303 -0.07310077 -0.14873585 0.09860587 -0.18045752 -0.058955856 -0.0041566025 0.041522253 0.16125837 0.017072497 0.031183338 -0.012257129 0.05361015 0.009293186 -0.05824373 -0.06085085 -0.064600736 -0.05328279 -0.10623562 0.12974381 -0.14117107 0.038597938 -0.10312598 -0.05364847 0.06058244 -0.2141771 -0.0655238 0.051813357 0.07365624 0.10052664
20 0.016612137 -0.1873311 0.00804084 0.073047005 -0.017616922 -0.092474714 0.11425783 0.14446688 0.026374375 -0.018713493 -0.112779126 0.0708519 0.055023268 -0.2263424 -0.005428566 -0.16651487 0.019711958 -0.13863607 -0.03164377 0.00027422735 0.20690739 -0.08820814 0.15922832 0.045978107 0.05948066 -0.10065 -0.12430409 0.02875168 -0.002792951 0.0946139 0.012052326 0.022855083 -0.063284874 -0.061139602 -0.1926585 -0.08021228 0.1996847 0.06414828 -0.016427996 -0.109208465 -0.18067375 0.04088737 0.15388241 0.19264276 -0.081066474 0.13298452 0.09802166 -0.104813926 -0.03389233 0.08210754 -0.042454194 0.15794696 0.010411775 0.09950503 -0.21955502 -0.04192248 -0.08007431 0.045422204 -0.013142794 0.11524212 0.14084174 -0.13532424 0.016392913 0.20596363 -0.008405293 -0.08226196 -0.09019609 0.076893486 0.0077121803 -0.1836466 -0.04847579 0.08631853 -0.075614996 -0.0082244165 0.0877601 0.005483831 0.124520294 0.052586287 -0.0070430445 0.0027605072 -0.07378338 -0.080410026 -0.052132737 -0.06701108 -0.085924625 0.150488 0.006624017 0.0010551602 -0.06566686 0.026826993 0.123039074 -0.000785959 0.09897065 -0.004203564 -0.039685287 0.16410393 -0.05380169 -0.11401133 0.012518441 -0.03288287 -0.12566479 0.08746189 -0.17666423 -0.047728553 -0.026484722 0.039898563 0.13735121 0.022282744 0.02163838 -0.021265525 0.048228446 0.03175762 -0.048448496 -0.04415909 -0.06933972 -0.04017294 -0.08967449 0.121524945 -0.13958386 0.023872817 -0.09319843 -0.04420707 0.084195934 -0.2114636 -0.09655552 0.01540308 0.078612715 0.11024084
16 0.01647082 -0.19171967 0.01608342 0.08386518 -0.01230763 -0.09436964 0.13096799 0.14087075 0.0042167515 -0.017462326 -0.13054156 0.062735215 0.0537758 -0.23658732 -0.025189128 -0.16998728 0.028140178 -0.1390487 -0.03774258 0.014752962 0.21516441 -0.08530193 0.17504095 0.044797562 0.04466962 -0.11328663 -0.14006652 0.034385722 -0.0074414453 0.11922612 0.009951727 0.03141085 -0.07892943 -0.070011124 -0.2525146 -0.093883716 0.2416637 0.07355641 -0.015978307 -0.1284412 -0.21640477 0.062320452 0.17918679 0.21445528 -0.070931695 0.14466198 0.10027974 -0.12289607 -0.06453238 0.08939359 -0.015728863 0.17644183 0.015762025 0.10310551 -0.24819818 -0.039641798 -0.0995951 0.0534705 -0.015200619 0.1388902 0.15237573 -0.16124062 0.0028951536 0.2384557 0.016460774 -0.11979244 -0.09499758 0.08200703 0.009744069 -0.1982646 -0.03177882 0.09054153 -0.0716146 -0.0032346628 0.07220526 -0.009634642 0.13640292 0.06314654 -0.0037092934 0.033977665 -0.06759908 -0.10930512 -0.058355276 -0.09182066 -0.078315295 0.20403926 -0.017066194 0.011370768 -0.08831832 0.021688407 0.1256118 0.015154557 0.09900008 -0.008034928 -0.033753816 0.2129248 -0.07941347 -0.1054645 0.009781545 -0.070109464 -0.15042812 0.10587346 -0.18983385 -0.0640798 -0.016724898 0.042641446 0.16439398 0.021154081 0.027404308 -0.017101822 0.058201447 0.02055878 -0.06338838 -0.05753996 -0.06712125 -0.048117675 -0.11448473 0.14343974 -0.1563886 0.03601446 -0.109609134 -0.058376633 0.07169556 -0.23382023 -0.07924344 0.040580492 0.08994887 0.11876379
22 0.02009312 -0.19908406 0.005400305 0.07064784 -0.017467339 -0.09988705 0.1052554 0.15888135 0.043504708 -0.019594247 -0.109886006 0.093140595 0.05521692 -0.24039595 0.013000394 -0.18266864 0.015177693 -0.15375532 -0.025399629 -0.0006364253 0.21715626 -0.093154944 0.16179048 0.0499838 0.069196686 -0.09619402 -0.13023937 0.03090244 0.0049477275 0.09166298 0.014429156 0.019470606 -0.06864597 -0.05336958 -0.17865309 -0.08465829 0.18195981 0.06317015 -0.01277892 -0.10203849 -0.16235915 0.03014242 0.15330109 0.19758923 -0.09163496 0.13473079 0.092814974 -0.10038 -0.018695716 0.083682984 -0.05674479 0.1455004 0.0017256155 0.109123215 -0.21024817 -0.041853286 -0.07025566 0.054857977 -0.008989792 0.09808086 0.14279473 -0.13752307 0.022904925 0.20130667 -0.021744167 -0.06098878 -0.09692548 0.078434765 0.01206884 -0.19324224 -0.05802625 0.085723996 -0.07522178 -0.015081069 0.11283783 0.016080102 0.13008642 0.05048067 -0.006000757 -0.020246016 -0.08496675 -0.0694696 -0.051508833 -0.05957619 -0.1007435 0.12515463 0.03127896 -0.011553256 -0.04424098 0.026844248 0.124311455 -0.010667531 0.10062755 -0.00635215 -0.053923048 0.14851299 -0.05018524 -0.123813234 0.02222768 -0.020433487 -0.11593829 0.08627646 -0.16795589 -0.04383149 -0.03258198 0.039838094 0.12843417 0.027798906 0.012365088 -0.03186419 0.049416617 0.037764043 -0.04260355 -0.039682187 -0.0713403 -0.032046188 -0.09193468 0.11829163 -0.14664626 0.014908354 -0.089483716 -0.050104663 0.09423755 -0.21574925 -0.11195686 -0.003165036 0.0857052 0.11578971
23 0.01767131 -0.16757718 0.014144028 0.0862728 -0.005959108 -0.08106064 0.1294944 0.120404646 -0.02692963 -0.018618625 -0.13092503 0.034887075 0.052928716 -0.21666783 -0.05471092 -0.13787596 0.03693381 -0.09957719 -0.031926982 0.036530294 0.18805446 -0.07166116 0.1572074 0.03942507 0.017455256 -0.10782174 -0.13491113 0.028672505 -0.013818787 0.13667361 0.009435365 0.032020546 -0.080357656 -0.06446321 -0.28206122 -0.09611244 0.2529773 0.07025258 -0.015700033 -0.12732497 -0.22148427 0.070560835 0.17170283 0.20726818 -0.046778187 0.13634661 0.08276836 -0.12543382 -0.08575727 0.07138943 0.010282598 0.16861355 0.026027441 0.079591185 -0.24757478 -0.03479998 -0.10607796 0.046734795 -0.01995974 0.15151328 0.13837275 -0.15444286 -0.0058165807 0.24624184 0.042564806 -0.1439029 -0.08305568 0.072781995 0.013645143 -0.1659285 -0.016373107 0.09235444 -0.057776168 0.007009922 0.02868217 -0.019950524 0.11887238 0.06948936 0.009040766 0.07010233 -0.05007789 -0.12550701 -0.0545401 -0.10322759 -0.053157374 0.2316095 -0.050828733 0.020304432 -0.11138313 0.012584674 0.12035383 0.028127488 0.08590005 -0.015489056 -0.020638386 0.22318606 -0.09695719 -0.07589289 0.0011031359 -0.08729791 -0.16235149 0.09971383 -0.17835008 -0.06771942 0.00021086742 0.04119638 0.16665266 0.014555835 0.03102007 -0.00508252 0.055389937 -0.0029522863 -0.06601699 -0.070870064 -0.06319289 -0.0604182 -0.12274344 0.14286579 -0.15182287 0.05166263 -0.11210355 -0.060929038 0.050719805 -0.22742592 -0.04825298 0.06034596 0.08643434 0.103489295
19 0.01900653 -0.18591103 0.01851394 0.07873318 -0.011088406 -0.08938378 0.12577052 0.13085341 -0.0015285679 -0.017257206 -0.12921426 0.05690716 0.052631818 -0.22633936 -0.033342015 -0.15649937 0.028190687 -0.12966894 -0.031018408 0.022712488 0.20866467 -0.084752135 0.16902715 0.04484682 0.03668307 -0.108599216 -0.13813907 0.033454888 -0.008185598 0.12087547 0.013495285 0.030204175 -0.07457122 -0.069386564 -0.2528512 -0.091885515 0.23132826 0.07653662 -0.010835485 -0.12194627 -0.21139583 0.059616096 0.17165636 0.20596933 -0.06411347 0.14312711 0.09678532 -0.12549704 -0.06495833 0.08358153 -0.014266024 0.17109025 0.0123094125 0.09369559 -0.24065617 -0.03643284 -0.10040584 0.05305971 -0.01282547 0.14104651 0.1452082 -0.15552665 0.004643729 0.24170285 0.01778467 -0.12341529 -0.08916551 0.07449548 0.009723466 -0.18902595 -0.030070508 0.0921395 -0.06907352 0.0009028445 0.05907669 -0.013831542 0.13014562 0.06705829 -0.00384108 0.035600033 -0.06856588 -0.10653699 -0.05656193 -0.094581634 -0.074334115 0.20287518 -0.02018165 0.011520117 -0.09435247 0.017741356 0.12327649 0.019040914 0.101682924 -0.0073176003 -0.03155385 0.2113112 -0.083193876 -0.09598989 0.010475686 -0.072622135 -0.14984691 0.104036435 -0.19151357 -0.06378718 -0.0123529015 0.045179512 0.16417205 0.020344054 0.02495414 -0.016358607 0.0560818 0.014478761 -0.059405617 -0.06103103 -0.0634224 -0.048894923 -0.10867411 0.14283183 -0.15618204 0.04238647 -0.109461054 -0.061202213 0.06753051 -0.23042238 -0.078198284 0.043899015 0.083365984 0.10798977
17 0.020544384 -0.25147802 -0.010810503 0.07235154 -0.037466574 -0.121382274 0.09893272 0.22204237 0.1541496 -0.019615449 -0.08692945 0.16813551 0.060161788 -0.28500122 0.08474254 -0.23614524 -0.00556474 -0.23865524 -0.03171489 -0.046841785 0.26513186 -0.14019993 0.1749185 0.06585376 0.1534297 -0.112714544 -0.14592811 0.022798417 0.01085729 0.057149235 0.028879138 0.019450461 -0.052270386 -0.06798083 -0.09727952 -0.08594376 0.14475758 0.073155135 -0.024251202 -0.09111102 -0.1381609 0.001341419 0.1665501 0.21067618 -0.17077279 0.14741501 0.13861202 -0.08584322 0.051464003 0.12606297 -0.14144558 0.16837308 -0.017062502 0.15364328 -0.20491312 -0.07197184 -0.052430753 0.065513335 0.012495888 0.04724028 0.1734539 -0.1425153 0.06285027 0.17442529 -0.09990332 0.017542712 -0.120990336 0.09935487 0.0068781776 -0.25568372 -0.11327626 0.08681754 -0.11105181 -0.035084482 0.21341513 0.056674775 0.15653014 0.033209205 -0.032331333 -0.13196221 -0.12500341 -0.0050002523 -0.046274025 -0.000749212 -0.1731303 0.015210286 0.12422875 -0.03844356 0.017114697 0.047810152 0.14541581 -0.050095785 0.1393616 0.025780391 -0.09899906 0.08771612 0.017013911 -0.20903735 0.044986207 0.0681065 -0.078490324 0.08490756 -0.19314066 -0.033147868 -0.08476921 0.027263608 0.096408166 0.034709606 0.0010902286 -0.054748937 0.041145317 0.093785025 -0.02395404 -0.017196149 -0.09350352 -0.0036228953 -0.05782956 0.10350639 -0.14372917 -0.02699523 -0.063148454 -0.020625206 0.15840249 -0.21515597 -0.21081127 -0.079788074 0.08411053 0.14101055
21 0.013407418 -0.17831554 0.0152480565 0.07874482 -0.012643266 -0.087782875 0.12514862 0.12605967 -0.0046143327 -0.013725655 -0.12427631 0.051738195 0.052527912 -0.22502813 -0.034501836 -0.15174296 0.031832986 -0.12047429 -0.03105319 0.022558825 0.20260958 -0.07866651 0.16120487 0.04334898 0.033317175 -0.10962 -0.13194178 0.031522416 -0.009200083 0.12282126 0.014363049 0.028864717 -0.07463672 -0.064337514 -0.2588254 -0.09506949 0.23829538 0.07760113 -0.011621799 -0.12369151 -0.21605507 0.06568115 0.16882361 0.20441315 -0.06750651 0.14329037 0.09278586 -0.12207475 -0.064109474 0.07958294 -0.00734079 0.17394277 0.019882962 0.09017715 -0.2439546 -0.03571464 -0.09843294 0.04597206 -0.020601967 0.14464068 0.14082657 -0.15280174 0.0014662943 0.2401433 0.024696287 -0.12501094 -0.09034835 0.07000214 0.009358906 -0.1864272 -0.025314225 0.08753843 -0.0680077 0.0030254116 0.058759782 -0.011838796 0.120804064 0.062114164 0.00032726064 0.045418713 -0.06554109 -0.10728356 -0.05727666 -0.094018936 -0.07166747 0.20065627 -0.02966207 0.009893835 -0.09016264 0.015338375 0.12731747 0.01853422 0.09556085 -0.005949394 -0.026656674 0.2078928 -0.08615418 -0.090758614 0.0091333985 -0.07254208 -0.15262383 0.098700985 -0.18664286 -0.05785986 -0.0062195472 0.04579407 0.16317698 0.016860388 0.024396226 -0.016187094 0.06116308 0.013892135 -0.06189882 -0.0599651 -0.067799576 -0.048932835 -0.11720033 0.137562 -0.15113443 0.04493897 -0.108733915 -0.06184117 0.06701162 -0.23008306 -0.06776344 0.04596126 0.088622965 0.106034614
13 0.021282725 -0.21945809 0.0046735797 0.07345451 -0.021289371 -0.10761691 0.1159778 0.17700124 0.06620391 -0.018273612 -0.11466659 0.102905765 0.058818646 -0.26249418 0.023206167 -0.1996827 0.014417058 -0.17437416 -0.03188751 -0.015339708 0.23690324 -0.10483803 0.16417217 0.057253677 0.08379434 -0.1098496 -0.13281809 0.03528598 0.0034685882 0.08688096 0.014756626 0.024405695 -0.06831142 -0.063350536 -0.17696528 -0.09003921 0.19348581 0.07378699 -0.014528066 -0.106812984 -0.16970673 0.03179526 0.16825673 0.21038152 -0.11216912 0.14758971 0.11265499 -0.10561807 -0.013496327 0.10288672 -0.0735333 0.16968556 0.0049085617 0.13049455 -0.23803915 -0.05584611 -0.0790722 0.05449065 -0.0056087538 0.10100106 0.15829904 -0.14708452 0.025545144 0.20688069 -0.033367153 -0.058585964 -0.10686846 0.08501095 0.013501387 -0.22211021 -0.07212995 0.08888803 -0.087449 -0.019103838 0.13158832 0.0163551 0.14304082 0.048104342 -0.016632272 -0.04117254 -0.09585168 -0.066565044 -0.056831826 -0.05231541 -0.12222839 0.11901812 0.04576057 -0.012271029 -0.046809733 0.037172623 0.13986227 -0.017787432 0.113529615 -0.0023614953 -0.062435318 0.15104535 -0.041985393 -0.15418518 0.021076456 -0.006472944 -0.11873948 0.09517433 -0.19043627 -0.05020102 -0.045964506 0.034143917 0.1383137 0.024905609 0.014090036 -0.039973516 0.053224605 0.04809116 -0.04617101 -0.036806062 -0.083407186 -0.033868108 -0.09137964 0.12745976 -0.15095808 0.0070600687 -0.09262518 -0.04263683 0.11502665 -0.2277399 -0.13872947 -0.012146055 0.09070996 0.13114017
10 0.014714524 -0.17193528 0.015619256 0.08102488 -0.0057464982 -0.080302864 0.12803666 0.11865507 -0.017173931 -0.017034814 -0.121854916 0.04197316 0.048359517 -0.20825283 -0.047945864 -0.14057332 0.0389107 -0.10831582 -0.033579193 0.029325945 0.19514216 -0.07411927 0.16236855 0.042675912 0.022351095 -0.107465304 -0.12842086 0.03230826 -0.00863993 0.12392266 0.006909737 0.0255982 -0.073147446 -0.057833664 -0.2659585 -0.092212796 0.24079439 0.06884609 -0.013072344 -0.12675472 -0.2163999 0.06321253 0.16951549 0.2063739 -0.052441135 0.14201307 0.09043053 -0.12543032 -0.07119321 0.071092166 0.0018447147 0.16572069 0.024076179 0.08350474 -0.24334738 -0.029337727 -0.09794142 0.044067584 -0.02495684 0.14891158 0.13681528 -0.15167129 -0.01007327 0.2389365 0.03162187 -0.13194256 -0.08829066 0.067947656 0.0069566346 -0.1734243 -0.01985592 0.08514989 -0.05851575 0.0033847932 0.04532148 -0.014549577 0.12025639 0.06407384 0.001004051 0.05696481 -0.064359784 -0.121139616 -0.056120325 -0.094671674 -0.06356219 0.21981737 -0.041293945 0.012463944 -0.10081243 0.012259358 0.12036204 0.02178127 0.093801565 -0.010422031 -0.020150328 0.21799254 -0.09286595 -0.08244469 0.005727384 -0.08124811 -0.15825462 0.09994743 -0.18206012 -0.06175235 -0.0024031065 0.044591725 0.16954198 0.01928543 0.022779623 -0.0066545955 0.060612418 -0.0010012265 -0.059328828 -0.06239281 -0.060376838 -0.056952477 -0.11437516 0.14110266 -0.15006542 0.041164517 -0.11105918 -0.06323955 0.056098536 -0.21926522 -0.052856874 0.052980196 0.08324352 0.106304616
18 0.020134885 -0.2168035 0.0016772575 0.07419434 -0.018002292 -0.109123826 0.1100921 0.18032748 0.061572827 -0.015977059 -0.11507224 0.10823926 0.060876008 -0.26125723 0.018145839 -0.20486686 0.017789777 -0.17165874 -0.032585666 -0.0039190925 0.24172972 -0.10521847 0.17625049 0.05746292 0.088611245 -0.10545525 -0.13876367 0.03756798 0.0062309736 0.09304424 0.015921641 0.02441391 -0.06924867 -0.05480067 -0.18101859 -0.090261996 0.18797678 0.06928406 -0.010184351 -0.102470554 -0.17323722 0.03551539 0.16323361 0.20814388 -0.10809062 0.14453514 0.10321052 -0.107874855 -0.013750171 0.092482224 -0.0659293 0.15490754 0.0066843405 0.124684095 -0.22711134 -0.04349444 -0.07280299 0.05305369 -0.013096861 0.100548 0.1565896 -0.15533009 0.025515558 0.21250804 -0.027883766 -0.058821116 -0.10364113 0.083040714 0.011514568 -0.21350777 -0.06931449 0.08983244 -0.080404975 -0.020497875 0.1304271 0.020840254 0.14998482 0.052947134 -0.009385674 -0.031432703 -0.097833 -0.06728186 -0.0558319 -0.057401657 -0.118447125 0.12797016 0.04241363 -0.012573718 -0.046747528 0.03279824 0.13314219 -0.01769187 0.11496461 -0.0044392003 -0.066057436 0.15577371 -0.050691426 -0.13924493 0.024774605 -0.013106649 -0.12358371 0.095525034 -0.18340528 -0.04850074 -0.04006129 0.04058577 0.1335735 0.02474344 0.01019285 -0.039344877 0.047786336 0.041178558 -0.048692245 -0.044152807 -0.07752475 -0.03478592 -0.09316394 0.122511774 -0.15136614 0.011216401 -0.096956685 -0.052425567 0.103872836 -0.23169868 -0.1285492 -0.014099593 0.08746983 0.12533979
15 0.013183131 -0.17685929 0.019061731 0.07885003 -0.006511549 -0.080710135 0.12946098 0.11845303 -0.018621651 -0.01847272 -0.12734123 0.043016013 0.052186176 -0.21619155 -0.041961882 -0.14649631 0.03125558 -0.112927675 -0.036576025 0.024493666 0.19971208 -0.072023615 0.16399312 0.040335465 0.02032992 -0.10705458 -0.13609083 0.032329395 -0.009410548 0.12791464 0.00893459 0.03403756 -0.07539028 -0.06469085 -0.2680513 -0.09436064 0.24550685 0.07291396 -0.010002405 -0.12608209 -0.22577265 0.0669104 0.17364563 0.21169662 -0.05438966 0.14561588 0.08419228 -0.1280703 -0.07800076 0.074909255 -0.0029681427 0.17300747 0.020341793 0.09145588 -0.25261155 -0.038516212 -0.10710003 0.044630885 -0.018753685 0.15324025 0.14659722 -0.15335906 -0.0035580418 0.243188 0.03275732 -0.13196234 -0.086477384 0.07183985 0.015367241 -0.17562415 -0.021381436 0.09195932 -0.063971415 0.00060844136 0.043033928 -0.01656498 0.1249337 0.06926857 -0.0011069569 0.053539686 -0.05877573 -0.11544036 -0.05752467 -0.10204728 -0.06436693 0.21782856 -0.041042358 0.011838261 -0.10250833 0.018575279 0.12553105 0.024336431 0.09583899 -0.01630415 -0.02495635 0.21931966 -0.090897575 -0.07899049 0.006364993 -0.079040214 -0.15365866 0.09898724 -0.18636356 -0.061771568 -0.00095650286 0.041032214 0.16987996 0.020398272 0.02712881 -0.015187072 0.058402963 0.0038919668 -0.065206036 -0.06883582 -0.06635115 -0.05448484 -0.117446184 0.14499182 -0.1577093 0.05017113 -0.11072895 -0.06708457 0.06425247 -0.22568488 -0.06306624 0.0545597 0.08859666 0.10926001
27 0.016620135 -0.17500943 0.015110889 0.07778081 -0.0059770686 -0.08036207 0.1287714 0.11856186 -0.026565604 -0.014863478 -0.12804744 0.035830613 0.049352348 -0.20863038 -0.04791699 -0.1450651 0.040042486 -0.11192853 -0.032697845 0.023968862 0.19624928 -0.07006525 0.16565154 0.040794246 0.02029924 -0.11302253 -0.13517818 0.035136215 -0.013567056 0.1285598 0.012500064 0.02628686 -0.07520877 -0.06651606 -0.25636303 -0.08901349 0.23471838 0.07141016 -0.01361022 -0.12562342 -0.21598458 0.06655191 0.16382049 0.1979449 -0.051000975 0.13903752 0.08928057 -0.123845436 -0.07651455 0.07653559 0.0071160644 0.17073958 0.01577621 0.08692249 -0.24006107 -0.037316773 -0.10111137 0.04893413 -0.016036708 0.15013236 0.13125688 -0.14294575 -0.009274295 0.23581806 0.033059604 -0.13495445 -0.08822434 0.07064862 0.010786075 -0.16756609 -0.021902848 0.09157676 -0.061535716 0.0017117248 0.034761764 -0.023105616 0.117218174 0.06428111 0.0004719721 0.061806947 -0.060577728 -0.11656716 -0.056078743 -0.09517552 -0.059992168 0.21926378 -0.038676023 0.014800815 -0.10707914 0.014763318 0.11118315 0.019765193 0.09168648 -0.010540873 -0.019796709 0.21493676 -0.09002934 -0.080106646 0.0076087406 -0.08927911 -0.15947017 0.10163916 -0.17925537 -0.06788014 0.0012008131 0.047487635 0.17257692 0.01450333 0.024155963 -0.00550288 0.06055508 0.002377811 -0.06323548 -0.06388993 -0.057768423 -0.05875947 -0.11578337 0.13951616 -0.15081488 0.046800736 -0.11211244 -0.05919104 0.05676316 -0.21854118 -0.05700967 0.06126666 0.08430564 0.10167708
12 0.013422112 -0.21643981 0.0026519394 0.068378136 -0.021510834 -0.10433998 0.10403082 0.16960426 0.06489167 -0.017808292 -0.10152086 0.10964485 0.052882083 -0.24666575 0.025507402 -0.1910052 0.011084898 -0.1693842 -0.02554149 -0.018119434 0.22926319 -0.09922021 0.1639676 0.053574525 0.08476086 -0.1081803 -0.13061053 0.032742936 0.0040489407 0.07992607 0.019554425 0.021523995 -0.06730677 -0.056392368 -0.15949902 -0.07967057 0.17636184 0.07052219 -0.014356607 -0.09757306 -0.16093358 0.02729329 0.16195068 0.19823553 -0.11289844 0.14299092 0.111154795 -0.10295286 -0.009972225 0.095382206 -0.07383602 0.15996416 -0.000718625 0.11893782 -0.22218764 -0.05503598 -0.06742147 0.054926157 -0.007648692 0.09441031 0.15537705 -0.14192156 0.02580948 0.20452362 -0.042955633 -0.04900677 -0.10043238 0.083429456 0.012141094 -0.20901337 -0.06560213 0.08871408 -0.08293926 -0.015824609 0.13183612 0.020364184 0.14406721 0.050374947 -0.013826002 -0.039071012 -0.09586205 -0.055264127 -0.056204397 -0.04827709 -0.11904411 0.10947441 0.047451913 -0.015381807 -0.039964154 0.028219175 0.12955873 -0.015025621 0.111622244 0.001646182 -0.062298764 0.1386369 -0.03489462 -0.15135433 0.026240928 -0.00074380724 -0.117174156 0.085080184 -0.17863001 -0.04535679 -0.045383956 0.033125367 0.12695146 0.027111659 0.015639601 -0.04055462 0.043851968 0.04907872 -0.04118784 -0.033327788 -0.075459614 -0.023783274 -0.08286695 0.11890091 -0.1457493 0.0027500729 -0.088639945 -0.04490343 0.10872958 -0.21536723 -0.13738124 -0.016838193 0.07947077 0.12131263
