1190 128
10299 -0.02817331 0.03506002 0.0014859446 -0.07013565 0.06862765 0.24495058 0.20332119 -0.05210427 0.14587745 0.09624363 -0.41330674 -0.11821514 -0.029797873 -0.22060332 -0.09047323 -0.039173905 -0.02288105 0.35094583 0.06443481 0.024985041 0.17183572 -0.116323926 0.06623315 0.18051267 -0.025454296 0.19887412 -0.23153962 -0.043349877 0.19176304 -0.21740901 -0.0032661194 0.069365285 -0.079452716 0.18963274 -0.0790997 -0.017124623 0.17737398 0.0038677328 0.19107464 -0.11008267 -0.100772455 -0.18648742 0.09423117 0.21677205 -0.07594874 -0.0037026936 0.38592076 0.11440811 0.0070387814 -0.14157982 0.059707716 -0.097650535 -0.07165134 0.061720815 0.14121911 0.030941358 -0.14408913 -0.22373775 0.15623236 0.022763336 0.29684266 0.4955089 0.093749814 0.5040886 0.040976845 -0.308605 0.20340382 -0.061076645 0.20870972 -0.16750972 0.25714126 -0.21932916 -0.056621555 0.0063412096 0.013882002 0.04586183 -0.05626774 -0.4658275 -0.09673133 0.36891776 -0.021725308 0.021883145 -0.31548065 -0.077570766 0.24149014 -0.10987468 0.004182849 -0.19445033 0.080146044 -0.14218944 0.34223822 -0.38118556 -0.17722978 -0.19358051 0.18457131 0.07430692 0.20866823 0.020050244 0.32901388 0.21564554 0.00997956 -0.116367996 -0.04061659 -0.08224722 0.4183519 -0.035057753 0.13941167 -0.007963411 -0.039329525 0.04086875 0.31000882 -0.22560045 0.065411 -0.29761332 0.039059315 0.1788385 -0.19189332 -0.014984622 -0.06132123 0.24087185 0.081946924 0.026355494 0.05341143 -0.10247753 -0.3704897 0.30567113 -0.16587816 0.22066188
13930 -0.056622736 -0.062034667 0.18910904 -0.17923513 0.0085147275 -0.018313041 -0.00437458 -0.09622706 -0.15053925 0.08906233 0.07196747 0.11309572 0.08707953 0.17645481 0.040460482 -0.13744669 0.20015855 0.04762224 -0.029397663 0.008066129 0.020651147 -0.0061898297 0.108303 0.08270614 -0.23604947 0.25781208 0.1976712 -0.16540042 0.18866241 0.017834358 -0.022543274 0.28342083 0.035743367 0.20157088 0.29237947 -0.23951508 -0.17661794 -0.1073188 -0.13455005 0.043173634 -0.0124958735 -0.10198047 0.002776923 0.11141298 -0.10398892 -0.05032711 0.01975182 0.023520548 0.18537928 0.22431545 -0.039911043 -0.2756696 -0.20218103 0.26686963 0.14272214 -0.1261716 -0.08085178 0.19940184 0.10648314 -0.07549323 -0.13888091 0.052748073 -0.008334558 0.1287888 -0.016322665 0.105648905 -0.19083232 0.010766114 0.058892246 0.3353848 -0.16006926 0.120460324 -0.020017615 0.078057796 -0.21000844 0.013911325 0.032540806 -0.054512125 0.0138276145 0.06562192 0.20050932 0.25208512 0.01898436 0.1512835 0.18939239 0.13046482 0.03766969 -0.18508837 0.0645311 -0.037562966 0.1649816 -0.1447688 0.0962006 -0.030020017 -0.00700892 -0.034856487 -0.31364906 -0.16150907 0.20775427 0.04245219 -0.124186 -0.072372764 -0.118823566 0.32227582 0.025679547 -0.059109338 0.023115056 0.10110904 -0.070177205 0.2898933 0.19151048 -0.22415584 0.15996455 -0.17126918 -0.13355039 0.16780087 -0.25444394 -0.21065144 0.17070454 -0.077253394 0.20438904 0.117277846 -0.07937219 -0.36727032 -0.23285572 0.53601027 0.1769303 -0.30766192
10397 0.12838762 -0.02608477 0.21521598 -0.108988434 -0.026800828 0.022389572 -0.066037536 0.104934074 0.061523933 0.14802924 0.08880823 0.18728344 0.11774075 0.092769675 -0.06288422 -0.12554355 0.09260571 0.04180211 -0.16396807 0.07467524 0.018433748 -0.03931561 0.15524733 0.065138154 -0.36823067 0.1794358 0.114244744 -0.04580793 0.35277337 0.018148564 0.007546438 0.20349902 -0.044676155 0.08457734 0.014596626 -0.10058866 -0.15506147 -0.19995955 -0.04920467 0.06537453 0.09625677 -0.12753096 -0.097612105 0.17034224 -0.17749919 0.0029990394 -0.12881953 -0.0004932511 0.11547661 0.17183422 0.05188461 -0.3202463 -0.08425861 0.17515728 0.18885392 -0.07051499 -0.021691257 0.11860835 0.02991578 0.13874334 0.009125481 0.02003814 -0.19227096 0.0056975316 0.13124186 0.07227339 -0.24566548 0.27315852 0.23204397 -0.030866902 -0.101944074 -0.05399028 -0.23273881 0.18062392 -0.09074174 0.04476296 -0.006724191 -0.0918317 0.0754501 0.29686865 0.06128189 0.020583536 -0.18579105 0.071535446 0.11567913 -0.013698305 0.06640173 -0.28039312 0.10055089 0.01910261 0.12471762 -0.21775436 -0.04104224 -0.08367737 0.22264823 -0.09640006 -0.049289834 -0.16232331 0.1053473 0.0490181 -0.043658085 -0.16989037 -0.2397573 0.25184694 -0.0047119795 0.010570654 0.13327917 0.17056125 -0.0339174 0.1242339 -0.06100975 -0.14837667 0.1250707 -0.123099536 0.012577247 0.15638232 -0.3101281 -0.23580843 0.24446009 -0.11413197 0.1328999 0.15056628 -0.1370782 -0.33408305 -0.36523202 0.36208805 0.07165641 -0.19624263
11292 -0.05765679 0.016964437 0.11458579 -0.038243312 0.1655755 0.0056980574 0.19787873 -0.19308393 0.00096132385 0.14326137 -0.0043530394 -0.10991606 -0.007627588 0.13524662 -0.0017906637 -0.03508947 0.1682042 -0.033811573 -0.10118415 0.024263937 -0.03021228 0.0064949207 0.09371989 -0.018135147 -0.12597705 0.24595822 0.1990972 -0.149204 0.5205439 -0.15772775 -0.02364455 0.28488544 0.0040200264 0.1564522 0.19847547 -0.2008541 -0.11361932 -0.099525064 0.10587874 -0.04741302 -0.15082194 -0.2971169 -0.15124093 0.27710122 -0.09381741 -0.06055072 -0.12080251 -0.04043934 -0.24446768 0.2614229 0.058092307 -0.19838892 -0.15019698 0.20190424 0.21173963 -0.014014927 0.18086056 0.1321743 0.08240429 0.018767841 -0.118981294 -0.30336708 -0.019646209 0.10829717 0.059688892 0.15325066 -0.014942861 0.1236349 -0.020905925 0.37872967 -0.3906219 -0.083202824 -0.34771132 0.014700866 -0.40898862 -0.17895563 -0.036377084 -0.006462413 -0.030438751 0.21329646 0.14416508 0.17785951 -0.22072187 0.18605597 0.17414561 0.051293455 -0.14129478 -0.098651074 -0.05062863 0.06822328 0.003368437 -0.09141087 0.008408877 -0.022611603 0.29233694 -0.058053188 -0.08500495 0.011760484 0.20644596 0.029952107 0.08580867 -0.24236389 -0.21010321 0.24736279 -0.10130182 0.026548173 -0.116676174 0.111307584 -0.06696078 0.1396003 -0.068041705 0.0044964575 0.42201173 -0.25039712 0.0029298938 -0.014924027 -0.23795839 -0.4411658 0.28014198 -0.059943523 0.053753886 -0.003827196 0.0025344626 -0.36924493 -0.39837614 0.42778158 0.1266592 -0.36622185
11630 -0.084248096 0.16418706 0.1258421 -0.24612111 0.40529633 -0.023124795 0.23327905 0.057826586 0.20647123 -0.028334627 -0.36527643 0.0063889027 -0.3084668 0.06418862 -0.03851082 -0.036631938 0.0015907505 0.27750528 0.4298029 0.10486744 0.1428428 -0.2775887 -0.11763842 0.031886812 0.06483738 0.17186843 -0.110135265 -0.21214394 0.26698706 -0.17864864 -0.001455098 0.011486112 0.04173202 0.22755198 0.18105379 -0.21884911 0.437672 -0.15580787 0.2767326 -0.22315626 -0.05507908 -0.27330586 0.018991526 0.18379708 -0.07158242 -0.060104005 0.19743644 -0.042850256 -0.0034959447 0.19114761 -0.09947593 -0.19657767 -0.4313519 -0.11222987 0.056844965 -0.28805432 -0.20767978 -0.22789188 0.25825247 -0.030053033 0.04201951 0.6470689 0.037607674 0.54807293 0.26983964 -0.19962387 0.19824325 -0.03005085 0.2558266 -0.0168331 0.14433955 -0.2907016 0.14135855 0.021881908 0.07959995 -0.06056243 0.17526305 -0.4152826 -0.122971825 0.08339364 0.12719457 0.07132493 -0.22573802 0.03990656 0.2727539 -0.26150703 0.04239962 -0.12518662 0.241827 -0.22083296 0.38535097 -0.37411153 -0.35127848 0.03056433 0.32003096 0.418397 0.18731141 -0.2554788 0.3564296 0.25674108 0.03854854 -0.08211045 -0.24885638 -0.20391233 0.5923322 0.19805287 0.17652081 0.04072558 0.16333175 -0.13043226 0.17713259 -0.26945817 -0.08179213 -0.21812367 0.05144833 0.078102335 -0.0066202306 0.11072908 -0.19720589 0.2090095 0.3029245 0.13321786 0.1603777 -0.1918595 -0.1978881 0.54605013 0.16650361 0.45681813
11298 0.073609546 -0.10797128 0.08107557 -0.1902496 -0.034195997 0.09719314 0.22960696 -0.15026978 0.14388278 -0.061316554 0.027118256 0.13495296 0.206004 0.12726542 -0.06111755 -0.119772404 0.13322096 0.03951364 -0.12672868 0.094391055 0.038923312 -0.041583337 0.09834318 0.03338416 -0.27497402 0.11422049 0.13528961 -0.0027841483 0.16492501 -0.04094102 0.041966718 0.21591942 0.06990214 0.057338182 0.1463091 -0.084855184 -0.18028454 -0.13775341 0.0968097 0.057895105 0.01315611 -0.13431622 0.10340324 0.28281948 -0.19178143 -0.038477067 -0.09849053 -0.021080276 0.0357422 0.22042231 0.025830152 -0.27661297 -0.24517946 0.22498208 0.2368545 -0.116303556 0.048490155 0.01929791 0.048169404 0.022664204 -0.036646906 0.007658085 -0.0663997 0.19075401 0.22618379 0.08198647 -0.20195624 0.13083228 0.10774064 0.03505987 -0.19777365 0.03412874 -0.16183032 0.0878214 -0.23657526 0.0406309 -0.08474564 -0.04471724 0.16053513 0.0339566 0.11498591 0.11321291 -0.18012896 0.1661809 0.26834396 -0.021239629 -0.09242819 -0.28689286 -0.05423634 -0.03874597 0.17761198 -0.2686395 -0.08887396 -0.07278333 0.01531554 0.023094311 -0.07389293 -0.054543927 0.14882128 0.027421296 -0.004548436 -0.1306541 -0.1553004 0.24263583 0.003775887 0.09506152 0.062645756 0.079412274 -0.12130772 0.21421635 0.050476473 -0.095011674 0.4057531 -0.15624195 -0.09959746 0.12485985 -0.22424284 -0.49675053 0.2152873 -0.15367466 0.11868338 0.024682859 -0.20385881 -0.4382893 -0.27444738 0.41374233 0.16039266 -0.27793047
13303 0.04928514 -0.0924904 0.04416696 -0.0047889473 0.13129814 -0.041685894 -0.053069316 0.071362734 0.070391014 0.21248089 -0.1131059 0.020384068 0.11504655 0.100504585 0.18715109 0.035006564 0.14473161 0.16245803 -0.043163348 0.009690999 0.04795472 -0.001531858 0.17943849 0.04751085 -0.41134578 0.27621713 0.2617997 0.12079119 0.2429683 -0.04754728 0.07764586 0.24534528 -0.0034995675 0.017942283 0.12242912 -0.19753459 -0.3454281 -0.1347418 -0.1756655 0.0796407 0.025871525 -0.19197002 -0.05431116 0.12696198 -0.046713054 -0.02749825 -0.12061485 0.13627093 0.2207913 0.32612127 0.15973867 -0.22549269 0.016333567 0.24456775 0.20727895 -0.046112087 -0.015866667 0.08589087 0.11458009 -0.025391826 0.0062760594 0.15846635 -0.16022767 0.054220006 0.0443699 0.019147934 -0.2007856 0.12814814 0.187026 0.1942855 -0.30371112 -0.09811006 -0.10335016 0.052966304 -0.10583494 -0.011906428 0.07122351 -0.047736336 0.21554835 0.2742061 0.11119317 0.15958188 -0.16661334 -0.1006067 0.070640534 -0.02069215 -0.039026603 -0.14319141 0.08015188 -0.112548225 0.089444265 -0.23395136 -0.03875077 -0.14509726 0.04945403 -0.055407308 -0.035303533 -0.22443734 0.21634214 -0.01854272 -0.03848727 -0.24193591 -0.113487095 0.18430541 0.17088923 0.105729654 0.19744429 0.16187221 0.015833784 0.14653847 -0.005825571 -0.29250932 0.35450387 -0.058011457 -0.08425609 -0.056529958 -0.22241978 -0.22001402 0.20700097 0.022606945 -0.037261914 -0.18404122 -0.16896611 -0.25027546 -0.35320872 0.28685513 -0.006816659 -0.17551368
12197 -0.1775978 -0.027534029 -0.32649004 0.107339285 0.13739988 -0.034192145 -0.24436466 0.2753224 0.24904981 0.27274162 0.0011424473 0.026801676 -0.1547356 -0.078316845 0.3676806 -0.12200571 0.3310133 0.13847782 -0.17005438 -0.00373093 -0.1149515 0.30584392 -0.013606387 -0.015204503 -0.2423084 0.18020493 0.5951684 -0.1988618 0.15471491 0.042118303 -0.06227373 0.07435482 -0.06345189 -0.11612104 -0.011769931 -0.24886361 -0.014405009 -0.23866445 0.04788934 -0.05916552 -0.0924156 -0.35143024 -0.058318637 0.22572744 -0.00011823751 -0.04924734 -0.21154785 0.16936283 0.10651798 0.18704006 0.20028207 -0.13779052 0.1329789 -0.18127988 0.14987655 -0.0118311215 -0.24171135 0.065051205 0.20370066 -0.018365726 -0.15192658 0.092795014 -0.28490064 -0.07158006 -0.08295482 -0.12639214 -0.35162503 0.04205821 0.14993979 0.33001494 -0.100946225 0.44246104 -0.12310299 0.08882648 -0.22326441 0.24278438 -0.12298567 -0.19627215 0.09623625 0.16334057 0.55224377 0.18856704 -0.2971597 -0.10794731 -0.10734229 -0.11840211 -0.10314128 -0.304942 0.08635933 0.054036643 0.018345345 -0.2319314 0.07157922 -0.115977496 0.28637967 -0.046829924 -0.15401505 -0.057473607 0.02837622 0.1209049 -0.11017652 -0.17994459 -2.4145484e-06 0.09382834 -0.068569124 -0.0058701904 0.008501425 0.32161382 -0.035848998 0.2179768 -0.07632254 -0.15829428 0.13235344 -0.22731507 0.050495576 -0.11112322 -0.28098103 -0.0027061275 0.07683418 -0.16860369 0.0803481 0.040584363 -0.020525567 -0.15624225 -0.27162838 0.31162307 0.12033807 -0.19660805
13487 0.001238783 -0.052310534 0.053688947 -0.04685095 -0.015660912 -0.059026796 0.06891096 0.031283434 -0.046323128 0.25645328 -0.046315942 -0.0008522102 0.056294672 0.19315714 -0.036565963 -0.11167555 0.03761465 -0.059800163 0.01131789 0.006169645 -0.009044222 -0.060141988 0.03320777 0.13996783 -0.28041655 0.17885087 0.21097848 -0.016684595 0.33183035 0.03487434 -0.01352995 0.2962229 -0.10750679 0.29486033 0.2679734 -0.279136 -0.16567108 -0.28690815 -0.022981206 0.15272573 0.034823414 -0.2956942 -0.049879953 0.21604124 -0.12007442 0.008492851 -0.021401111 0.18121769 -0.010555953 0.1393295 0.060969684 -0.26863077 -0.1126063 0.2780598 0.14660649 -0.07094938 0.078158885 0.19380106 0.14360477 -0.015280113 -0.11703471 -0.026559977 -0.08857568 -0.010239205 -0.024563069 0.062917925 -0.2646008 0.17135397 0.11844945 0.22493005 -0.2823554 -0.0026065256 -0.07735743 0.13222411 -0.13618287 0.007521487 -0.12111039 -0.03279171 0.08874469 0.1402032 0.15735948 0.28976497 -0.109688 -0.051583804 0.14408351 0.12001773 0.042009205 -0.15364276 0.08770033 -0.0992857 0.25322917 -0.09768058 -0.040654097 0.022764063 -0.025929999 -0.012393606 -0.20231865 -0.15435657 0.22632338 0.012091048 0.020580811 -0.12496019 -0.029446948 0.21038067 -0.011895147 -0.033445306 -0.054063138 0.061714236 -0.065934725 0.3162285 0.1445302 -0.19249552 0.38448632 -0.15375665 -0.015052991 0.09870508 -0.22923227 -0.24087599 0.15009297 -0.05927031 0.036077596 0.03554489 -0.040643543 -0.28507578 -0.18815857 0.25388405 0.23304394 -0.16505295
12889 -0.11890005 0.08990837 -0.00012468279 -0.15302864 0.04358856 -0.080170214 0.14200017 -0.011379552 -0.009070631 0.19091389 -0.018335255 -0.02320914 0.18563254 0.12448856 -0.09775754 0.0075341277 0.12028261 -0.118539155 -0.18845299 -0.07433317 -0.101959445 -0.042544454 0.08577934 -0.04394323 -0.14403799 0.14175083 0.15662056 -0.013329428 0.37547722 -0.08258869 -0.13011153 0.30564818 -0.06713779 0.24518834 0.20816754 -0.30656052 -0.05216047 -0.17333806 -0.024249116 0.056465153 0.018766766 -0.32232082 0.035810716 0.27590197 -0.1820395 -0.014161803 -0.20266701 0.012493751 -0.12268293 0.036468383 0.26351038 -0.23088975 -0.2045881 0.2553276 0.22452754 -0.030245034 -0.028380668 0.012015983 -0.012019587 0.050708752 -0.16547789 -0.112166665 -0.0626803 0.21549146 0.141684 0.04502427 -0.2917216 0.21571003 0.037763104 0.3860172 -0.21288039 -0.17740162 -0.113950446 0.12757072 -0.21034414 0.07867934 -0.08603903 0.076028794 0.21124575 0.221045 0.02110997 0.123806454 -0.1568962 0.055475913 0.06617285 -0.05224145 -0.067698024 -0.18163782 0.012261682 -0.025763897 0.09758062 -0.12918256 -0.1367357 -0.010581866 0.14059612 0.1131163 -0.046970867 -0.090746604 0.21030061 0.05886557 0.20001727 -0.28429848 -0.18785043 0.17519432 -0.025430677 -0.0028849535 0.022996591 0.100259416 0.0043573803 0.24871464 -0.032069728 -0.084913135 0.26947543 -0.11324309 0.048801225 0.07183477 -0.23612797 -0.42779994 0.32773954 -0.15539718 0.08887468 -0.118199766 -0.11335791 -0.26941773 -0.25067344 0.34628946 0.1559939 -0.24418947
12892 0.011473419 0.093644306 -0.02568798 -0.12680107 0.09634077 -0.02909153 0.0734583 -0.158823 -0.10116902 0.09354027 -0.1255196 0.030039437 0.15225343 0.11833274 -0.0867352 0.1642738 0.06841574 0.08996771 -0.10395384 -0.16400784 -0.1376428 -0.017924834 0.18350525 -0.100860536 -0.2447702 0.16224575 0.12753417 0.10541474 0.33670074 -0.059063908 -0.03731712 0.28964096 -0.03846808 0.28597626 0.11643534 -0.32586288 -0.23745984 -0.09204964 0.0024357645 0.004912652 0.060226914 -0.2632323 0.13545114 0.19705342 -0.1978063 -0.10667358 -0.088200726 0.01842619 -0.027147373 -0.04080178 0.28819117 -0.2593983 -0.052984923 0.3171484 0.15921944 -0.05223104 -0.077180915 -0.014468324 -0.00085171487 -0.13932146 -0.11992804 -0.076897755 -0.02372409 0.13505392 0.10842786 0.034802444 -0.16818522 0.124815874 0.048155658 0.26797244 -0.23124635 -0.22299628 -0.1669701 0.02952366 -0.21081042 -0.007322041 -0.06177416 -0.044491645 0.21479061 0.24581358 0.07844087 0.24392328 -0.16384515 0.061339825 0.1821578 0.10076195 -0.009095681 -0.1522219 0.021695692 0.009153009 0.11427903 -0.20031504 -0.04932861 -0.07702028 0.06368369 0.108492665 -0.013991026 -0.045151882 0.2523644 0.049778964 0.011644993 -0.2351879 -0.12842152 0.09044166 -0.008510887 -0.0836243 0.0122506 -0.056331992 0.047979265 0.009799242 0.122470856 -0.103486836 0.29435596 -0.181845 0.00018423564 0.023336649 -0.36440983 -0.3193191 0.3958039 -0.04240089 0.061961476 -0.05226344 -0.13420613 -0.2827834 -0.3103005 0.46205285 0.033208735 -0.16468725
12339 0.09781175 0.04802266 0.10902599 -0.092616625 0.04874032 0.1157719 -0.160857 0.04187494 0.11955716 0.15513808 -0.13135414 0.18052529 0.14743724 0.12269157 0.014141747 -0.15812875 0.18437709 0.01381846 -0.08064237 0.046566423 -0.057871588 0.019810999 0.051188707 0.06360128 -0.3385558 0.06649724 0.26390404 -0.04725755 0.32171246 0.033742998 -0.06201988 0.21683195 0.04618995 0.19167718 0.13688716 -0.20719752 -0.16554557 -0.35261524 0.051703807 0.07337219 0.044347595 -0.2513367 0.014226718 0.24394193 -0.22316453 -0.15597115 0.060137037 0.20038806 0.11474045 0.037790492 0.097184114 -0.2182787 0.022565883 0.128462 0.19331414 -0.20133449 0.010504187 0.10767016 -0.05943297 0.012381461 -0.07894555 0.090962365 -0.0090629645 -0.06486302 0.16321705 0.10480634 -0.18826681 0.14910461 0.10234327 0.17888622 -0.069753654 0.01631837 -0.1293438 0.026189532 -0.12424212 0.08409759 -0.025118748 -0.033735886 0.10404428 0.13286005 0.1524182 0.19745153 -0.106929295 -0.081353165 0.16278547 0.053657632 0.0080005005 -0.25516346 0.048485633 -0.14640886 0.123861134 -0.121780634 -0.031816926 -0.08665061 0.109560214 -0.032416165 -0.060468268 -0.091506146 0.079731315 0.019988852 -0.1121028 -0.1222429 -0.1179276 0.16575727 0.034279287 0.04909233 0.05596273 0.19441928 0.053849187 0.11452765 0.034891512 -0.2486249 0.28170922 -0.08060667 -0.0806436 0.03375236 -0.13301471 -0.1473825 0.23481144 -0.013385302 0.01872257 0.12090969 -0.07082309 -0.25148052 -0.26120833 0.23418985 0.17829017 -0.18978722
14730 0.028873404 -0.0153657 0.14179054 -0.1481229 0.06084349 0.053365976 -0.038597763 0.06003813 -0.008507902 0.09044839 -0.23212016 0.20110576 0.10848741 0.08011169 0.039549842 -0.07881775 0.12121183 0.14643459 -0.12628256 -0.05363871 0.087825455 0.03693475 0.12128104 -0.104373455 -0.24022841 0.02099617 0.26841968 -0.098208584 0.14067517 0.0451375 -0.064221025 0.1322904 0.031440396 0.06680629 0.14762972 -0.24239907 -0.15465769 -0.25068504 -0.021171188 0.079262905 0.01651619 -0.291205 0.04903885 0.1409611 -0.18504496 -0.06741478 -0.031079903 0.18087104 0.13847858 0.3108438 0.053597935 -0.27454165 0.046806715 0.20417988 0.12980409 -0.20203705 -0.004134075 0.18113464 -0.05776585 -0.03371132 -0.017890092 0.07979927 -0.04600151 0.16299178 0.09079839 -0.017089123 -0.11540447 -0.01823542 0.09389376 0.25250193 -0.11236876 0.07242967 -0.120974 -0.035910804 -0.016770784 0.090398185 -0.0008277618 -0.02594368 -0.109211735 0.21704683 0.17523119 0.43489644 -0.20115563 -0.122936584 0.32551482 -0.07614502 0.035665452 -0.18330806 0.054945853 -0.093045294 0.18518656 -0.21333246 -0.019018866 -0.069052204 0.09880176 0.098548174 -0.14356989 -0.043831564 0.18987837 0.08332846 -0.06459361 -0.15872653 -0.03274428 0.1979426 -0.0030717852 0.07094526 0.14319366 0.215766 -0.023591485 0.051823717 -0.08414984 -0.13894773 0.13910066 -0.129725 -0.015286187 -0.012649259 -0.1939119 -0.08886937 0.17192951 -0.054523144 0.030699786 -0.020396974 -0.07458016 -0.15096544 -0.2521358 0.25399366 0.18388678 -0.16269049
13244 0.09507484 0.04551003 0.11799979 -0.17926723 0.008492856 0.028384693 0.07133649 0.028527051 0.028629808 0.062793665 -0.083960146 0.28887033 0.043243144 0.09104943 0.08624123 -0.08840117 0.14023899 0.016041994 -0.12180339 -0.065282546 0.032100502 -0.013640533 0.14450441 -0.060155407 -0.18712471 0.051768772 0.14189476 0.050365057 0.20103188 0.025615191 -0.03541163 0.17019567 -0.05889359 0.15401147 0.1721775 -0.24256134 -0.04548312 -0.29988134 0.07170097 0.008581035 0.011713656 -0.40675136 0.11010642 0.13235573 -0.11706761 -0.055553947 -0.10737275 0.09622859 0.16607392 0.36387143 0.110814445 -0.3937296 -0.22769663 0.22876087 0.29558554 -0.23062897 0.04373237 0.101575226 -0.0050702887 0.012290544 -0.06716161 0.034465678 -0.15546922 0.05029357 0.23539767 0.070880555 -0.20726041 0.08778575 0.1683818 0.10004188 -0.21426944 -0.0042150705 -0.09374328 -0.04363431 -0.1028432 0.12251332 -0.062212985 -0.031776227 0.005730706 0.09246294 0.12630202 0.27041343 -0.06522367 -0.018196372 0.19455796 0.09395232 -0.057589266 -0.15402633 0.030044984 -0.07250309 0.14470221 -0.25292376 -0.033720285 -0.07221106 0.14132796 0.03318255 0.02233971 -0.08360156 0.175289 0.0653481 -0.067238644 -0.2613308 -0.14722922 0.23493473 0.0035052404 0.21111189 0.06339334 0.2761346 -0.14754973 0.115566984 -0.014720393 -0.21075791 0.3223857 -0.09373389 -0.016478451 0.03418856 -0.06095495 -0.109578 0.266676 -0.05494457 0.04905578 -0.038724013 -0.15696032 -0.31639412 -0.2715483 0.09199941 0.1335294 -0.16061203
12264 0.13765354 -0.011108081 0.071233675 -0.20279318 0.0061543295 -0.0013519832 0.035899244 0.03450757 0.18686485 0.17501459 -0.041027244 0.05704705 0.21325359 0.11057736 0.11902934 -0.107287124 0.07217992 0.11370512 -0.19277634 -0.028324243 0.07032418 0.13050838 0.06594168 0.01984795 -0.17253134 0.11151693 0.18399534 -0.05664682 0.2457435 0.009359226 -0.09818401 0.20600702 -0.107906535 0.17623694 0.20930813 -0.20091566 -0.20617276 -0.20439458 0.06284327 0.06866663 0.06828291 -0.2426074 0.016552767 0.28125107 -0.22754765 0.007143795 -0.1068819 0.12190784 0.1556177 0.22958125 0.16995215 -0.30681136 -0.14138095 0.16781855 0.10251849 -0.091654696 -0.09338488 0.04383956 0.13491884 -0.11024886 -0.12530269 0.12716928 -0.12581338 -0.015612668 0.038795814 -0.007199482 -0.1004658 0.12894781 0.28684726 0.0810367 -0.079388015 0.09867851 -0.18717535 0.11166724 -0.11895369 0.12080622 -0.010908064 -0.025315164 0.14477296 0.1609886 0.29726315 0.1253634 -0.1073157 0.16397497 0.23354198 -0.07732367 -0.0035017538 -0.24984576 -0.075274475 0.12979397 0.17873755 -0.19001971 0.0063672177 -0.061199658 0.20146205 0.06653398 -0.057200715 -0.070748165 0.19392423 -0.14495319 -0.14260161 -0.22044808 -0.068838134 0.23132099 -0.10156205 -0.107508205 0.17251886 0.10650969 -0.007817477 0.18566987 0.089830905 -0.11136464 0.28447327 -0.097680435 -0.060720485 0.031526532 -0.2569911 -0.10268592 0.1916534 -0.121150374 0.024716625 0.105289295 -0.11001989 -0.28468522 -0.38498315 0.2794639 0.064246215 -0.041763447
11618 0.11703145 0.13167721 0.08695209 -0.084474154 0.12902611 0.11680375 -0.14664125 -0.004223562 0.16114263 0.26367664 -0.10260914 0.07041727 0.2222007 0.04293793 0.08526901 -0.15186644 0.09721547 0.07385438 -0.075270906 0.1150507 0.13140577 0.01020985 0.14598256 0.10647813 -0.18234384 0.21492453 0.3451777 -0.110849574 0.34170303 -0.056325316 -0.123612784 0.26201996 -0.0707512 0.04730324 0.22367841 -0.22821242 -0.16240712 -0.2527968 -0.017550746 0.102199346 -0.05076013 -0.3911668 -0.1329186 0.36221263 -0.13912208 -0.058115344 -0.07859408 0.18149616 0.0030745154 0.32042688 0.18813473 -0.25872716 0.09507207 0.1554348 0.13999031 -0.0146020055 -0.033300716 0.034355 0.10507232 -0.12733802 0.04824143 0.07433692 -0.13826159 0.07288576 -0.051948335 0.02321593 -0.026816856 0.061562728 0.086131886 0.10034228 -0.18610688 0.15643983 -0.15202607 0.17117028 -0.08826388 -0.007829928 -0.0689853 -0.06244241 0.06695129 0.040723376 0.15315554 0.15913129 -0.19239996 -0.05521939 0.15519606 -0.07930195 0.09549798 -0.27249628 0.04126003 0.014546251 0.22263147 -0.046765514 -0.02167156 0.02404151 0.11529858 -0.04151028 -0.20972298 -0.07685747 0.13495581 -0.08795462 0.008142213 -0.121063046 -0.051820125 0.28252655 -0.009091364 -0.089980915 -0.032074206 0.11811796 0.059743725 0.20220909 0.09017442 -0.19514695 0.32549912 -0.16830012 -0.0006187018 0.096433036 -0.23338991 -0.16824509 0.18907581 -0.10142109 -0.012283474 0.16710307 0.014320897 -0.27551442 -0.36700583 0.27693805 0.030327767 -0.19943917
14747 -0.101224534 0.16263686 0.098740295 0.002670791 0.008593527 0.2286575 -0.08103204 -0.20416601 -0.05173192 0.09989296 -0.30077073 0.07764076 -0.2119334 0.083924666 -0.09448571 -0.15400888 -0.012973665 0.1311691 -0.06549272 -0.0094026 -0.027951473 -0.22507015 0.21030273 -0.07910104 -0.19518995 0.004445913 -0.08661723 -0.031573366 0.3289274 -0.30932245 0.011500963 0.16653013 -0.064390205 0.16622737 0.0005018695 -0.18834783 -0.08909051 -0.062165104 0.03392177 0.05083675 0.052867904 -0.32659847 -0.043660074 0.10605628 -0.23266508 -0.022176035 0.02819709 0.102573514 0.14190936 -0.21265115 0.068942495 -0.28198162 -0.18675944 0.35713583 0.27972448 0.12004519 -0.08817427 -0.26527035 0.10073232 0.21955357 0.029504605 0.14536111 -0.1324607 0.2074814 -0.09456922 0.0023453091 0.15773773 0.0808437 0.00682728 -0.077941 -0.19891681 -0.26433524 -0.05932749 0.22338888 -0.14605246 0.009819222 0.035831764 -0.05963526 0.23489943 0.115889624 -0.058264866 0.039383028 -0.32232183 -0.041603163 0.09152877 -0.08094798 0.062423386 -0.08062571 0.20683704 -0.08055299 0.16806464 -0.048282206 -0.15532064 0.079431385 0.15737776 -0.15137218 -0.06426968 -0.20325343 0.2037809 0.08484527 0.06069337 -0.093266904 -0.116801165 0.29151332 0.00549497 -0.0836703 0.102060765 -0.10905148 0.07577231 0.08839463 -0.039939933 -0.20492306 0.1554448 0.024061026 0.14573231 -0.10725099 -0.16951846 -0.18372825 0.24664554 -0.17710209 0.19972724 -0.08030984 -0.13773288 -0.236421 -0.36856523 0.37532124 0.12338197 -0.1751982
14100 0.18018667 0.07579578 -0.001613893 0.04212831 0.1169637 0.14222722 -0.06579862 -0.005604236 0.13368678 0.20139953 -0.11851447 0.1352318 0.23051967 0.118138246 0.09414028 -0.21446781 0.21758156 0.15331364 -0.060230006 0.11645762 -0.06154326 0.1196475 0.21020658 -0.09920525 -0.21839447 0.228679 0.16853665 -0.007877768 0.30993608 0.0014528807 -0.123422325 0.32903743 -0.07004599 0.12008576 0.07213383 -0.31236467 -0.16829874 -0.23452802 -0.20540673 0.021205394 0.042699914 -0.25130346 -0.12622404 0.14108187 -0.09881082 -0.07982472 -0.033661276 0.29490122 0.21025749 0.47218782 0.071918905 -0.37522402 -0.0023467632 0.21033746 0.31657347 -0.052301172 -0.0848885 0.09878732 0.12891482 0.0058366912 -0.106591314 0.038472563 -0.13925785 0.017231377 0.11015715 0.04034641 -0.00022721746 0.16356511 0.20995544 0.21343847 -0.1468785 0.013678214 -0.077530265 0.25417727 -0.10931099 0.029032605 0.019628383 0.07890062 0.16060452 0.08447932 0.26151195 0.0640198 -0.13591349 -0.098648936 0.01126286 0.033686403 0.03447257 -0.31088248 0.013707678 -0.010760121 0.20563991 -0.16547437 0.062357415 -0.089323565 0.09582303 0.03241284 -0.20667665 -0.06372883 0.124110684 -0.15792632 -0.20671655 -0.11589434 -0.11716832 0.13830791 -0.08708048 -0.040312648 -0.04944561 0.22652851 0.013225088 0.17053413 0.02943978 -0.17216094 0.27200806 -0.10479499 -0.054685645 -0.048705153 -0.24933156 -0.3031008 0.2278242 -0.060097992 0.047764253 0.06367892 -0.012048481 -0.4030369 -0.30658892 0.30805147 -0.009393694 -0.24584427
11057 0.12009051 -0.0605923 0.19543979 -0.07924993 0.11343079 -0.049267523 -0.09916001 0.088394076 0.076115385 0.019015022 0.20797445 0.15703045 0.32553783 0.049388703 -0.09415596 -0.21896352 0.028101662 0.08998212 -0.12812713 0.12508507 -0.008239749 0.018269885 0.047793213 0.13567942 -0.3116905 0.09088447 0.16765028 -0.05847593 0.18038365 0.022135245 -0.026764322 0.34266272 -0.07684128 0.12687027 0.21170172 -0.26300058 -0.10421085 -0.2741819 -0.13221855 0.096318565 0.03189184 -0.3696946 -0.18916146 0.13408817 -0.30032268 -0.014416039 0.084840626 0.20877798 0.19185346 0.3010119 -0.015460735 -0.3374383 -0.11889802 0.18531674 0.21038422 -0.13445187 -0.11528354 0.23983762 -0.13687447 0.058136836 -0.061324153 0.2202659 -0.19639587 0.045042764 0.0403989 0.0023999135 -0.22041045 0.24612194 0.21589297 0.11209412 -0.1885034 -0.0702078 -0.16939992 0.14991005 -0.023452507 0.18040943 -0.19185998 0.020752206 0.13644838 0.20764118 0.18636689 0.13527511 -0.13331726 -0.002026964 0.19285385 -0.110650204 0.01580325 -0.26311186 -0.025868446 0.071147785 0.023688534 -0.08918001 -0.12018807 -0.120614484 0.192059 0.008017167 -0.08774934 -0.13643788 0.15785405 -0.01643219 -0.20787057 -0.15708558 -0.122233704 0.18029162 -0.007477735 -0.015055393 0.111686744 0.13464302 -0.07598265 0.13057765 0.046145767 -0.14162001 0.31945014 -0.10370333 -0.094006844 -0.0012450308 -0.34201112 -0.23367335 0.18996492 -0.10085801 0.058749907 0.16163006 -0.0053511863 -0.41787675 -0.16231655 0.10160185 0.05044336 -0.18603706
12266 0.14296164 0.080087915 0.11989619 -0.14819016 -0.04680467 0.20180288 0.014242445 -0.067405626 0.15884662 -0.04165467 0.014133796 0.10223621 0.10191674 0.19829394 -0.058404688 -0.044889368 0.14533654 0.096826375 0.062534556 0.28031382 0.010367612 -0.14958774 0.045555014 0.029033162 -0.17839935 0.21700445 0.14852235 -0.02569276 0.2717135 -0.037377052 0.028928624 0.109753035 -0.0358668 0.10074539 0.22387302 -0.3139254 -0.13410261 -0.10439494 -0.05104977 -0.0014028595 0.07955577 -0.09499954 -0.010889212 0.18233632 -0.09485269 -0.14816609 -0.14784592 0.049791135 0.10937088 0.27849355 0.30139557 -0.4268423 -0.085917145 0.13752073 0.30387026 -0.09479025 0.016864195 0.0011593746 0.13713616 0.17689875 0.025610548 -0.043029234 -0.23235816 0.16897754 0.27650675 0.16034487 -0.25517845 0.2559914 0.095209114 0.1864091 -0.26543406 -0.16551265 -0.11497898 0.1312288 -0.29411292 0.083659716 -0.16865385 -0.08375893 0.058311 0.1375484 0.020707374 0.11273647 -0.16811886 0.086092636 0.16638388 -0.046289567 -0.016430728 -0.07759816 0.0689719 -0.06382915 0.22836466 -0.38619488 -0.0254796 -0.11545174 0.044588197 -0.0600613 -0.02989895 0.046806697 0.18145092 0.06712306 0.0375898 -0.24796544 -0.14252347 0.20538944 0.003497283 0.0633496 0.060388718 0.016797468 -0.12925304 0.15157324 0.02247551 -0.101059414 0.30959675 -0.13629252 -0.07945249 0.061272196 -0.21543871 -0.26299986 0.19402269 -0.10563884 0.0006352404 0.07363793 -0.17336239 -0.47233236 -0.3319613 0.26720446 0.08790415 -0.21930417
10693 0.09420065 0.23493448 0.22593117 -0.041633766 0.093959205 0.44741824 -0.14527749 0.08397649 0.060935207 0.19347987 -0.12195618 0.14836323 0.20806012 0.05505125 0.028404308 -0.05938806 0.07430472 0.019685283 -0.2613623 0.05392172 -0.03559097 0.24348593 0.14463371 0.00924301 -0.13248226 0.05245634 0.27946544 -0.02024318 0.39572573 0.125182 -0.19131169 0.30250263 -0.24424575 0.1822128 0.13743658 -0.28893846 -0.13725513 -0.27222642 -0.019738467 0.07535809 0.061835825 -0.21411484 -0.15667138 0.08056417 -0.1407774 -0.18861715 -0.034148317 0.15870161 0.24261957 0.17067826 0.06102164 -0.30235207 0.07304436 0.19371304 0.2288817 -0.28699344 -0.08265294 0.05727906 -0.094852924 0.1607237 0.055751987 0.09438138 -0.10674894 0.11998882 0.22597806 0.19117081 -0.09903448 0.20085107 0.08159512 0.05334927 -0.035134435 -0.111138426 -0.21448767 0.2323403 0.025277685 0.04335676 0.019075895 -0.09683726 0.09303939 0.17338023 0.10990198 0.23382418 -0.21266076 -0.09082861 0.2168394 0.047718823 -0.049565524 -0.21218736 -0.06718251 -0.13911797 0.108219504 -0.15393317 -0.03381119 -0.122854345 0.1417438 0.051996995 -0.14469977 -0.3116818 0.22829196 -0.10410883 0.0427052 -0.07098055 -0.08367077 0.28761506 -0.061205707 -0.015757859 0.07974133 0.20329466 0.007861142 0.08075098 0.09939405 -0.1877685 0.25227568 -0.111718364 0.017525338 -0.08346761 -0.1655746 -0.23235923 0.26808637 -0.05801132 0.020142708 0.1125361 -0.11010981 -0.2793115 -0.27382237 0.11924941 0.009404315 -0.11517036
11433 0.08079822 -0.06195826 0.13539857 -0.068720326 0.05059692 0.039483707 -0.11210268 0.12105073 -0.05212274 0.18268445 -0.011347476 0.054681327 0.25748238 0.03486997 -0.023960138 -0.23287746 0.09653605 0.041263588 -0.06332703 -0.028595833 0.027126934 -0.02479526 0.110960945 0.06421397 -0.22281672 0.1804136 0.15596512 0.00590719 0.2763446 0.007207426 -0.06934862 0.382375 -0.061414167 0.0969632 0.19816881 -0.19247362 -0.1097092 -0.29096994 -0.13240875 0.12692614 -0.012725225 -0.31745738 0.025448767 0.26485604 -0.037097946 -0.00890378 -0.087595195 0.025082937 0.31254017 0.2898539 0.12329823 -0.25543666 -0.016092006 0.3263372 0.248744 -0.109616384 -0.041866478 0.103838965 0.036115237 -0.13188317 -0.13278 0.14280422 -0.14677648 0.06191518 0.010676715 -0.004509699 -0.16026631 0.15646341 0.07617127 0.09699799 -0.1235819 0.094166584 -0.16174044 0.0347675 -0.011681849 0.05411251 -0.0913838 -0.0038296243 0.14128393 0.17424773 0.14010356 0.18811117 -0.12329618 -0.22019172 0.1689216 0.07527041 0.06605489 -0.26182032 -0.046392575 -0.018220004 0.21689343 0.023544578 0.055873245 0.041107632 0.1385396 -0.09616952 -0.17950834 -0.1459744 0.09426376 0.003208976 -0.0022936931 -0.015291998 -0.0058638775 0.24743396 0.105020024 -0.056140687 -0.018288035 0.17541428 -0.06222363 0.20274127 0.17912032 -0.23917817 0.09115078 -0.09647327 0.007824177 0.072212 -0.21804224 -0.23720786 0.17429662 -0.14931737 0.16569373 0.07904083 -0.1487685 -0.20516032 -0.26045743 0.38021046 0.15968148 -0.22006732
10800 0.143931 0.031235008 0.062902056 0.16261443 -0.030750599 -0.071598984 -0.11115099 -0.14484374 -0.08382735 0.03665891 -0.10361066 -0.084524654 0.049524326 -0.03604738 -0.1388765 -0.096989006 0.0930437 0.01422846 -0.20505784 0.08063274 -0.049959276 0.26543638 0.13847779 -0.082405195 -0.10324241 -0.012072653 0.3773912 -0.17868018 0.33658007 -0.029145818 -0.21089858 0.2384825 0.09100649 0.20299685 0.13111944 -0.26601693 -0.24614535 -0.14679983 -0.15005547 0.10043493 0.05164921 -0.44056132 -0.010258612 0.14476502 0.09485313 -0.062071264 -0.13822939 -0.0074107153 -0.0020791895 0.19887143 0.252203 -0.1896114 -0.094408795 0.11210711 0.14726359 0.12872228 -0.028558942 0.09028402 -0.060207475 0.070738584 -0.21813253 -0.12656413 -0.29136825 0.10062001 0.3508331 0.056829534 -0.18183279 0.056224633 0.16479462 0.2981229 -0.05529538 -0.20315616 -0.2418081 0.01568124 -0.32204592 -0.023886655 0.032750737 0.11071488 0.124533996 0.29935026 0.05136029 0.044121128 -0.18015166 0.11655092 0.0806741 0.02545071 0.01944209 -0.20588255 0.1298919 0.21577267 0.16352607 -0.11141295 -0.09933255 0.26583162 0.23096453 0.15290368 0.08268966 0.054976657 0.12802829 -0.102948084 0.08977594 -0.23730993 -0.114748165 -0.08276132 0.079345964 -0.15225317 -0.044660114 0.19738969 0.20550393 0.16956657 0.064530544 -0.044794638 0.28334007 -0.12160423 0.029737776 -0.17159012 -0.32514518 -0.21332124 0.39830136 -0.25751957 0.08426335 0.15145764 -0.17779294 -0.5036116 -0.38622794 0.27442655 -0.047710355 -0.16140507
10821 0.015177071 0.024736928 0.038335405 -0.15861231 0.21571961 0.15118565 -0.11618711 0.07067756 0.29514658 0.21437085 -0.14052135 0.09535821 0.18236929 0.13700032 0.11860039 -0.010389243 0.109951414 0.108542524 -0.19825256 -0.04429387 -0.072563075 0.023074808 0.0851888 -0.08637159 -0.10429817 0.1728798 0.2468162 0.07958269 0.33613223 0.005513356 -0.097497575 0.26745272 -0.13325226 0.13034746 0.066400744 -0.23736472 -0.020163434 -0.20432475 -0.0051837997 0.044129796 0.0020868499 -0.3535261 -0.03793184 0.23123175 -0.122829095 -0.17387895 -0.05245791 0.12785032 0.19423978 0.038181204 0.08450194 -0.30299503 -0.14143473 0.2751743 0.11432024 -0.18064962 0.006118322 0.063890584 -0.0427932 -0.09117135 -0.08107377 0.11784493 -0.09306404 0.10240798 0.10765318 -0.008715592 -0.1642031 0.13465495 0.124123454 0.13560948 -0.19600198 -0.0750292 -0.20847544 0.050233398 -0.11750136 -0.06752227 -0.07933926 -0.08690871 0.1639693 0.139372 0.23844399 0.11143946 -0.19435978 0.057695474 0.15615107 -0.03489913 -0.0762753 -0.31829828 0.013760348 0.022459505 0.14113154 -0.16579564 0.004369488 -0.091426745 0.1146592 -0.10575055 -0.03908261 -0.09297962 0.17416342 -0.15085164 -0.16119777 -0.15597549 -0.088450804 0.18353039 -0.048334733 -0.005058283 0.07051393 0.16801758 -0.006874128 0.13034496 -0.0754706 -0.2610106 0.40322545 -0.11541294 0.061473913 0.060640123 -0.34475437 -0.17655332 0.34388298 -0.1878584 0.056614902 0.077763095 -0.04057153 -0.18409787 -0.3141965 0.27290085 0.05895513 -0.09273652
14122 -0.020248225 -0.007575897 0.18941675 -0.110339426 -0.006054838 0.10707293 -0.08721726 0.10205941 0.20782763 0.21748216 -0.09091648 0.16772404 0.056993395 0.114144996 0.1532288 -0.10213298 0.09284517 0.10647643 -0.3973759 -0.11511855 0.044013698 0.1275329 0.20432277 0.08408858 -0.272362 0.17768148 0.35706055 -0.05380868 0.34307104 -0.043014117 0.014082992 0.3378382 -0.14341594 0.103541404 0.2213226 -0.3129574 -0.09571739 -0.18531753 -0.031315394 0.09821084 -0.008144783 -0.26330873 -0.03737074 0.08405875 -0.18128209 0.015223021 -0.12378096 0.2966626 0.14198242 0.12738672 0.07461011 -0.44610107 -0.03245842 0.18403335 0.1436062 -0.14419286 -0.11195428 0.09093735 0.12593278 -0.002074997 0.006005575 0.11794745 -0.18004507 0.075428404 -0.056155566 0.011648971 -0.14668824 0.10411534 0.13821816 0.11019049 -0.13218011 0.062240522 -0.17277373 0.017976709 -0.16913868 0.08927616 -0.16335833 -0.073634796 0.15704237 0.08551395 0.1805895 0.13192692 -0.24488945 0.008831912 0.19545372 0.10013098 -0.08594587 -0.29974446 0.076947235 0.06540511 0.07240907 -0.22606285 -0.042085476 -0.041685283 0.12170787 -0.0042730463 -0.08864941 -0.080274045 0.16051705 -0.04036324 -0.05790293 -0.08593796 -0.033185985 0.290795 -0.0034004853 -0.00742272 0.18100442 0.23868798 -0.010535447 0.13306928 -0.037179828 -0.19519912 0.31027284 -0.14673483 0.021405905 -0.055476297 -0.3103751 -0.22274888 0.16341408 0.0038111436 -0.009604522 -0.07549004 0.034175243 -0.2382751 -0.31865808 0.2989493 0.034113064 -0.16093904
10721 0.07877344 0.011141436 -0.15934418 -0.045747127 -0.04792827 0.08465968 -0.12898414 0.04524012 0.21495284 0.18797427 -0.2335513 0.15939483 0.2576387 0.058173712 0.16402815 -0.34056312 0.11004676 0.13716413 -0.19981559 0.038996607 -0.02425023 0.1430154 0.1317051 0.049312353 -0.27693084 0.19476672 0.32475668 -0.17527035 0.2347248 0.1205041 -0.11933503 0.12994732 0.023968866 0.14863677 0.03942612 -0.24084525 -0.15562594 -0.29164377 0.087858364 -0.07618108 -0.024780158 -0.39880615 0.0105944285 0.25938755 0.011223042 -0.070261545 -0.14055142 0.17986035 0.20356014 0.1373031 0.089350134 -0.2334298 0.0322199 0.005536594 0.15474011 -0.115322135 -0.015868835 -0.061308324 0.11738561 0.11814387 -0.11378251 -0.0653416 -0.14267398 -0.022079162 0.051627442 0.02606817 -0.16652165 0.06321786 0.030518962 0.0020725862 -0.01254808 0.10649722 -0.21738225 0.13052775 -0.03954091 0.017379273 -0.06184102 -0.027883621 0.01719247 0.045192894 0.24454269 0.10911416 -0.14007755 -0.086730294 0.0022541885 -0.055031657 0.03175193 -0.181931 0.0283028 -0.04631712 0.19553748 -0.24021244 -0.02257469 -0.06579794 0.26117167 -0.06370179 -0.20960459 0.0028270963 0.017915126 0.03719106 -0.022519166 -0.14455983 -0.05717388 0.15229633 0.0012992495 -0.13107352 0.05249913 0.2319496 -0.19572599 0.12145028 0.014440169 -0.15030406 0.31664905 -0.3123336 -0.0009334356 -0.01203485 -0.23306324 -0.11102952 0.25559372 -0.12611532 0.07949862 0.15676941 -0.08068713 -0.30542585 -0.31032678 0.2276225 0.10441229 -0.1084955
14107 -0.07557348 0.03190308 0.1250028 0.0761912 0.07142867 0.17390434 0.0063274684 0.04554695 0.021044279 0.045752797 -0.08360158 0.018470224 0.0567605 -0.01213038 -0.063701764 0.06508648 -0.0031574382 0.0788156 -0.24932113 0.059642956 -0.118665874 0.099054754 -0.028961675 -0.05537419 -0.20352553 -0.031315725 0.40013185 -0.08104855 0.469103 -0.12664655 -0.10615137 0.15523386 0.060140066 0.22508435 0.2139721 -0.19481803 0.0006065267 -0.44201583 -0.13869433 -0.0046117357 -0.06956835 -0.255208 0.03802714 0.25734067 -0.080453746 -0.2629999 -0.10120208 -0.09173057 -0.14390141 0.20261295 0.17838919 -0.16160382 -0.10339883 0.21950194 0.2180516 -0.052567117 -0.119615905 0.2023305 -0.065826304 0.052134946 -0.061590705 -0.12219068 -0.24597609 0.042209614 0.19760424 0.000104280174 -0.17301056 0.050747007 0.057691783 0.24405524 -0.06775261 -0.06609425 -0.35886386 -0.02423108 -0.34936342 0.16772808 -0.17596637 0.15164506 0.18398273 0.14380127 0.24139054 0.023398772 -0.44560644 0.10292121 0.28504065 0.143555 -0.22827429 -0.39799845 0.106907055 -0.02862741 0.10045903 -0.19602343 0.070473745 0.09186848 -0.017265126 -0.003332771 0.08377372 0.007280856 0.23631895 -0.019390786 0.1774149 -0.03539552 -0.19241723 0.014610011 -0.15219365 0.047924694 0.09095843 0.16417152 0.11508238 0.2919633 -0.0822643 0.030300558 0.26442373 -0.16529363 -0.15419649 0.11805921 -0.33580512 -0.38705248 0.29548475 -0.0066952566 0.093033366 -0.04684431 -0.17547144 -0.2664306 -0.26631156 0.29483926 0.03566713 -0.21395063
13796 -0.02280991 0.038050514 0.22571775 -0.08938224 0.07669849 0.07978091 0.038846396 0.029272385 -0.012908326 -0.036629528 -0.04937494 -0.11410873 -0.040487267 0.029422028 0.048035868 0.062054485 -0.012745792 0.02836889 -0.05440839 -0.010883226 -0.1255686 0.07338994 0.1191822 -0.1840109 -0.018537201 0.034589127 0.27156907 -0.07655668 0.288376 -0.11554253 -0.023031563 0.07981801 -0.014229625 0.1736754 0.223814 -0.24915978 -0.20052594 -0.16847187 -0.037698492 -0.014975058 -0.18151201 -0.42540103 0.10517564 0.15831773 -0.04142618 -0.12873223 -0.10051689 -0.07836317 0.0076688356 0.28383738 0.2441529 -0.18571533 -0.13998073 0.17674991 0.12018604 -0.13950846 -0.029694209 -0.059888586 -0.034885544 0.072520144 -0.119027525 -0.03917299 -0.05651679 0.1954161 0.18658689 0.09751015 -0.1239693 0.10115888 0.19639754 0.37621814 -0.18173906 -0.037303682 -0.120731235 -0.04703341 -0.17394154 0.08976163 -0.03677629 -0.004735103 0.074070185 0.16580808 0.11169432 0.255446 -0.09137832 0.015473019 0.17616677 -0.09489136 -0.0074393568 -0.16391866 0.0051263273 -0.0629493 0.02734621 -0.08161333 -0.12169111 0.07477063 0.2217875 0.22294721 -0.082058944 0.014847744 0.328249 -0.10109832 0.11760212 -0.26528668 0.0064095883 0.07134005 0.0681341 0.05331174 0.13091572 0.120585516 0.06766218 0.21447529 0.018495869 -0.11873146 0.18670757 -0.249165 0.097968206 0.046477478 -0.21432662 -0.29110223 0.28946424 -0.21867643 0.018327443 -0.078287825 -0.1610378 -0.28858486 -0.24284844 0.21964303 0.012226247 -0.30526382
13232 -0.049677063 -0.053177845 0.090811886 -0.10442301 0.071944624 0.12516625 -0.15941031 0.2566177 -0.00869854 0.20525189 -0.0014549082 -0.011584696 0.2805422 0.22375573 0.11361676 -0.09590548 0.06858117 0.03647193 -0.20303781 -0.02613378 -0.056241095 0.13343927 0.19104761 -0.012214152 -0.23135439 0.24109016 0.36560374 0.048810367 0.3614833 0.025058342 -0.18208149 0.25265712 -0.10711142 0.120644204 0.21733427 -0.13130452 -0.1157698 -0.06396392 -0.04628263 -0.041322257 -0.04003527 -0.32543203 0.059834402 0.17792241 -0.010942202 -0.03245387 -0.005056572 0.22610551 0.31676576 0.0968872 0.13626759 -0.103387214 -0.017315408 0.27995363 0.01684549 -0.036941186 -0.077420145 -0.06550335 -0.05716338 -0.033133272 -0.2821911 0.10587132 -0.03207435 0.08659734 0.19369629 0.1284785 -0.284304 0.055763822 0.019482318 0.25437498 -0.06897016 0.017337872 -0.21335511 0.0948007 -0.20632347 0.09929678 0.073260486 0.085697494 0.17627028 0.11586078 0.22291803 0.22360857 0.02030618 0.011489877 0.13288866 0.109072566 -0.13821805 -0.12894145 0.08603138 -0.09417117 0.31555974 -0.24020046 0.031440627 0.07475913 0.15191488 -0.1038961 -0.28167084 -0.22488408 0.17790276 0.019321252 -0.09559022 0.074256 0.050499696 0.08637266 0.10156045 -0.114941366 0.03462078 0.33655256 -0.112003945 0.26576334 0.16889624 -0.07198547 0.39914733 -0.1977001 -0.046068408 -0.10194625 -0.35533893 -0.30967858 0.44886947 -0.17563625 0.05279357 0.05735105 -0.13838795 -0.3526799 -0.2298002 0.29908577 0.068390034 -0.1297164
12953 0.010307397 0.087725475 0.003664243 -0.19902475 0.09482661 0.11575796 0.0133736795 0.023367824 0.21356937 0.09356155 -0.11985045 0.10729084 0.20346284 0.08712743 0.106559984 -0.14374731 0.13965711 -0.019699961 -0.08595459 0.17325471 0.05574565 -0.008944023 0.1300026 -0.018728854 -0.21218234 0.16463922 0.40928286 -0.15146177 0.18035634 -0.02760044 -0.14210922 0.110128194 -0.022601213 0.04181978 0.21832493 -0.19607645 -0.14739475 -0.214374 0.06713452 -0.030447239 0.06552258 -0.33176464 0.039126445 0.39603484 -0.23818275 0.07099992 -0.07423728 0.1500609 0.12784979 0.2004354 0.13480929 -0.35549918 -0.1846006 0.14743966 0.21877097 -0.1447815 -0.15078656 0.007938101 0.0961563 -0.12355461 -0.03708409 -0.053652063 -0.10296087 0.032699067 0.09762403 0.074549705 -0.13339767 0.09001367 0.10595163 0.12700249 -0.28569853 0.055218082 -0.017870257 0.13534121 -0.3296168 0.17339626 -0.10127378 0.061587982 0.2270562 0.053650804 0.18692541 0.17846228 -0.18124102 0.017898604 0.2649613 -0.07090513 -0.08057137 -0.28352168 -0.027680356 -0.026365003 0.17911582 -0.13095315 -0.05970172 -0.1190201 0.05591869 -0.13884804 -0.063215524 -0.104214385 0.176381 -0.056325775 -0.10426276 -0.14450918 -0.13234268 0.16202416 -0.0003219649 -0.012703305 0.17549899 0.047006346 -0.027879942 0.18018663 0.056328062 -0.24382274 0.35750565 -0.18077748 -0.10826853 0.063579984 -0.32104588 -0.24443975 0.17972252 -0.11348285 0.024706246 0.023260435 -0.043361668 -0.39532742 -0.36480328 0.21945566 0.092408486 -0.15602642
15167 -0.080891885 0.10750447 -0.2147784 0.26782915 0.08707445 -0.18106206 -0.15458238 0.09053019 0.099182665 0.041793346 0.026462752 0.07628542 -0.059262086 -0.07154467 0.24917378 -0.20846353 0.06874724 -0.118680365 -0.19063203 -0.12315877 0.047634706 0.3901945 -0.174519 -0.19984837 -0.22965904 0.042158242 0.1522101 -0.105021074 0.19624355 0.11435428 -0.32367814 0.09397538 -0.15158023 0.1860163 0.06938901 -0.28895098 0.05232796 -0.3771941 0.058839243 0.049490035 -0.043446194 -0.32630837 -0.086142726 0.07845229 0.054882083 -0.36153677 -0.08761706 0.2595552 0.25576946 -0.13220823 0.09849563 -0.075679176 -0.020055545 -0.04982819 0.05925493 -0.07002609 -0.17577754 0.28331113 0.18689527 0.12751795 -0.23774563 0.10991426 -0.3928859 0.030584928 0.24167459 -0.20998721 -0.24112032 -0.26980114 0.16976978 0.5086801 0.05708119 0.21162322 0.0337632 0.18728475 -0.14177504 0.18306656 0.10350426 -0.0770456 0.036805812 -0.0029934102 0.6604273 0.05616217 0.15082692 -0.06642257 -0.15667605 -0.16724218 -0.06835488 -0.37915444 0.091517575 0.03799807 0.19737093 -0.31622532 0.16291645 -0.024862405 0.35159534 -0.24188164 -0.45560876 -0.22762474 -0.031812962 -0.23240921 -0.11527737 -0.31725213 0.023382988 0.21438728 -0.22920616 -0.123244435 -0.09485404 0.38118303 -0.03440207 0.40712628 0.085802495 -0.15443243 0.43958205 -0.18471514 -0.0073861773 -0.11559936 -0.1448642 -0.15308653 0.20470032 -0.22972196 0.19241156 0.4381188 0.06197673 -0.40281734 -0.1640203 0.36129105 0.014550602 -0.1658148
14683 -0.000119785545 -0.04622751 0.08939633 -0.10359545 0.14661656 -0.07657828 0.053538106 0.15805246 0.07512353 0.13710158 -0.1245074 0.012723626 0.19320738 0.1232887 0.20361726 -0.063067295 0.056984726 -0.0043121325 -0.22110835 -0.047044814 -0.0024057603 0.023100749 0.090281695 0.049224917 -0.2393667 0.089840665 0.21156318 -0.08693749 0.4053159 0.02951067 -0.099703796 0.31844652 -0.06414046 0.15449919 0.16749024 -0.25960845 -0.1502033 -0.24259679 -0.0363291 0.064906605 0.014277991 -0.3893509 0.018246911 0.13007168 -0.00965756 -0.031666446 -0.086294435 0.04792398 0.23149778 0.13170528 0.22178578 -0.20100206 -0.2341877 0.33920953 0.20794465 -0.18835531 -0.1861404 0.13421892 -0.13575895 -0.04970657 -0.21039435 -0.008039291 -0.12056903 0.092527166 0.18037727 0.07221007 -0.20725957 0.187805 0.041110385 0.20732245 -0.058435567 -0.19288561 -0.1282692 -0.12125407 -0.15893948 0.10660149 -0.081898265 0.18594329 0.08453557 0.25501266 0.07986794 0.20836382 -0.22842863 -0.065379195 0.09340611 -0.0114325695 -0.12750132 -0.07125054 0.047719102 -0.05522382 0.08232161 -0.09070925 -0.07016629 -0.074235834 0.14446476 -0.031452723 -0.027678065 -0.023814982 0.15871839 0.10041926 0.017042274 -0.23155712 -0.044562764 0.028241195 0.06557071 0.18851055 0.13833645 0.24503839 0.1273506 0.10843496 -0.06576748 -0.177774 0.31234092 -0.13601258 -0.022441529 -0.071223035 -0.20262752 -0.30348542 0.26133198 -0.05300418 -0.0018720429 -0.08958828 -0.17173913 -0.15115418 -0.349065 0.2618852 0.12891982 -0.22306544
13198 0.050064445 0.1343567 0.06504436 -0.038486354 0.2614981 0.08627786 -0.056728974 0.07241448 0.06930346 0.065844685 -0.12478975 0.19785519 0.18614757 0.15236913 0.03334155 -0.20007761 0.14014684 0.13462177 -0.15321778 -0.1853171 0.007912656 0.009226796 0.15300663 -0.13908271 -0.1881518 0.1035051 0.2594765 0.06738901 0.40118292 0.023753155 0.04440223 0.16646874 0.009678673 0.0532968 0.16891909 -0.28809234 -0.08611826 -0.2793037 0.028732592 -0.022693973 -0.08014579 -0.34761336 0.084432386 0.2702913 -0.1197456 -0.08403938 -0.09162836 0.09821821 0.07724733 0.372816 0.19103913 -0.22406873 -0.03910055 0.36919424 0.22952838 -0.22343881 -0.0109762 0.021771614 -0.1215622 -0.122646905 -0.04021372 0.0679406 -0.07498474 0.22378585 0.27341816 0.054532316 -0.19895527 0.042237073 0.08492149 0.31045198 -0.21586922 -0.022415437 -0.14542754 0.011909318 -0.14610173 0.11664115 0.040297214 -0.07986065 0.10781496 0.16840091 0.052518357 0.21124634 -0.16910201 -0.15947819 0.16154948 -0.0076614185 -0.009365495 -0.20703553 -0.0093763145 -0.07243173 0.064397275 -0.13854031 0.048647597 0.023286868 0.12978971 -0.008808176 -0.08631587 -0.045104075 0.10663059 0.022341715 0.056102224 -0.1219973 -0.00999842 0.14391893 0.051861107 0.14041054 -0.032656822 0.24179216 -0.0010406821 0.0464971 -0.062010262 -0.16674532 0.3230852 -0.014361234 0.02723798 0.024083698 -0.11576154 -0.24258137 0.32556558 -0.042943187 0.0008416207 -0.063189305 -0.1173647 -0.15105975 -0.28016707 0.17880423 0.09373901 -0.18904394
15016 -0.0043678423 -0.010559131 0.17197426 -0.32738283 0.10616996 0.18848915 -0.025845323 0.16695271 -0.024309414 0.16817607 -0.04657639 0.16417447 0.1873453 0.16414486 0.006389656 -0.058668185 0.1014373 0.020814512 -0.16355622 -0.10495754 0.01354254 0.09803807 0.22038546 -0.051136505 -0.23195745 0.011848902 0.3105351 -0.096163556 0.28732002 0.038106117 -0.059671734 0.21760026 -0.063304976 0.10639509 0.22613448 -0.24108838 -0.15292689 -0.18695398 0.09976936 0.01992486 -0.051854104 -0.31678846 0.15180847 0.17158723 -0.15404959 -0.010033106 -0.0025412855 0.19290063 0.044968136 0.27392018 0.02185986 -0.24194084 -0.082556084 0.2700837 -0.0035485472 -0.25693077 -0.03588029 0.09830294 -0.057077844 -0.12358079 -0.077166855 0.015671602 0.010543574 0.115905866 0.09180966 0.11459316 -0.109301016 0.12892465 0.12660344 0.16291402 -0.10480815 0.095859334 -0.12367781 -0.034138 -0.07647886 0.18700552 -0.035432547 0.02745103 -0.013980837 0.07021674 0.23927562 0.4225192 -0.13041653 -0.029257419 0.29266098 0.05097921 -0.09285982 -0.30514604 -0.040930316 -0.00077177316 0.11131741 -0.23497017 -0.020428501 0.048089486 0.033232022 -0.034280345 -0.23791523 -0.0070031304 0.073712 0.0861723 -0.038599286 -0.031935103 -0.13881643 0.18985103 0.13818546 0.05863431 -0.006681158 0.24527586 -0.02193089 0.12589738 0.011326035 -0.2516681 0.3563858 -0.21307674 0.030582774 0.051467326 -0.056921907 -0.19022043 0.26601452 -0.109109774 0.11979874 0.07690385 -0.098834746 -0.3164813 -0.32125646 0.31039378 0.24725628 -0.22835806
10423 -0.03728063 -0.026503352 0.109832644 -0.18207723 -0.07143869 0.3124651 -0.09060282 0.005611665 0.004343857 0.27342358 -0.051178195 -0.053213283 0.18774319 0.26558328 0.104387976 -0.07049007 0.14414681 0.15759112 -0.09254667 0.10307515 -0.026606115 -0.00041659264 0.09479622 0.0581988 -0.14527757 0.15739429 0.33081576 -0.0057635508 0.35709122 -0.09219733 -0.011040533 0.18029545 0.1011226 0.13751775 0.21764739 -0.08619968 -0.0979371 -0.20811215 0.077356555 -0.019637942 -0.10060452 -0.21407673 0.1271956 0.21934727 -0.028094731 -0.20397075 0.01556616 0.15217006 0.20445053 0.21288969 0.16007929 -0.28687322 -0.024316553 0.124455154 0.021825692 -0.08782161 0.118723385 -0.08289166 0.09109842 0.08474495 -0.07605183 0.058088876 -0.044375323 0.15160856 -0.001037065 -0.019345017 -0.08469217 0.02748707 0.033590734 0.21026464 -0.14055236 0.055944864 -0.118626416 -0.043292224 -0.17446016 0.14570954 -0.10860568 -0.036365233 -0.013816402 0.07244587 0.11823013 0.2089075 -0.24497683 0.06505801 0.14156969 0.07518546 0.082463406 -0.040544834 0.10834667 -0.057341456 0.12349784 -0.30104145 -0.13465005 0.0066767517 0.10768163 -0.065048024 -0.054709896 0.03034137 0.20468344 0.09634955 0.067699924 -0.12246745 0.022753477 0.14506495 0.15518677 0.06346542 0.07443536 0.22615765 -0.044494074 0.08469379 -0.022854522 -0.17365916 0.3751616 -0.22980782 -0.06236557 -0.066176556 -0.16245452 -0.27434683 0.2318456 -0.10895763 0.039414354 -0.06734474 -0.17817253 -0.3935611 -0.4312209 0.20731097 0.13135014 -0.25931764
11066 0.06071804 -0.030426892 0.17735031 -0.1295369 0.12760758 0.03467427 -0.009953455 0.17051482 0.15756871 0.18005055 -0.10157099 0.075562656 0.25631002 0.1884309 0.10398368 -0.051632997 0.12951285 0.04907001 -0.1572731 -0.08142302 0.021235956 0.071062185 0.11095076 -0.022083402 -0.32408187 0.044888925 0.28255573 0.03630875 0.34187576 -0.00041013598 -0.03262151 0.19659516 -0.06392869 0.07141366 0.083137184 -0.24101141 -0.15314664 -0.14176692 -0.0922713 -0.01105182 0.020850506 -0.30441114 -0.046288002 0.1904072 -0.107369915 0.070306 -0.05403774 0.17096823 0.18308769 0.17364556 0.06754836 -0.20058677 -0.14877099 0.38232595 0.17232203 -0.117474064 0.0637697 0.17717873 0.034934074 -0.07561225 -0.040071756 0.04642908 -0.059899557 0.075133525 0.20425718 0.060367916 -0.12451876 0.02261944 0.139997 0.1211735 -0.24203534 0.02496843 -0.1551451 0.025178656 -0.05131206 0.032667097 -0.06808152 0.03382622 0.105212405 0.29721203 0.26475242 0.1975977 -0.18815918 -0.08612155 0.24061458 0.004541644 -0.09876694 -0.24990703 0.06392667 -0.028591888 0.28813684 -0.11806902 0.076384306 0.042475257 0.26562464 -0.08782661 -0.14387971 -0.094905764 0.13923986 -0.06283716 -0.15058634 -0.17603861 -0.09311457 0.25620082 0.07291789 0.08918821 0.10349838 0.20319289 0.07618682 0.22498532 0.035142984 -0.34036344 0.3908306 -0.11348849 0.009417972 0.022240713 -0.38158 -0.29938436 0.227522 -0.11186804 0.021010676 -0.06236367 -0.058466457 -0.19549182 -0.26605538 0.2834733 0.028234156 -0.13548897
14492 0.04013234 0.11815435 0.14677122 -0.12760986 0.08786869 0.1900548 -0.119626544 0.02210499 0.13975312 0.20269024 -0.08593098 0.14067005 0.22493815 0.20685308 0.05169506 -0.19490325 0.09060833 0.12359678 -0.3540501 -0.009071098 -0.039775617 0.0048728804 0.21436994 -0.0516961 -0.29011518 0.0035795385 0.3606467 -0.05333479 0.34536046 -0.05549696 -0.04065473 0.33277354 -0.037657887 0.1665298 0.15990292 -0.3513638 -0.1503272 -0.34695208 -0.08344074 -0.023804534 -0.03013637 -0.33361384 -0.053620026 0.24421676 -0.22519487 -0.042103022 -0.008420114 0.2038068 0.14601582 0.043672677 -0.06033679 -0.19602013 -0.075475514 0.1844558 0.18095617 -0.12035733 -0.046547357 -0.034418963 -0.0006259029 -0.0505196 -0.17874463 0.048594728 -0.0602024 0.14437814 0.17454879 0.058803286 -0.16362433 0.028099861 0.08281762 0.13874963 -0.13329427 0.022616459 -0.22029124 0.11930166 -0.07246797 0.04561778 -0.07862578 -0.08141763 0.14383079 0.14565909 0.28702626 0.09807301 -0.23893465 -0.05032874 0.19398741 0.033998568 -0.043504752 -0.19882108 0.049191948 0.06814275 0.12802756 -0.15375404 -0.075011 0.035089716 0.13319947 -0.08229281 -0.047253303 -0.10760353 0.13221028 -0.06695521 -0.1596512 -0.08971199 -0.09764904 0.19100918 0.00870209 -0.039666586 0.17050624 0.24197331 -0.0743427 0.14949745 0.05121985 -0.28187433 0.314293 -0.13312204 0.032065038 0.018893773 -0.30777672 -0.16854091 0.25350627 -0.13821366 0.046712734 0.015441647 0.031266164 -0.2591063 -0.17430781 0.26835528 0.07962721 -0.11258528
14869 0.09980309 0.35252148 0.12206971 0.04453441 0.07277685 -0.030401865 0.19065903 -0.067596614 -0.077114485 0.026773829 -0.24177447 -0.041804615 0.16204043 -0.07257818 -0.17359248 0.031624854 0.058922593 -0.16231246 -0.04391792 0.068947874 -0.105950736 0.05090986 0.14155215 -0.115550324 -0.15058096 0.040865134 0.10048866 -0.089626305 0.3881148 -0.06376244 -0.13140118 0.17205513 -0.19356166 0.17648697 0.21358466 -0.2947556 -0.20559211 -0.055175085 0.013592511 0.046315502 0.06930292 -0.3787967 -0.12969047 0.17664416 -0.3169601 0.11862001 -0.041803278 0.21704248 -0.15197055 0.03533095 0.11553332 -0.16021305 -0.17175396 0.16841379 0.16357805 -0.059130948 0.09257103 0.0686763 0.013972609 0.080658145 0.057861805 -0.08532204 -0.024991112 0.17039825 0.25334185 0.2517741 -0.04579041 0.16000065 0.049358387 0.2159941 -0.21954414 -0.08007534 -0.21539873 0.024818791 -0.15544704 -0.038113 -0.097966574 0.11979553 -0.09859657 0.42471677 -0.030700825 0.26882726 -0.06047316 -0.06757332 0.27896783 -0.06379781 -0.06144796 -0.0352133 0.025378818 -0.114628516 0.17938031 0.17480455 -0.056435104 -0.058895327 0.20849605 0.0040236698 -0.080610186 -0.05712667 0.29642323 0.12794201 0.15461068 -0.14398572 -0.2702907 0.07985736 -0.0033393712 -0.08253522 -0.12200595 -0.09248862 -0.044162247 0.29941761 0.045005463 -0.03000935 0.22269757 -0.14716426 0.01792121 0.0079029575 -0.2470005 -0.43395385 0.19924833 -0.03256597 -0.06613707 0.17650239 0.010722979 -0.273935 -0.38503298 0.1523299 0.13198791 -0.26673448
13342 -0.06496449 -0.037824452 0.2854576 0.014862357 -0.10176257 -0.022396365 -0.021144103 0.046547554 -0.055767186 0.11114656 0.016655829 -0.03572511 0.2314279 0.09974502 -0.03431637 -0.10232961 -0.009132858 -0.022424629 -0.04939398 0.12020011 -0.05328152 0.13884164 -0.043309502 0.08300769 -0.23122133 0.061595596 0.16662514 -0.08924861 0.54497 0.085608706 -0.053690255 0.24170181 -0.110911466 0.14571628 0.24634011 -0.15704481 -0.10099567 -0.399778 0.017583959 0.1540997 0.0795645 -0.18023933 0.0032597578 0.15345833 -0.15454316 -0.08496124 -0.15315253 0.13050796 0.34572688 0.10546407 0.0736504 -0.19833918 -0.0624808 0.46095532 0.21166007 -0.06913167 0.050435692 0.12143376 -0.069106825 0.0044084033 0.04565785 0.072264895 -0.13595966 0.03040893 0.10478861 0.0643534 -0.16981715 0.09138465 0.13822177 0.10297911 -0.054406695 0.06754075 -0.098445944 0.1123214 -0.080138326 0.076690935 -0.04419425 -0.04589173 0.02287436 0.1633291 0.26984504 0.24395329 -0.19108373 -0.117045455 0.18645768 -0.009545583 -0.034710962 -0.1512831 0.022060724 -0.09583836 0.021593098 0.08360394 -0.03398595 -0.031194923 0.12599231 -0.13829662 -0.21542078 -0.20926556 0.25506786 0.003390259 0.024334507 -0.035952542 -0.018246343 0.16535658 0.07497654 0.014408085 -0.041570615 0.07671736 0.1285238 0.16015345 0.043107305 -0.37912798 0.4553871 -0.066368565 -0.013333193 0.061554298 -0.36072123 -0.24094413 0.14171599 -0.049844798 0.1680329 0.010398425 -0.15443456 -0.33870026 -0.39748648 0.19282143 0.105984166 -0.27124238
15304 -0.00092861446 0.056843463 0.109477304 -0.056722034 0.12347896 0.09405293 -0.12184701 0.16780062 0.0869574 0.15578951 -0.23396178 0.21678294 0.07313863 0.020268723 -0.039267987 -0.19004624 0.10116536 0.15111755 -0.17629264 -0.039000094 0.07731981 0.044042066 0.1934877 0.17825584 -0.18397008 0.121440984 0.20897634 -0.053404804 0.32373226 -0.019620324 -0.07191909 0.3884135 -0.041248392 0.22027768 0.083412796 -0.24017613 -0.09076375 -0.31401253 0.0045274002 0.026412822 0.03697103 -0.36250135 -0.08967208 0.10736517 -0.113788374 -0.037458047 -0.09239863 0.1751635 0.13744769 0.15553838 0.052052703 -0.31177512 0.015334303 0.13625811 0.22478715 -0.12515402 -0.03636015 0.13417363 0.018668069 0.036747545 -5.7574223e-05 -0.079955846 -0.16896097 0.01838874 -0.015991762 0.07019952 -0.14189845 0.047010895 0.05507845 0.065066226 -0.07374639 0.0037200907 -0.15117188 0.16020174 -0.13768981 0.070713684 -0.08331793 -0.09085192 0.16538516 0.09268201 0.13058935 0.06736575 -0.1998208 -0.08837993 0.043226387 -0.02685378 0.04068691 -0.2472184 0.10099967 -0.046361 0.13441594 -0.16720182 -0.14390768 -0.09826413 0.09368543 0.051847704 -0.0671222 -0.14504924 0.11644902 -0.067866735 -0.038495954 -0.12808074 -0.023867177 0.13818826 -0.009162563 -0.020072345 0.14247808 0.121269286 -0.014749404 0.055764105 -0.0152211925 -0.19530909 0.33474186 -0.18103577 -0.056681935 0.08900361 -0.31094667 -0.18628804 0.37494564 -0.10429776 -0.02930915 -0.008637239 0.0129322335 -0.2914021 -0.2791431 0.28534558 0.0077968477 -0.17398985
14771 -0.02565911 0.16043359 0.17485265 -0.0959915 0.11701741 0.14899975 0.09721462 0.016608674 -0.051728457 0.15096575 -0.12797765 0.07346995 0.043731123 0.1733443 0.00061366364 0.035927564 0.059029512 0.100382365 -0.1089639 0.07464085 0.01879566 0.05479604 0.1286135 -0.07788594 -0.1278097 0.028942533 0.15188727 -0.07184652 0.34370136 -0.07798629 -0.13451445 0.22432034 -0.038996786 0.29686436 0.24302463 -0.30780753 -0.12985815 -0.16952209 -0.08863876 0.03053775 0.050512467 -0.3516007 -0.045680232 0.16185598 -0.04805536 -0.12511979 -0.01143645 -0.012348182 0.04521875 0.13113643 0.24275486 -0.27105856 -0.20612833 0.24874677 0.08662718 -0.10370499 0.0016546621 0.04260287 0.038870845 -0.040411413 -0.12982294 0.055064317 0.0039325943 0.19261855 0.2057809 0.13677995 -0.07535201 0.07024461 0.07670839 0.23989864 -0.036783885 -0.10975708 -0.10139687 0.048167568 -0.081527375 0.019738654 -0.06587646 -0.03238164 0.05555471 0.09277643 0.05452142 0.12497976 -0.12159144 0.01662818 0.10514103 -0.0034289684 0.09335737 -0.14094546 0.062773585 -0.055589743 0.09955276 -0.16448827 -0.080982104 -0.05717733 0.050801095 -0.004442674 -0.13678424 -0.08374407 0.26155424 -0.05352398 0.12003715 -0.16551436 -0.095045514 0.036870718 -0.0611251 -0.051958334 0.0007041258 -0.05001242 0.1395646 0.0935753 0.04719197 -0.11339792 0.31157446 -0.2570682 0.06482715 0.10993759 -0.1254393 -0.34340274 0.30700824 0.014729488 0.044072524 0.111378856 -0.019196039 -0.3212377 -0.42923993 0.27177697 -0.0076802555 -0.2177042
14057 -0.018643815 0.244715 0.1697922 -0.040615395 0.13246521 0.36171392 -0.07722972 -0.20351475 -0.01399914 0.21791989 -0.27503806 0.14448172 0.15672833 0.23630247 -0.10816121 0.10865581 0.16355364 0.06865633 -0.16610499 0.24963433 -0.10793131 0.20176066 -0.021245731 0.09653536 -0.04702274 -0.09888581 0.3217685 -0.23375359 0.45768553 -0.1803118 -0.206534 0.33749643 -0.03503356 0.15257141 0.12080788 -0.24057733 -0.2813591 -0.13686289 0.04719123 0.048972696 0.14932945 -0.4530918 -0.119092084 0.21416806 -0.09339245 -0.02349161 0.091728434 0.027483078 -0.048287313 0.09578183 0.2204817 -0.1994511 -0.1881704 0.23241475 0.25332335 0.051336125 -0.013148945 -0.16194029 0.0005759164 0.0051098033 -0.16396268 -0.021208752 0.03914761 -0.057726122 0.12868129 0.2291291 -0.026497912 0.11048174 0.14630672 0.20652694 -0.15002845 -0.18586327 -0.18389063 0.102838896 -0.15946992 -0.06614958 -0.011973565 0.0002973831 -0.0066473284 0.24626522 0.10212557 0.16076028 -0.1539105 -0.0052086688 0.027474351 0.019356953 0.120633356 0.03459832 0.18470313 -0.123297565 0.086210996 0.17318471 -0.18786512 -0.040132083 0.19806704 0.10736161 0.03786494 -0.19537257 0.21291597 -0.10792209 0.15760684 -0.18877484 -0.22586659 0.11791117 0.06702934 -0.0948981 0.060663592 0.059723716 0.25208825 0.1039585 0.08742201 -0.29645845 0.45315605 -0.12972347 -0.009712164 -0.122245505 -0.17504728 -0.35399362 0.32877705 0.023480633 -0.022660509 0.06845343 -0.12037813 -0.27320012 -0.36354753 0.039945424 -0.005339819 -0.31481367
11278 0.048507895 0.10983612 0.031813305 -0.089675784 -0.038623028 -0.014235013 0.06235217 -0.04785427 0.14663048 0.14676686 -0.017620461 0.21540645 0.2785372 0.10174827 0.022371965 -0.176849 0.14890552 0.002093182 -0.20754112 0.07226635 0.022662193 -0.028424088 0.085476056 -0.00027359265 -0.2883519 0.17092799 0.29694813 -0.09281316 0.16374697 0.0810438 -0.04397454 0.23984335 -0.053172007 -0.011451249 0.17120361 -0.23986459 -0.15783696 -0.28533283 -0.034049563 0.037292812 0.13421685 -0.24045743 -0.03823016 0.17306656 -0.07061447 0.03986291 -0.16784537 0.15434456 0.23804547 0.33196187 0.07137965 -0.3561684 -0.18619898 0.421776 0.3183725 -0.030658195 -0.2517966 0.067242384 0.05164498 0.0014792786 0.021218987 0.0401159 -0.15400071 -0.029744558 0.1405009 -0.03087226 -0.23625039 0.06636277 0.14831588 0.009087708 -0.16821559 -0.00033307046 -0.21046174 0.13919461 -0.03326406 0.124777466 -0.039314456 0.008508569 0.14383234 0.1292469 0.16769066 0.04952114 -0.13087822 -0.043710634 0.21719785 0.012564974 -0.044319727 -0.32907587 0.04716532 -0.0918904 0.042555105 -0.11562016 -0.020130835 -0.16848329 0.21575333 -0.030114928 -0.11091103 -0.27850273 0.15471531 -0.006060265 0.007655546 -0.103728846 -0.0070608836 0.14416172 0.00032248636 0.0012770159 0.14414671 0.07958809 -0.05160158 0.15944535 0.090822816 -0.18760905 0.32306144 -0.18237425 -0.0015722811 0.05439887 -0.28926334 -0.40087768 0.204474 -0.03881072 0.10761059 0.10448995 -0.1629748 -0.3340954 -0.21476088 0.19403815 -0.030691922 -0.16256404
11193 -0.053984415 0.045588836 -0.082432866 -0.12949471 0.25222394 0.07138746 -0.08087218 0.0027758891 0.03725739 0.23250936 -0.15573224 0.1053213 0.09454685 0.10876539 -0.020723546 -0.03847916 0.122315146 0.12203988 -0.109645985 -0.10762478 -0.044443298 -0.09174138 0.044338282 0.07420075 -0.26540145 0.08832294 0.28031957 0.016966736 0.10073796 0.0068775127 0.058486883 0.1966065 0.103746735 0.091300175 0.09521764 -0.23713042 -0.05463753 -0.08545963 -0.03622741 -0.03989317 -0.032782096 -0.35626894 0.051704954 0.2845531 -0.011432802 0.029525138 -0.11300323 0.088081144 0.11778397 0.041951753 0.015249732 -0.22099443 -0.03387732 0.1568006 0.3042343 -0.25130475 0.025386322 0.16648434 0.06147734 -0.057406206 -0.14115605 0.04487023 -0.035914708 -0.005515832 0.040304057 0.10474717 -0.19270882 -0.068324715 0.0719128 0.21214475 -0.20961905 -0.06476749 -0.088596776 0.044308588 -0.13099982 0.029129617 -0.056166854 -0.1240948 0.092882395 0.13323608 0.24774025 0.25631583 -0.20318033 -0.14637624 0.17231137 0.01697878 -0.11551562 -0.31157044 -0.009675031 -0.19105235 0.086091116 -0.13588578 0.026928432 -0.10316128 0.03564334 -0.05430643 -0.045185827 -0.18521965 0.23605418 0.014766356 -0.17513251 -0.15030678 -0.14328107 0.18965463 0.08982876 0.09586151 0.15538962 0.01377277 -0.00289546 0.1726103 0.11119909 -0.34234047 0.3308657 -0.11799632 -0.09502926 0.061517794 -0.32246274 -0.19478059 0.23565003 0.002838474 -0.0020627906 -0.06344 0.006413346 -0.1785159 -0.15746339 0.37537587 0.092396334 -0.058403745
11697 0.09544305 -0.0013219884 0.13694489 -0.109719105 0.064383626 0.10567731 -0.20518772 0.041508872 0.049234383 0.27792203 -0.09398594 0.14341582 0.119464 0.13261732 -0.062030677 -0.1764595 0.02824383 0.14006524 -0.22604445 -0.048714366 0.031465232 -0.045979604 0.12528558 0.099982455 -0.30884096 -0.01757998 0.27519792 -0.08269442 0.21518713 -0.037389904 -0.05949009 0.34050664 0.01685118 0.12659548 0.101393394 -0.32881764 -0.15332131 -0.30071896 -0.08091545 0.08094631 -0.09556462 -0.39487612 -0.08761737 0.19083825 -0.12697545 -0.12316109 0.016940668 0.2253885 0.09721923 0.23010053 0.0619432 -0.30598068 0.023565857 0.17903733 0.16533567 -0.085798614 0.011957052 0.17671828 0.08901071 0.0047787055 -0.15267286 0.07658314 -0.14418769 -0.04635715 0.009880266 0.05064712 -0.14490002 0.06909882 0.006192614 0.09118393 -0.0857605 0.0014684533 -0.22015959 0.115501 -0.04448149 -0.022304999 -0.14269212 -0.012834883 0.012253011 0.12753306 0.20954433 0.1996439 -0.27585015 -0.15802585 0.10776411 0.047866866 0.047359947 -0.20830578 0.10701112 -0.051892836 0.15708786 -0.09219681 -0.13105889 -0.01922006 0.20177256 -0.023953678 -0.10545189 -0.027469948 0.10241826 -0.034222003 -0.12340345 -0.15591474 -0.019549213 0.1767009 0.038762 -0.026979256 0.037304983 0.11958979 -0.0855647 0.13069704 0.00097213103 -0.24719064 0.38831058 -0.16485308 -0.0060181567 0.13204569 -0.25300848 -0.32683212 0.25396964 -0.14063507 -0.017684722 0.04480511 0.056465704 -0.23790225 -0.22626679 0.3544103 0.077294834 -0.15797266
10590 -0.10215777 -0.20236138 0.17053019 -0.17046233 -0.032615412 0.056825127 0.1081539 -0.0462817 -0.14625697 0.14024991 0.18492116 -0.020644028 0.1461209 0.07967911 -0.16096155 -0.11071887 0.07775021 -0.23289277 -0.18309416 -0.08973703 0.040692538 -0.047394708 0.04701756 0.287433 -0.046100747 -0.08490852 0.1908907 -0.121835515 0.3986165 -0.0062317057 -0.09422843 0.38609052 -0.07596754 0.24350095 0.36828923 -0.22684386 -0.24538562 -0.4013731 0.13470717 0.08552145 -0.03527897 -0.28649968 0.12400052 0.29036295 -0.10844434 0.05717328 0.15638822 -0.10664838 0.08907992 0.10481275 0.09865876 -0.32757995 -0.34631342 0.29546222 0.02372976 -0.059963677 0.022972789 0.10426293 -0.11235508 0.03482959 -0.3462515 -0.06458835 -0.09443337 0.18131685 0.028092634 0.089252084 -0.35305303 0.20101222 0.06997109 0.295317 -0.21097669 -0.16443717 -0.17744465 -0.040133096 -0.4170577 0.0065890765 -0.0524847 0.12256271 0.16177717 -0.019144803 0.017824456 0.22754069 -0.08453015 0.1788986 0.19272809 0.062074777 -0.028456649 -0.25234592 -0.036131002 -0.08152414 0.06800082 0.059944816 -0.23983635 0.08789106 0.026110737 -0.08797505 -0.04005492 -0.21737346 0.037022837 0.050954957 0.16651426 -0.08184632 -0.13220458 0.21102625 0.11583641 0.010306535 -0.03761109 0.27078032 0.10582346 0.2416543 0.034312624 -0.19199228 0.41938218 -0.10747665 -0.06880029 -0.05397267 -0.13933812 -0.3972181 0.14921983 -0.11721965 0.2213901 -0.02379008 -0.16973504 -0.40404227 -0.32082582 0.32388973 0.3284894 -0.38698363
10551 0.039025083 -0.012052651 -0.14062218 0.1151156 0.36311397 -0.06897417 0.11924333 -0.012229747 0.0071483147 -0.057453804 -0.46310797 -0.03043353 -0.23056175 -0.34552494 0.02388379 -0.053424124 0.061461058 0.18203205 0.27774325 0.016428163 0.07001548 -0.041441526 0.10371833 0.12158103 -0.0704352 0.4366285 -0.07096498 -0.08998713 0.2591176 -0.08090007 0.00032049516 0.30923998 -0.16470699 0.14633805 0.14046203 0.0399433 0.4012596 -0.102288514 0.085321955 -0.21714523 -0.036109637 -0.3637358 0.13106439 0.19882809 -0.12722321 0.11938201 0.18007645 0.17145097 -0.063186444 -0.118909046 0.073599584 -0.06592171 -0.30661833 -0.17893398 0.03228504 0.04053353 -0.33100182 -0.26474443 0.19000109 0.02343278 0.21425122 0.65554786 0.02205566 0.5870125 0.21519266 -0.30139452 0.08171256 -0.04720926 0.31647807 -0.084233664 0.4339293 -0.25684193 -0.026608907 -0.12247636 0.1465682 0.041892737 0.036166158 -0.17642318 -0.14811103 0.32302615 0.23939478 0.30507657 -0.35932446 0.009302639 0.3165987 0.003686704 -0.20017341 -0.20998414 0.12441621 -0.15530708 0.45769188 -0.52287674 -0.26411662 -0.25476184 0.5037604 0.49250427 0.03165614 -0.22147584 0.36041948 0.54547817 0.030950379 -0.018652188 -0.2565543 -0.33541185 0.5713274 -0.014481583 0.08535605 7.388787e-05 -0.08083707 -0.08793506 0.4720256 -0.055917334 0.0062939976 -0.45340553 -0.057045862 0.022850066 -0.31365028 -0.15398745 -0.20705372 0.55763656 0.17715192 0.24320127 0.028652104 -0.2586122 -0.25871614 0.38818684 -0.16715877 0.25626546
11042 0.016449755 0.03549896 0.15760198 -0.0543664 0.10668849 0.02043217 -0.042257905 0.08206374 0.09751995 0.22776866 -0.09717617 0.15800025 0.12440206 0.09727427 0.1663829 -0.16192591 0.17420481 0.0505429 -0.13133928 -0.1289263 -0.035858966 0.094865866 0.169832 -0.023490654 -0.2902836 0.020969395 0.26434425 -0.0011111955 0.23898008 0.031919446 -0.10357069 0.19139518 0.07071819 0.15087608 0.16653383 -0.29350668 -0.18554567 -0.2502868 -0.046787053 0.06368649 -0.05889735 -0.30769232 -0.02637047 0.33225307 -0.11270318 0.02752763 0.06568961 0.25454333 0.17833884 0.09064541 -0.030788941 -0.28543052 -0.06789455 0.2548294 0.1446369 -0.24290004 -0.059808705 -0.0061353217 -0.12621509 -0.026482204 -0.119119324 0.16857465 -0.081812456 0.09216845 0.17311181 0.1243493 -0.14541219 -0.011210677 0.077063926 0.281811 -0.16662094 0.09267309 -0.20233378 0.07342945 -0.1340033 0.1670977 -0.1251518 -0.022541491 0.18135399 0.15374751 0.24530312 0.26798636 -0.08501507 -0.12204555 0.14976645 -0.09761404 -0.09003383 -0.27539733 0.027873736 -0.10515297 0.080867864 -0.057328038 -0.082434 -0.04628784 0.21704358 -0.120401755 -0.12673604 -0.042338673 0.04599804 -0.01821223 -0.20740478 -0.050657015 0.00042591256 0.2268844 0.014017145 -0.007925003 0.10740943 0.18299946 0.021810103 0.16509563 0.035716247 -0.31964344 0.31467736 -0.1913774 -0.036778565 0.005830296 -0.19904554 -0.31443202 0.3900189 -0.006392014 -0.015230596 0.09404097 -0.03922804 -0.21846472 -0.30062523 0.31977576 0.088768594 -0.16691129
13495 0.00244904 -0.006063334 0.054360244 0.010532968 0.08578684 0.05781879 -0.07490385 0.08543598 0.050469276 0.07111811 -0.042069905 0.09842778 0.19412968 0.09136733 0.06201867 -0.011245761 0.049301658 0.011912128 -0.13372998 0.10661694 -0.026603168 0.050394308 0.1422431 -0.023121653 -0.21034235 0.09845197 0.25096777 -0.08704464 0.24079905 0.015490718 -0.036625687 0.28033066 0.011819653 0.07883979 0.17487706 -0.24411537 -0.16971487 -0.2229676 0.052414425 0.0075066164 0.0075104814 -0.384568 0.029070277 0.102662005 -0.11525452 -0.11600319 -0.015247514 0.20156847 0.22584923 0.20428361 0.10382762 -0.2225753 0.0613308 0.2702485 0.2789899 -0.07488116 -0.16422871 -0.060739595 -0.09521161 0.05415303 -0.18885809 -0.03398009 -0.17267573 0.1132317 0.20066099 0.04113074 -0.119744316 0.16693863 0.029599613 0.151286 -0.09998186 -0.07204715 -0.25058284 0.03504699 -0.12886156 0.078653745 -0.04926468 0.00038798808 -0.012300157 0.05493153 0.21178891 0.26530847 -0.25054145 -0.027249536 0.19970098 -0.010167378 -0.18427768 -0.09906109 0.12032784 -0.028232107 0.07186615 -0.23727852 -0.07044529 -0.08300935 0.15494223 -0.007503696 -0.04232459 0.0055535436 0.21648227 0.06375896 -0.023693733 -0.07377421 -0.040727008 0.1364438 0.065444164 0.0925292 0.05188223 0.2861567 0.068185344 -0.0005962075 0.011013789 -0.14367184 0.3456366 -0.19381036 -0.11522035 -0.106149144 -0.28792357 -0.31234223 0.31990698 -0.018541154 0.1134377 0.07670392 -0.17836031 -0.29775965 -0.15647522 0.21624678 0.12318867 -0.2926391
13851 0.021116547 0.043484937 0.19808105 -0.16243136 -0.17923972 0.17432591 -0.03025302 -0.066823736 0.09645584 0.112199664 -0.16004118 0.057652533 0.20817302 0.14387457 0.09126034 -0.08397002 0.070585035 0.027521092 -0.25557217 0.061441988 -0.07742277 0.1083699 0.11521949 0.1972511 -0.2898806 0.12088796 0.30310035 -0.032235697 0.40519047 -0.047327545 -0.049231198 0.2971875 -0.110636674 0.15721208 0.14215507 -0.20409544 -0.16511191 -0.30684513 0.044057485 0.13816525 -0.035870764 -0.13955921 -0.03578549 0.068139486 -0.06274352 -0.07306924 -0.1702369 0.17482096 0.07761182 0.35430467 0.09366848 -0.34832755 -0.18189542 0.3470492 0.1599528 0.030908864 0.08576251 0.085548654 0.07728136 0.10143905 -0.012163671 -0.04511508 -0.14832596 0.053894803 0.13514674 0.033287194 -0.22558251 0.08311605 0.07204972 0.11832595 -0.16905402 -0.021675672 -0.15323812 0.03720727 -0.10523021 0.09168912 -0.12777837 0.0401258 0.10927371 0.08099516 0.097814605 0.20869085 -0.13714513 0.0065024304 0.2009699 -0.02972901 -0.0030567055 -0.14153193 0.14189725 -0.0859215 0.20077343 -0.20272155 -0.1431247 -0.007119591 0.12616345 0.002781974 -0.15190125 -0.13979563 0.3283179 -0.029484168 0.10118575 -0.26421812 -0.10595445 0.22314607 0.1977047 0.09600827 0.06016121 0.16235316 -0.08344464 0.119683065 -0.008546175 -0.30819568 0.42818588 -0.17148082 -0.0711077 0.007155728 -0.27711716 -0.35950428 0.23148014 0.0032581643 -0.030822294 -0.086036116 -0.13564761 -0.3367605 -0.19182304 0.17159423 0.0043239347 -0.2064069
11259 0.11840228 -0.019200262 0.3108148 -0.083005644 0.042245448 0.18364426 -0.10570675 0.101566456 0.11752573 0.07584587 -0.20130908 0.09191135 0.19815996 0.1704718 0.07784502 -0.07163905 0.10892544 0.09117281 -0.19731106 -0.008601649 -0.112502985 0.15659253 0.15822962 -0.05200446 -0.24854305 0.16486268 0.26512414 -0.018577904 0.31180352 0.008999869 -0.18686116 0.23796703 -0.12634787 0.13033797 0.10797311 -0.263939 -0.22814903 -0.22592004 -0.11972975 0.029039504 -0.02638474 -0.27405334 -0.07425226 -0.0054074465 -0.07360553 -0.17083305 -0.071835704 0.18648995 0.2757594 0.09920044 0.027227607 -0.19964156 0.007089027 0.22088568 0.10855047 -0.07598196 -0.051237486 0.019873085 -0.0841234 0.12294177 -0.050415214 0.003653245 -0.14317197 0.19069906 0.23541631 0.018598374 -0.17263491 0.09668528 0.0793235 0.12259641 -0.05199519 -0.23060067 -0.29392752 0.10030936 -0.071747914 0.048462756 -0.053080767 0.0014788421 0.09269966 0.054285385 0.17189868 0.22698064 -0.13884881 -0.07517274 0.18805882 -0.14681032 -0.048321214 -0.0804298 0.17624626 -0.11801386 0.16181006 -0.30481723 -0.018566081 -0.08500381 0.22224747 0.030506676 -0.18353473 -0.11381002 0.14462487 -0.011250818 -0.025631199 -0.11827721 -0.039449584 0.19626594 0.071753435 -0.06724323 0.16555136 0.21728429 -0.09611822 0.13728175 0.03769205 -0.28084362 0.25378948 -0.10067353 -0.00118631 -0.10608717 -0.28669935 -0.30374256 0.26913267 -0.09011347 0.05890788 0.017979102 -0.06214858 -0.27801543 -0.19058388 0.25305772 0.021368649 -0.14990062
14679 0.036356322 0.07959045 0.14149565 -0.15547617 -0.016214618 0.21196535 0.0011570115 -0.05622953 0.05558128 0.09558974 -0.10831471 -0.041835174 0.19273178 0.16228078 -0.11199021 -0.029041652 -0.032136977 0.1698604 -0.15718298 0.036717884 -0.001629212 0.07861898 0.17153397 -0.026662989 -0.14888534 0.14689529 0.24933416 -0.05525719 0.48996454 -0.12232096 -0.020693341 0.24844071 -0.0724255 0.22754788 0.11037592 -0.30666527 -0.14082353 -0.17111306 -0.14423056 0.027999839 -0.06821389 -0.5432753 0.03247871 0.38873777 -0.10849173 -0.13487521 -0.060511865 0.06603418 0.12608209 0.23303108 0.17936084 -0.2936923 -0.045336053 0.2783882 0.20501333 -0.03652131 0.0675822 0.08799159 0.028359018 0.0069713304 -0.070991084 -0.054639965 -0.1189158 0.27812144 0.15305877 0.07254722 -0.049359832 0.14512743 0.095336184 0.25573272 -0.23421228 -0.13887304 -0.10091578 0.057949413 -0.2766129 0.0049951705 -0.13728127 -0.017525125 0.042666603 0.20230474 0.09818302 0.14550653 -0.24220932 -0.12907025 0.20600879 -0.008242645 0.059556648 -0.2161239 -0.04726147 0.12844647 0.18737385 -0.14888605 -0.042798616 0.10164935 0.1367821 -0.11461598 -0.060642518 -0.049039587 0.14937241 -0.10693177 0.01658981 -0.27229238 0.011783887 0.13455337 0.049299464 0.0056146593 -0.008684108 -0.010000086 -0.060614433 0.15112363 0.12594944 -0.14370151 0.14240086 -0.15767439 0.15439282 0.06391178 -0.15842588 -0.32517862 0.25158888 -0.16068992 -0.09214566 0.025800595 -0.05263045 -0.29001185 -0.30371687 0.26013198 0.002555116 -0.27440533
12478 -0.00034466392 0.19605291 -0.15576744 -0.027462251 0.032978334 0.06820481 0.00039259976 -0.06246295 0.24800038 0.084736034 -0.08094411 -0.026853776 0.2006747 -0.038876057 -0.0004104311 -0.281178 0.018378414 0.12581523 -0.050152816 -0.037074525 0.011805623 0.102526344 -0.00063370925 -0.108210325 -0.30125514 0.10001198 0.19593611 -0.043723226 0.110235296 0.12887874 -0.101300016 0.080073185 0.0071850587 0.23741359 0.09747609 -0.33057135 -0.28512773 -0.23130074 0.17792378 0.0885245 0.033649888 -0.23421225 0.07660376 0.3123244 0.042244464 -0.038274147 -0.01686467 0.2566352 0.14875259 0.092895634 0.091556266 -0.2041476 -0.025857925 0.26013196 0.30087814 -0.29420915 -0.19707291 0.06464547 0.12600903 0.036460508 -0.13317624 0.036030173 -0.06631151 0.07201438 0.17079856 -0.032797355 -0.060313866 -0.004216977 0.14708082 0.1536524 -0.21055625 0.08219616 -0.067366146 0.07495994 -0.0063737496 0.21874085 -0.13184617 -0.24334505 0.185533 0.1808954 0.1892738 0.20516662 -0.1066926 -0.1164025 0.12876256 -0.15116303 -0.018873075 -0.32724524 -0.27474156 -0.051835947 0.07623433 -0.20818537 0.008665051 -0.048688974 0.03474389 -0.17921585 -0.03941813 -0.0226808 0.23150803 -0.16157478 -0.06683296 -0.21061088 0.049231242 0.16037044 -0.0054397793 -0.06338818 0.07356587 0.0036391844 0.028699165 0.23601255 0.266435 -0.17362915 0.41031957 -0.2557072 0.13178055 0.103141405 -0.34932014 -0.10501155 0.26205632 -0.14748874 0.096925326 -0.00091825123 -0.100910485 -0.4210385 -0.29913542 0.22714275 -0.057027567 -0.021945437
13871 -0.0034703792 -0.03794926 0.05927333 -0.07862675 0.07684749 0.021617182 0.1477314 0.24818084 0.09556279 0.15445004 -0.13296798 -0.06267968 0.14848301 0.14707963 0.027797744 -0.15200743 0.1404358 -0.13055566 -0.1998608 -0.0039011117 -0.040720895 -0.045096915 0.019977782 -0.009864513 -0.1925512 0.18938753 0.09019047 -0.041488625 0.3957611 0.0234605 -0.05800807 0.32554287 -0.15473413 0.1353316 0.21046013 -0.012215558 -0.182799 -0.38457286 0.019832911 0.059170548 0.15316784 -0.36484998 -0.068510756 0.14600693 -0.10876384 -0.021515664 -0.090001784 0.20484136 0.14440534 0.10645249 0.088560246 -0.08901025 -0.051181454 0.23542677 0.13565204 -0.050397113 -0.009482976 0.09738095 0.050288267 -0.0029959448 -0.1961526 -0.05850453 -0.023314068 0.2559281 0.15972748 -0.018622745 -0.23367639 0.12395184 0.11813924 0.23136632 -0.05218359 -0.07856693 -0.19634075 0.23630822 -0.12132967 0.13883816 -0.008463018 -0.050036997 0.035380457 0.073941186 0.0018760083 0.19802631 -0.18167777 -0.10987784 0.23491573 -0.022518437 -0.02857824 -0.050324026 0.012125465 -0.1966406 0.19710575 -0.2076895 -0.10313769 -0.027860802 0.040178724 -0.024732118 -0.21027796 -0.26403973 0.22823682 0.026675262 0.15208146 -0.14925747 0.03880426 0.1573817 -0.090246834 -0.09819162 0.081481725 0.16704431 -0.11279719 0.15139623 -0.08686977 -0.024033636 0.38373935 -0.15850244 0.023122491 0.08796804 -0.2562906 -0.33236083 0.25050664 -0.087579556 -0.005920592 0.015121696 -0.01455538 -0.19487347 -0.38368377 0.23054026 0.14815545 -0.22720513
13204 0.1074442 -0.0013626268 0.10142452 -0.06408718 0.065184474 -0.047566894 -0.03565847 0.11509194 0.015239196 0.13749442 -0.031763587 0.03309036 0.251444 0.1313266 0.092826165 -0.0023076662 0.26854622 0.11997861 -0.21154365 -0.12224772 0.05053101 -0.057198513 0.1569282 -0.004815616 -0.341881 0.0770608 0.3045003 0.124442644 0.24239676 -0.0043428447 -0.0022902882 0.25050002 0.012237494 0.095968515 0.019886991 -0.23727146 -0.18558912 -0.29494438 -0.0012924137 -0.033711653 0.05567964 -0.4343482 -0.006555526 0.16760364 -0.18689957 -0.0947085 -0.009193534 0.17718978 0.13424 0.25275204 0.041577823 -0.2755933 0.039092127 0.26269573 0.2562202 -0.08226665 -0.034641944 0.087267764 0.062185112 -0.0072047124 0.026231742 0.12584946 -0.054264393 -0.011975395 0.0377747 0.07443283 -0.044848334 0.04970566 0.0837161 0.15008171 -0.033843827 -0.09511268 -0.14761879 -0.14517932 0.018811053 0.10113323 -0.0499 0.087189026 0.04798108 0.1568777 0.123474665 0.02761031 -0.15619242 -0.10225222 0.17969236 -0.040823605 0.029564893 -0.25225192 0.057439137 -0.053596202 0.021850426 -0.14525662 0.062406067 -0.04056217 0.16671136 0.016474392 -0.0013810546 -0.1268965 0.17759243 0.062342383 -0.05938204 -0.16889882 -0.050918102 0.1387087 0.14312027 0.041401647 0.17111786 0.19622605 -0.013024251 0.0687949 -0.011669656 -0.22896902 0.31108665 -0.21608528 0.014762628 0.016913978 -0.2877264 -0.27209586 0.18442526 -0.0316206 -0.011319892 0.063938625 -0.15125996 -0.16854556 -0.49556226 0.39802146 0.034363918 -0.18734048
11540 0.07063751 -0.028660882 0.17718774 -0.088998616 0.005980848 0.15429495 0.0171559 0.15072873 0.12410322 0.13514073 -0.13334118 0.1232325 0.19478619 0.128686 -0.059807193 -0.008091661 -0.054828625 0.03152473 -0.014620592 0.0050768987 0.06750968 0.023808116 0.21519266 -0.062203933 -0.10641042 0.012455435 0.34269252 -0.015867691 0.31594974 0.024949288 -0.029167295 0.15148261 -0.065603286 0.042075302 0.18996139 -0.22021066 -0.1874353 -0.30309615 -0.01676687 0.063500226 -0.12156128 -0.40830246 0.11780169 0.32984045 -0.1409188 -0.047919255 -0.114299856 0.056333065 0.3074179 0.26168248 0.133941 -0.21807264 -0.041230798 0.20528199 0.24407674 -0.19996464 -0.026790146 -0.002625873 -0.057480462 0.052438106 -0.1416529 -0.05068037 -0.14825907 0.13064785 0.24353983 0.16334498 -0.20993264 0.11827603 0.09363559 0.20770076 -0.14222468 -0.06851829 -0.10416404 0.07511336 -0.2850421 0.030916937 0.08023879 0.0044213617 0.032124713 0.045197457 0.13015182 0.27287483 -0.24464898 -0.17944285 0.22115475 -0.14023027 -0.10306458 -0.22671054 0.037152365 -0.163001 0.119238414 -0.12357889 -0.075630836 -0.110002704 0.26116836 -0.030800266 0.04560658 0.027041879 0.11349831 0.03909667 0.06656047 -0.113351375 -0.087332584 0.09832798 0.028053721 0.20339052 0.09870505 0.25318688 -0.014017029 0.118381776 -0.10431138 -0.24575615 0.25729737 -0.08925702 -0.04089634 -0.029242111 -0.22009811 -0.33044952 0.2200364 -0.10295894 0.06655563 -0.1730355 -0.19683556 -0.18786031 -0.2876461 0.29960063 0.21189214 -0.29470533
16091 0.21696162 -0.040169735 0.20317079 -0.37024522 0.100978605 0.044643495 -0.010471284 0.08389162 0.24960206 0.016149739 -0.43000036 0.23198256 0.2995635 0.10564908 -0.01225691 -0.13296324 0.09275401 0.19210143 -0.056015898 -0.06471111 -0.081181236 0.273058 0.098380364 0.102319255 -0.15732642 0.21784133 0.40889767 -0.048955493 0.24937776 0.005003037 -0.096939415 0.22111447 -0.1658422 0.08295913 0.2683133 -0.267781 -0.35355407 -0.115424044 -0.04642657 0.15211818 -0.06326956 -0.3204263 0.01096514 0.23935856 -0.21762763 -0.09445209 -0.19914298 0.14606605 -0.0043181228 0.38053444 0.10881217 0.07668314 -0.00087900506 0.2267567 0.13966584 -0.24186254 0.01741202 0.32079214 -0.029577607 -0.121265806 0.027494607 -0.03996538 0.066765755 0.18130088 0.14501856 0.06000758 -0.26187733 0.1657774 0.32344806 0.31214485 -0.013357876 0.084061034 -0.064771794 -0.080044836 -0.11726514 0.06827355 0.10818915 0.21091515 -0.010357251 0.16479087 0.20412715 0.5151842 -0.019749781 -0.07992059 0.27893806 -0.1400217 -0.08906681 -0.4519694 -0.090608284 -0.008654977 0.13875714 -0.11623408 0.16274096 0.03821474 0.12583256 0.3958747 -0.22106375 -0.01393412 -0.065828465 -0.10172932 -0.18809666 -0.13927443 -0.075704776 0.19984877 0.10111885 0.058408797 0.20790198 0.30457702 -0.16868402 0.32214317 -0.08771105 -0.23302643 0.1678202 0.076567456 0.047130425 0.044026926 -0.15074822 -0.10805656 0.10361565 -0.15642354 0.014748016 -0.048287723 -0.08123589 -0.14079115 -0.12713242 0.39073795 0.34648257 -0.32928643
11996 0.13685684 -0.12227025 0.31831753 -0.06547876 0.25317368 0.25924432 -0.12837951 0.21926977 0.17639662 0.09329206 -0.006739529 0.15545803 0.0934084 0.15701112 -0.028762508 -0.24141872 0.09557441 0.12077536 -0.15384646 0.07202416 -0.078902125 0.0031731168 0.09689163 -0.015403813 -0.24140011 0.14668193 0.38820514 0.038231246 0.29562974 -0.09769215 0.06006124 0.19225311 -0.067267165 -0.053251076 0.20972666 -0.30316943 -0.1625138 -0.2101684 -0.29987898 0.018051062 -0.113327056 -0.2794627 -0.10920321 0.21257716 -0.0344678 -0.016035434 -0.17108938 0.076581486 0.14665975 0.3049917 0.049543444 -0.05436572 -0.07709494 0.19842218 0.17871135 -0.18358445 0.047099587 0.17032716 -0.1472847 0.11075177 -0.05946886 0.04964595 -0.14281392 0.13135982 0.21538723 0.123527855 -0.1882965 0.05935523 0.051838413 0.20812914 -0.25729027 0.024122626 -0.15545943 0.0005636741 -0.10607977 0.0670451 -0.10261022 -0.047376316 0.04719379 0.103810504 0.07952074 0.168759 -0.13679427 -0.18825127 0.049519558 -0.10989528 -0.012139503 -0.25711575 0.09152283 -0.08094803 0.058733944 -0.095123634 -0.08713688 -0.10793741 0.3222926 -0.014870623 -0.062112216 -0.051866483 0.18239637 0.011903756 -0.13211598 -0.093417466 -0.22478375 0.08756336 0.13902755 0.1743421 0.17667669 0.13870215 0.009828729 0.29706395 -0.027158052 -0.299604 0.23713003 -0.10688985 -0.12547255 0.10422406 -0.23674394 -0.3487464 0.20178644 -0.029692186 0.015128584 -0.02174895 -0.0057105604 -0.3701531 -0.25341645 0.35348874 0.13808699 -0.26683342
12191 0.21470957 0.01938261 0.15417401 -0.08157418 0.100979276 0.25721648 -0.032767057 0.031880595 0.20319036 0.06644912 -0.16034675 0.06312051 0.18389866 0.16754395 0.16661838 -0.18084235 0.12329647 0.15530618 -0.18981089 0.08491148 -0.061183073 0.10009454 0.10154712 -0.019781787 -0.1153476 0.13607085 0.30011672 -0.06904863 0.33052197 -0.02183991 -0.043687347 0.24636324 -0.10773766 0.03194003 0.106245324 -0.14616182 -0.08519488 -0.16560267 0.06456957 0.017478352 -0.039438885 -0.33932015 -0.12663081 0.057629123 0.0999355 -0.09482305 -0.015933387 0.1238901 0.2461783 0.2221596 0.10662489 -0.2433993 -0.10571981 0.21041243 0.2437788 -0.19872731 -0.020357577 0.111182556 0.0039326567 0.06265582 -0.048329674 -0.052371025 -0.22751267 -0.001207206 0.27951688 -0.04680087 -0.08609914 0.11648604 0.07237716 0.121106684 -0.044000156 -0.11061703 -0.2608356 -0.01003792 -0.15578261 0.047105387 -0.08255966 -0.016040955 0.011886233 0.06732052 0.13989604 0.1906884 -0.15876792 -0.056282513 0.14824745 -0.08461253 -0.054992165 -0.124421135 0.10819679 -0.04073773 0.05224869 -0.22847964 -0.12106435 -0.113711156 0.20723559 -0.010921753 -0.05591083 -0.04021455 0.072767965 -0.053882934 -0.11610384 -0.14025317 0.024363043 0.15903424 0.01827109 0.08238565 0.15106878 0.24538219 -0.061502647 0.1178197 -0.048124038 -0.25553015 0.32580227 -0.2440813 -0.014194727 -0.083064854 -0.15935124 -0.36940828 0.22761865 -0.033079214 -0.065705635 0.087485775 -0.01406149 -0.34436196 -0.16840251 0.15266868 0.041667152 -0.16471057
10529 0.17012034 0.16209196 0.04672501 -0.09635605 0.04687549 0.13133055 -0.029152976 0.027241314 0.18508568 0.1252799 -0.26021892 0.14979438 0.13305502 0.065792404 0.054668523 -0.24713974 0.0859458 0.07480017 -0.14496526 -0.057347775 -0.011217861 0.016191678 0.099465944 -2.2492823e-06 -0.25230855 -0.010847584 0.36870798 -0.114343055 0.32029477 -0.019863196 -0.018393563 0.18448767 -0.081888944 0.09440594 0.16703856 -0.4057672 -0.30673143 -0.3558666 0.012283089 0.054602306 -0.019731741 -0.42514646 0.008223694 0.1684338 -0.20057102 -0.020676414 -0.122849576 0.2459871 0.1380017 0.37518683 0.12928124 -0.28404436 -0.044410523 0.27191225 0.24473742 -0.11448234 -0.14198802 0.09725803 0.17843221 -0.014052183 -0.050910175 -0.035308897 -0.114572436 0.004023167 0.15597275 0.04108821 -0.1501413 0.09291828 0.084318265 0.18745647 -0.02809453 0.05482502 -0.03227947 0.081332564 -0.13848288 0.13481827 -0.09384973 0.12477805 0.06991101 -0.02284858 0.11484715 0.15071113 -0.12662086 -0.13066581 0.14626984 -0.036149886 -0.018888256 -0.30521193 0.009019767 -0.104115345 0.06098566 -0.031957492 0.010606366 -0.04395075 0.04970596 0.09857053 -0.24452771 -0.12316374 0.11645362 0.06291694 -0.080472045 -0.029606111 0.07236856 0.10929193 0.00157389 0.1272116 0.010726089 0.21602622 -0.0076682786 0.14543588 -0.07577785 -0.2048964 0.36451066 -0.0782801 0.035188887 -0.058194373 -0.26950964 -0.30183896 0.10022915 -0.09391432 0.015478931 0.046495132 -0.0066286144 -0.27754974 -0.19675674 0.20550823 0.004134937 -0.14589036
14893 0.1524041 0.34532017 0.31754005 -0.11654152 0.3624028 0.27321473 0.026905527 -0.13354447 -0.0469264 0.30521935 -0.29707062 -0.0034093885 0.17864574 0.26884398 0.12957385 0.13678779 -0.07235335 -0.030421136 -0.049359903 0.2984773 -0.08006599 0.048232988 -0.02800616 -0.23523642 -0.027784595 -0.06380908 0.31127673 -0.13052203 0.5733028 -0.09746277 -0.12125459 0.20864193 -0.084226504 0.09749339 0.106766015 -0.08110044 -0.0764506 -0.19930795 -0.036228225 0.10934122 0.043667566 -0.3113256 -0.051712465 0.43549654 0.013462777 -0.12802514 -0.041784395 0.0102394605 0.11728189 0.16058898 0.14837119 -0.0657689 -0.019491559 0.32101396 0.1001023 -0.0037887369 0.047546603 -0.012862899 -0.058932442 -0.24768195 -0.091465406 0.025410319 -0.14814733 -0.12631205 0.3502268 0.058836408 0.021536201 0.09133666 -0.027875436 0.12730236 -0.07547144 -0.07687257 -0.058640257 0.22181295 -0.08829473 0.12377601 -0.048553556 0.0062528215 0.042147677 0.32718772 0.43703476 0.15797599 -0.27952567 -0.037992902 0.29588187 0.057318337 0.0011896341 -0.13800603 0.14766839 -0.03830016 0.01561906 0.09614302 -0.19238035 0.024207711 0.22461684 -0.06482151 -0.17651811 -0.15422967 0.22189878 -0.1085266 0.048639856 -0.17870243 -0.1040345 0.061812196 0.17567945 0.06063611 0.029336773 0.11141158 0.22941007 0.101479106 -0.04384693 -0.47111115 0.58922404 -0.09531002 -0.03569053 0.04517126 -0.12235041 -0.18878688 0.062101416 0.027848838 -0.06556288 0.16870499 -0.09770342 -0.1982889 -0.523192 -0.00066969375 0.14909995 -0.13618438
13931 0.093997784 0.048823424 0.14731836 0.052182253 0.16914053 0.1735743 -0.117757514 0.043490525 0.13761985 0.11698453 -0.11125646 0.100875504 0.09618416 0.16676591 -0.017053995 -0.4008235 0.051736075 0.04501012 -0.27941254 -0.024907693 -0.09181579 -0.002599435 0.21086156 -0.051842984 -0.27055892 0.09625599 0.29289827 0.059730764 0.2828862 0.044068668 -0.03893409 0.101942085 -0.13772182 0.09562012 0.10105093 -0.122274585 -0.07947616 -0.26582 -0.17707105 -0.037083592 -0.041592013 -0.32454538 -0.081602745 0.14027926 -0.024336383 0.040114902 -0.15432763 0.2900287 0.34848163 0.14224622 0.16876826 -0.18603182 -0.17125918 0.2519326 0.31834263 -0.1245396 -0.030065965 0.12510204 -0.08313891 0.16908231 -0.096763775 0.019768227 -0.1896024 0.084141865 0.30468014 0.040073294 -0.2562002 -0.06831479 0.11739639 0.15434733 -0.11519483 0.08318011 -0.08273522 0.06476007 -0.086988516 0.12737253 0.012531876 -0.12659721 -0.0065156147 0.033592995 0.21254303 0.035890367 -0.22486909 -0.10956366 0.15660498 0.0048058853 0.05844569 -0.17771195 0.07991479 -0.11384862 0.121045694 -0.107542984 -0.04152766 -0.08824273 0.38004425 -0.14653784 -0.17827171 -0.13405609 0.26232073 -0.031636283 -0.20795718 -0.17566636 -0.17378868 0.04721926 -0.0022631488 0.1312676 0.09610232 0.15417068 0.07919901 0.30808258 0.045874592 -0.31264305 0.32624215 -0.14126723 -0.18541111 0.0062495554 -0.17579573 -0.067957096 0.10476177 -0.055971418 0.059234813 -0.086922884 -0.009743606 -0.3725106 -0.19292645 0.17856957 0.04353293 -0.10467543
10599 0.065966494 0.022112735 0.09810509 -0.10182541 0.13843632 0.06536842 0.04193386 0.07876113 0.10875588 0.2346551 -0.18257838 0.16974732 0.20539017 0.11017695 -0.023119185 -0.11081582 0.10474784 0.090572186 -0.22819719 0.011905308 0.04080706 -0.045340803 0.15507503 0.047349904 -0.14087856 0.06667218 0.2724675 0.0070482306 0.34768927 0.09821971 -0.066259965 0.23347421 -0.10566547 0.035105105 0.10161817 -0.19437069 -0.070951924 -0.25785702 -0.08552339 0.07311052 0.0030298706 -0.27775753 -0.016907228 0.17581221 -0.017819049 -0.011407485 -0.10139165 0.113535784 0.20817858 0.27140403 0.09440747 -0.25782087 0.025514536 0.1462339 0.18757074 -0.08964577 -0.052044343 0.10025212 -0.05564012 -0.05740175 -0.031444263 -0.032722455 -0.17463025 0.057988 0.19900338 0.11931526 -0.35773176 0.10975746 0.08402542 0.19861172 -0.13212626 -0.01035123 -0.10022487 0.042817317 -0.20148058 0.06381208 -0.042344093 -0.055153582 -0.043560077 0.064178035 0.10247075 0.14148517 -0.26096004 -0.19300117 0.20056848 0.013326729 -0.061124478 -0.25954428 0.1008256 -0.20845404 0.1718772 -0.14875029 -0.05507964 -0.12454175 0.14501841 -0.007271805 -0.045947924 -0.20845248 0.16788945 0.008554425 -0.0792348 -0.1312973 -0.08407621 0.10719888 0.09449786 0.14981632 0.1296811 0.25704575 0.030235598 0.039373048 -0.04849618 -0.2876341 0.42398342 -0.13820319 -0.16301963 0.08262362 -0.3469814 -0.37137643 0.13180394 -0.0025628144 -0.008422776 -0.0031354974 -0.09739831 -0.17979576 -0.3310673 0.22443864 0.04433177 -0.1894242
14831 -0.089007504 0.07266389 0.21463573 -0.08581866 -0.0219131 0.28524032 0.0031883467 0.037969664 0.07852195 0.17048259 -0.19006601 0.022403669 0.08024414 0.07961259 -0.045062657 -0.04683024 0.11102728 0.22245757 -0.14871795 0.12007084 -0.1090008 0.124393985 0.056098998 -0.10629254 -0.18109371 0.1565779 0.31452712 -0.1596314 0.43387482 -0.063115954 -0.09070921 0.15032704 -0.078143805 0.046821922 0.07199594 -0.19392335 -0.08388731 -0.15148148 0.004373907 0.0629712 -0.069994204 -0.21946405 0.02327771 0.14258139 0.0057898783 -0.06303959 -0.04550127 0.12395522 0.059206862 0.23800595 0.23336647 -0.2662609 -0.10565292 0.30303776 0.14249754 0.009646812 -0.085131995 0.05394213 0.012220841 0.04902212 -0.18090132 -0.025315821 -0.04343862 0.058717974 0.16938204 0.10300689 -0.10179734 0.058028445 0.19759117 0.35259134 -0.16120207 -0.027589833 -0.13551256 0.13078706 -0.28553763 0.06653417 0.028629933 -0.032522094 0.03417711 0.16838506 0.16348661 0.12945738 -0.09962395 0.0142099485 -0.00014290439 -0.03471419 -0.045256823 -0.2548554 0.14792933 -0.13875383 0.1844599 -0.076334246 0.009976371 -0.027495423 0.013847768 0.0007399856 -0.09009187 0.0029190313 0.18615499 -0.069091536 0.05848885 -0.14685127 0.032209955 0.060669046 -0.04961893 -0.0515646 0.06819102 0.18411519 0.05465442 0.25196025 0.04728934 -0.057331692 0.18426044 -0.10121591 0.058046933 0.067050524 -0.24754412 -0.38211226 0.24310933 -0.116958864 0.016181549 0.040381208 -0.06609038 -0.38826537 -0.39673537 0.3383338 0.10277479 -0.25108373
14761 0.042289466 -0.16187748 0.14973316 -0.031036187 -0.05442909 -0.014523078 -0.13072202 -0.03805136 0.24996033 0.09516953 0.008764966 0.37649512 0.26051322 0.0873412 0.033277407 -0.2665793 0.18734561 -0.004416763 0.0032483249 0.031168867 0.061144352 0.017101381 0.106056996 0.087115854 -0.32379648 0.029031213 0.10053793 -0.1715582 0.37193015 0.035161275 -0.0038796645 0.37799507 0.1576024 0.22982265 0.1489635 -0.40962276 -0.14641127 -0.40992063 0.09781565 0.19702628 -0.17746592 -0.39678076 -0.0027582906 0.22890256 -0.35151163 -0.2203685 0.0009877683 0.15426177 0.14122452 0.15135126 -0.025264813 -0.23057227 -0.0017779799 -0.016201923 0.118977375 -0.20200343 -0.07840457 0.058814067 -0.10499933 -0.100219496 -0.045624968 0.12283809 -0.013395208 0.15398385 0.050191376 -0.1205444 -0.17811288 0.14176595 0.15702325 0.18654114 -0.13280864 -0.00833865 -0.1972401 0.15083832 -0.13642062 0.13413855 -0.04763826 -0.20840295 -0.06725597 0.12581423 0.23632272 0.03401519 -0.15026397 0.1029839 0.0880424 -0.018045869 0.018805023 -0.34901342 -0.020788854 0.05070409 0.06268612 -0.33520392 -0.039308205 -0.13131782 0.20129329 0.0300973 -0.12607194 0.13782711 -0.058673847 0.02912427 -0.17728552 -0.3289451 -0.04910641 0.32308245 -0.039923616 0.13187563 -0.059546053 0.39099443 -0.19108321 -0.16105716 -0.15720886 -0.15933728 0.3731148 0.0037645234 -0.051758252 -0.01652982 -0.22647928 -0.19737592 0.23423123 -0.21533415 0.055389464 0.2416577 0.050818328 -0.29817098 -0.014809647 0.105317675 0.20452803 -0.3444909
12451 0.08356085 0.09023058 0.13202186 -0.037107468 0.07608185 -0.057161525 -0.08343156 0.013420724 0.12576212 0.22362094 -0.024655998 0.16549091 0.2053043 0.13792363 0.048727833 -0.1781664 0.25960326 0.04926427 -0.13783409 -0.0023489748 0.07015573 0.009665971 0.0012329281 0.06831826 -0.23191603 0.04606289 0.20836766 -0.025516175 0.2727855 0.034390457 -0.072718084 0.2924252 -0.0445179 0.12703475 0.016229969 -0.24852322 -0.16028696 -0.34974775 -0.035814986 0.044820223 -0.08493326 -0.2576111 -0.10745549 0.13911663 -0.09554851 -0.09822621 0.018912463 0.1099263 0.29011858 0.37697878 0.049185798 -0.33292988 0.0037132106 0.30893123 0.31874284 -0.0023468556 -0.04799238 0.02463002 -0.007857724 0.011527884 -0.06407756 0.039573714 -0.14139323 -0.085693926 0.066999204 0.00041688356 -0.18098976 0.12785235 0.08523449 0.13192742 -0.16549188 -0.010159813 -0.23328653 0.058462206 -0.042434514 0.057279203 -0.08025573 -0.13480668 -0.00862104 0.14640513 0.20048265 0.05882082 -0.24336104 -0.094467424 0.19994491 0.07885669 -0.0068554347 -0.2710284 0.09452717 -0.11324822 0.057826646 -0.0976457 -0.0032770014 -0.037889533 0.26742846 -0.14758198 0.012678789 -0.1273519 0.19181268 -0.04421151 -0.050792594 -0.15039343 -0.044416916 0.18041188 0.0074199256 0.012916558 0.008944816 0.22308248 0.07020348 0.03121644 0.009194119 -0.29240283 0.44842744 -0.12498202 -0.033271745 0.0405959 -0.3392144 -0.29615012 0.22491893 -0.008615346 0.18632524 0.1184877 -0.067070395 -0.2656326 -0.37256786 0.24154174 -0.057924483 -0.24547537
